sequential/dense/kernel:0
(8, 64)
[[-2.05543295e-01  2.12009162e-01  2.68046081e-01  2.52427250e-01
  -9.49245989e-02 -2.16605186e-01 -2.25665644e-01  2.04514623e-01
   2.19196081e-04  1.89662710e-01  2.45011419e-01 -7.94126764e-02
  -1.90180853e-01  9.12870914e-02 -9.56973284e-02  1.48588479e-01
   1.21116087e-01  8.03625882e-02  1.04692444e-01  2.29974501e-02
   1.58465773e-01 -2.27528270e-02 -6.87174648e-02 -2.88924519e-02
   1.67799264e-01  5.03058061e-02  2.87224650e-01 -3.39643657e-02
   1.42314702e-01  2.08994120e-01  1.31734774e-01 -1.45396993e-01
   9.99073088e-02  2.81975418e-01  2.26750255e-01  2.18804747e-01
  -2.72887647e-02  1.99745059e-01  2.61695206e-01 -8.51521641e-02
   2.76731968e-01  6.62583187e-02  4.30811048e-02  2.46337831e-01
   2.75756598e-01 -3.71674709e-02  6.40616417e-02  2.46077597e-01
  -1.60638958e-01  2.84115374e-01 -1.12234384e-01 -2.60244846e-01
  -2.67870694e-01 -1.01684883e-01  1.35336757e-01 -2.87211835e-01
   1.10231370e-01  1.48754150e-01 -5.43117188e-02  2.34593347e-01
   1.67718619e-01 -9.78343040e-02 -2.93649048e-01  6.20418377e-02]
 [-2.18957588e-01  1.73770592e-01  9.40967202e-02 -1.09680422e-01
  -3.47114243e-02  8.12716484e-02 -2.64003664e-01 -2.88955830e-02
  -1.64998025e-01 -9.08439681e-02 -1.99482694e-01  7.29009807e-02
  -1.63393915e-01 -1.61629751e-01 -1.02206722e-01 -1.56702727e-01
  -2.35999644e-01  2.26449251e-01 -4.15266752e-02 -1.62679449e-01
  -1.08488820e-01 -2.63045371e-01 -7.95576870e-02  2.94268191e-01
  -1.41880944e-01  4.55519445e-02  1.75650001e-01  1.23743445e-01
   1.78317487e-01  9.02974904e-02  1.75682008e-01  6.84787631e-02
   2.63569295e-01  5.27001210e-02  3.45225930e-02 -2.52320200e-01
   2.54239082e-01  4.76776958e-02 -1.87934816e-01  9.80430543e-02
   6.96406066e-02 -2.71063447e-01 -2.63302654e-01 -3.83996740e-02
  -2.14921534e-02 -1.58430651e-01  2.64030039e-01  3.94470692e-02
   2.95230336e-02  4.34873402e-02  2.51845658e-01  3.74518111e-02
  -4.30562794e-02 -2.08245233e-01  2.38603532e-01  1.70168757e-01
  -1.02699980e-01 -8.67075920e-02 -8.12552571e-02 -1.39319271e-01
   2.66711414e-01  2.41525471e-01  4.09601405e-02 -1.83350876e-01]
 [ 1.68563977e-01  1.72962561e-01 -2.55025297e-01 -1.79487005e-01
  -8.01150799e-02  8.47674906e-02  1.40875846e-01 -2.67678857e-01
   2.83910930e-01  2.47999519e-01 -3.28729600e-02  1.48495495e-01
   3.57251763e-02  6.24715630e-03  7.19796419e-02  2.96383113e-01
  -2.08743773e-02  6.05504811e-02 -1.34062409e-01  2.06760958e-01
   1.42057478e-01  1.43052369e-01  1.18023783e-01  2.97048360e-01
   8.84322375e-02  2.57921308e-01 -1.11226708e-01 -1.14794895e-01
  -1.19365454e-02 -1.92860782e-01 -2.59642363e-01  2.83648670e-02
   1.25574023e-01  1.68298513e-01 -6.63098693e-03 -4.61504385e-02
  -3.13722491e-02  7.92704821e-02  1.62150711e-01  1.67693019e-01
  -2.79116154e-01 -2.79547483e-01  9.99878943e-02 -1.09190576e-01
  -1.50411427e-02 -2.23235458e-01 -1.42480031e-01  8.24760199e-02
  -6.70258701e-03  1.02361858e-01  2.86088526e-01  2.65824050e-01
  -7.30975866e-02 -2.90995151e-01 -1.72688380e-01  1.45395488e-01
  -2.94655561e-03 -7.40808174e-02  6.00918718e-02  1.76676616e-01
  -1.79210067e-01 -1.94172889e-01  1.71075717e-01 -9.26504359e-02]
 [-2.29543895e-02  1.67387515e-01  6.30745888e-02  2.25197256e-01
   4.91669215e-02 -1.28972888e-01 -1.33956343e-01 -1.51985943e-01
  -1.28360003e-01 -1.58457100e-01  1.97442055e-01 -1.06918156e-01
   1.19227000e-01  2.07904994e-01 -4.11417633e-02  6.63258061e-02
   2.18552783e-01  1.76756650e-01 -1.39515270e-02  2.15386391e-01
   6.48169452e-03 -1.65333897e-01 -1.48321941e-01  1.72814019e-02
   8.25550109e-02  1.77500650e-01  7.05372095e-02 -4.67082262e-02
  -1.67871714e-02 -2.62074471e-02 -1.90598056e-01  2.46437311e-01
  -2.27659389e-01 -1.95476219e-01  2.64368117e-01 -1.70116164e-02
   1.44243240e-02  1.07441992e-01  8.16389620e-02  2.82160640e-02
   2.62023389e-01 -1.72817752e-01  2.30372980e-01  7.50560388e-02
   9.59506929e-02 -1.04101911e-01  1.13383584e-01  4.22526002e-02
   8.42514485e-02  8.85047913e-02  8.41876566e-02 -1.00173876e-01
   1.46575987e-01  1.11363970e-01  1.81644857e-02 -2.13196605e-01
  -5.84858656e-03 -2.35447094e-01 -2.27959901e-01  2.66665578e-01
  -2.29408994e-01  6.55196905e-02  2.84053013e-02 -7.93158542e-03]
 [-1.71650708e-01 -1.52891994e-01  2.45674312e-01  5.78099750e-02
  -2.85799295e-01  3.77228558e-02  1.76848054e-01 -2.41050765e-01
  -1.60421118e-01  1.25895441e-01 -4.46662772e-03  2.43713990e-01
   1.07493617e-01 -1.33561596e-01 -1.11742690e-01  1.91052351e-02
   9.66444835e-02  1.10764205e-02 -8.46383274e-02  1.47701293e-01
   2.93488026e-01 -2.59587198e-01  2.48160720e-01  8.67241025e-02
   3.39952894e-02 -4.55884216e-03  1.49402976e-01  5.39667606e-02
   9.64352787e-02 -1.18873164e-01 -2.11012289e-01  2.22364724e-01
  -2.25460827e-01 -1.83096290e-01  1.24892443e-01  2.08490863e-01
   3.62819135e-02 -8.16711783e-03 -7.23066926e-03  6.67255223e-02
  -1.27221629e-01 -2.98226058e-01  2.01823652e-01 -2.16155007e-01
  -2.34915376e-01  1.45666912e-01  8.72290581e-02 -2.39099488e-01
  -2.08627120e-01 -1.09302357e-01 -1.50969177e-01 -1.21502668e-01
  -5.61356694e-02  1.60582304e-01  4.99588549e-02  2.09526211e-01
   9.63693857e-03  3.87543775e-02 -1.08788628e-02 -5.63399568e-02
   2.09028393e-01  8.64610970e-02  2.24413648e-01 -1.91785663e-01]
 [ 1.30399004e-01  2.03510150e-01  9.63702798e-03  6.44090176e-02
  -2.97729731e-01  1.91310704e-01 -2.80219764e-01  2.75172502e-01
  -3.62750888e-03  2.03386948e-01  1.73113897e-01  1.73218846e-01
  -5.88708296e-02 -3.25067826e-02 -1.09687701e-01 -2.24280655e-01
   1.92201093e-01 -2.69787818e-01  2.46790454e-01 -1.43844426e-01
  -7.67239183e-02  1.78891793e-01  1.19416177e-01 -1.48718461e-01
  -1.51296452e-01 -1.01925805e-01  7.93090165e-02 -2.05450296e-01
   1.00679815e-01 -1.03759766e-01  5.04304431e-02 -1.91904902e-02
  -2.88315117e-01 -2.43525684e-01  1.96521193e-01 -2.04007477e-01
  -1.60077959e-01 -1.66817069e-01  1.65254116e-01 -2.14481980e-01
  -1.25302970e-01 -8.90616253e-02  2.90528357e-01 -7.43442252e-02
  -1.38614386e-01  1.31485343e-01  8.55347365e-02 -1.39029816e-01
   1.18490808e-01 -2.85766900e-01 -1.48080885e-02 -1.50949910e-01
  -2.74808228e-01  1.59310728e-01  5.32398522e-02  2.15936482e-01
   2.17494249e-01  1.19044125e-01 -2.08892733e-01 -6.38193190e-02
   2.70116270e-01  7.19395876e-02 -1.04513474e-01 -1.73801899e-01]
 [ 2.74921864e-01  1.57175567e-02 -2.63559461e-01 -2.63302505e-01
  -2.14561149e-01  1.62429929e-01  2.52747715e-01 -2.32127924e-02
   1.95720017e-01 -1.52827099e-01  2.93754101e-01  7.95810819e-02
  -2.65670836e-01 -1.75390467e-01 -2.21601710e-01 -2.36820489e-01
  -1.98669389e-01 -7.99305737e-02  2.15324834e-01  2.60641903e-01
  -2.78803289e-01  2.53919840e-01 -1.79869771e-01 -9.79136974e-02
   1.38475418e-01 -9.14841294e-02 -2.63650596e-01 -2.35538319e-01
   8.96453559e-02  1.73423499e-01 -1.03496537e-02  8.85286033e-02
   1.07564926e-01 -1.12585410e-01 -2.60933548e-01  3.85194458e-02
  -1.09451011e-01  1.23495191e-01  8.37870240e-02  1.15588307e-02
   5.33089340e-02 -2.55991220e-01  2.84968287e-01 -6.91636652e-02
   2.65373409e-01 -2.51577914e-01  1.35090575e-01  2.16147542e-01
  -3.97997573e-02  7.42399395e-02 -2.98602879e-02 -2.59478867e-01
  -2.27526009e-01 -3.87830893e-03 -2.52345085e-01  1.33271515e-01
   3.41179669e-02  7.26880208e-02 -4.45070006e-02  2.48950161e-02
   1.92299724e-01 -1.52312815e-02  6.26098588e-02 -2.38604605e-01]
 [ 1.44306645e-01  2.16231078e-01 -2.64950216e-01 -2.79196855e-02
   1.46106794e-01 -1.71705008e-01 -9.00766253e-02  1.82384416e-01
  -6.22234941e-02  2.40610883e-01  2.12503731e-01  6.45153373e-02
   1.90103695e-01  1.21944889e-01 -1.76924244e-01  2.99605336e-02
   2.01950416e-01 -1.01579919e-01  1.98031086e-02 -5.68165109e-02
   1.87355280e-01  3.14643718e-02 -3.31937969e-02  2.91648299e-01
   1.06853426e-01  9.73115265e-02 -2.29518160e-01 -1.38507217e-01
  -1.51172221e-01 -2.34942228e-01  2.62562156e-01 -1.85333207e-01
  -2.74363011e-01  1.24578327e-01 -1.08532876e-01  2.41084754e-01
  -5.98585159e-02 -2.68819660e-01 -5.29354215e-02 -2.74842024e-01
  -1.99155778e-01  2.09129795e-01  3.57335731e-02  1.37897685e-01
  -1.08219862e-01  1.90586060e-01  1.74819659e-02 -5.92993051e-02
   2.91750301e-03 -2.79728919e-01 -1.11968234e-01  1.30359471e-01
  -2.51933098e-01  1.23506144e-01 -2.25423589e-01 -1.62751138e-01
  -1.04242578e-01  4.39711995e-02  4.03937399e-02  9.06047821e-02
  -1.57407045e-01 -1.98977038e-01  1.08651027e-01  1.88260376e-01]]
sequential/dense/bias:0
(64,)
[ 0.01155449  0.00681678  0.          0.0060037  -0.01037575  0.
  0.         -0.01019196  0.          0.01138423  0.01031327  0.00672573
  0.01077811  0.01116708  0.          0.01178115 -0.00690682  0.
 -0.01183275 -0.00600117  0.00551344 -0.01129855  0.          0.01052285
  0.01052318  0.01167412  0.          0.          0.          0.
  0.00195487  0.          0.          0.00688096  0.         -0.01137669
  0.          0.          0.          0.          0.         -0.01092079
  0.00406652  0.00223535  0.         -0.0117935  -0.01021217  0.
 -0.01007155  0.          0.          0.01190121  0.         -0.01185787
  0.          0.          0.         -0.01035851 -0.01028848  0.00198674
  0.          0.         -0.01193018  0.01181426]
sequential/dense_1/kernel:0
(64, 128)
[[-6.32596388e-02  1.58319160e-01  6.57031639e-03 -1.15218163e-01
   1.71352729e-01 -1.56990021e-01 -1.73421800e-01  6.07214905e-02
  -5.85769340e-02  9.82640684e-02  9.36521813e-02  3.55935246e-02
   1.35889784e-01  1.15312912e-01  3.60208377e-02 -1.63230598e-02
  -1.45075411e-01  1.51020020e-01 -3.00769955e-02  1.15842350e-01
   2.85039302e-02  4.35921885e-02  8.52696449e-02  1.39060214e-01
  -3.48162055e-02  3.61886770e-02 -3.44870053e-02  1.03984773e-03
  -9.72675085e-02 -1.18639499e-01 -8.60264525e-02 -1.30263925e-01
   1.26139611e-01 -4.20465395e-02 -1.53570876e-01  1.12800844e-01
  -1.26370922e-01 -9.23428982e-02 -1.53173238e-01  3.38133276e-02
   1.32943760e-03  5.99822104e-02  6.30245060e-02  4.10744995e-02
  -1.51994258e-01 -1.05722375e-01 -1.58337906e-01 -1.13059722e-01
  -1.31390780e-01 -5.11785448e-02  6.94927275e-02  9.13041085e-02
  -1.65713131e-01  5.32987714e-02  1.04453161e-01 -1.03718549e-01
   6.48340583e-03 -8.61654878e-02  1.94051713e-02  9.66683030e-04
  -1.27356932e-01  1.17763892e-01  1.76705435e-01 -7.57106543e-02
   8.62970501e-02  3.61191742e-02  7.60157704e-02 -1.33401617e-01
   1.72333494e-01 -7.13952258e-03 -2.19910443e-02 -1.03413679e-01
   7.28854686e-02 -1.24963760e-01  1.16353035e-01  1.60565034e-01
  -1.59267634e-01  1.82538956e-01 -1.19419925e-01 -1.02601089e-01
  -1.67847887e-01  7.43251890e-02 -2.67807059e-02 -1.01167060e-01
  -4.00195383e-02  1.10960469e-01  1.25304267e-01 -2.32510269e-02
   1.03555642e-01 -1.19481333e-01  1.35455683e-01  9.68866199e-02
  -2.37797201e-03  6.42840564e-03  4.31281105e-02 -1.47875339e-01
   2.60078907e-02  9.72492546e-02  3.57330069e-02 -5.92121482e-02
  -7.49053359e-02  1.37455001e-01 -1.36210650e-01  9.25367326e-02
   7.67549425e-02  7.44848773e-02 -1.08987540e-02  1.14676192e-01
  -1.04088761e-01 -7.27900937e-02 -3.27754170e-02 -3.03917974e-02
  -1.25748575e-01 -2.16170698e-02 -7.92553555e-03  3.71089578e-02
  -4.46476266e-02  3.14068869e-02 -1.59832388e-01  1.56739041e-01
  -1.16096064e-01 -1.48091316e-02 -3.56911719e-02  1.50316358e-02
   8.91815929e-04 -5.17282747e-02  3.22908908e-02  1.58346206e-01]
 [ 2.32997835e-02 -6.84020594e-02 -1.34636862e-02 -5.53778522e-02
  -1.30698353e-01  2.46330239e-02  4.16193306e-02 -1.15265213e-01
   1.20926462e-02 -7.28488415e-02 -1.34865111e-02  2.39345580e-02
  -1.22419402e-01  5.62727228e-02  3.24059688e-02 -5.12125939e-02
   7.50143453e-02 -7.80049190e-02 -1.17445983e-01  9.84542966e-02
  -1.61863491e-01 -5.96510321e-02  1.07951127e-01 -1.39110848e-01
  -1.50473863e-01 -1.20303795e-01  5.61558753e-02 -7.25267157e-02
  -7.27728531e-02 -1.48867071e-03  1.68246999e-01 -1.25974685e-01
  -1.48372263e-01  6.85549453e-02  1.75255373e-01 -1.02056019e-01
   1.46224573e-01 -5.03284782e-02 -2.26292759e-02  1.46948233e-01
   1.60401598e-01  7.78220594e-03  2.36738473e-02 -1.17856368e-01
   9.58931744e-02  3.99425626e-03  5.74541688e-02  1.72257170e-01
  -4.51674759e-02  1.53183937e-02 -1.63060978e-01 -9.59194824e-02
  -1.68440565e-01 -5.49333617e-02 -3.97755802e-02 -1.35569721e-01
  -1.46948233e-01  1.19451106e-01 -7.45828077e-02 -1.26917988e-01
  -3.51269729e-02  1.80614427e-01  1.76096484e-01  1.60130635e-01
  -1.43742323e-01  1.87256381e-01 -4.67268340e-02  1.57507271e-01
   2.88421065e-02  1.51025699e-02 -1.00247413e-01 -3.18463519e-02
  -9.23903584e-02  1.16225109e-01  1.27025589e-01 -9.34049487e-03
   7.07665905e-02  1.17336415e-01 -5.61494082e-02 -4.25015949e-02
  -1.64763063e-01 -1.42778873e-01  7.77822360e-02 -1.10086657e-01
   4.34547588e-02  3.16419154e-02  6.01052940e-02 -1.98768377e-02
   1.15509130e-01  5.96410260e-02  5.91148287e-02  1.21934488e-01
  -1.04579985e-01 -9.33530331e-02 -5.24126329e-02  7.44012445e-02
  -9.65124890e-02 -1.32823139e-01 -4.65943962e-02  1.51444227e-02
   7.21074417e-02  1.17565766e-02 -1.37711838e-01 -1.65135980e-01
  -1.04431883e-01 -1.15132453e-02  6.20270967e-02  2.06575245e-02
   5.67404926e-02  4.05124426e-02 -3.29464376e-02  7.06124902e-02
   4.53113997e-03 -1.37022287e-02 -1.59383528e-02 -1.53694928e-01
   1.77553698e-01  1.43197015e-01 -1.02012604e-02 -1.63116604e-01
  -9.41929370e-02 -8.30122605e-02  1.04415581e-01 -3.80733609e-02
  -3.35726552e-02  3.89031358e-02  8.19953531e-02  1.18697450e-01]
 [-8.73346329e-02 -3.99420261e-02 -1.14985958e-01 -1.14903852e-01
  -3.45409811e-02  3.91247869e-02 -5.61671630e-02 -1.59480393e-01
   3.60568464e-02 -4.74764854e-02  1.47679970e-01 -6.99278563e-02
   4.71833050e-02  1.40418559e-02  1.36995837e-01  1.72952250e-01
   1.64909407e-01 -1.34631783e-01 -9.92923677e-02 -4.80306149e-03
  -1.74646884e-01  4.43875045e-02 -7.16174021e-02  4.09297794e-02
   1.10052362e-01  1.09690577e-02  1.75940618e-01 -3.21172476e-02
  -1.28447786e-01 -3.13102603e-02 -6.52445853e-02 -1.73584864e-01
   9.67263728e-02 -2.45666355e-02  1.70953676e-01 -5.66375256e-02
  -1.08512044e-02 -1.70186818e-01  1.41319633e-02  1.33959755e-01
   8.06808323e-02  1.54269144e-01 -6.11901432e-02  6.08100593e-02
   1.43488571e-01  3.15040499e-02  9.86757129e-02  1.26939401e-01
   1.60625264e-01  4.08406705e-02  1.18488148e-01 -7.80052617e-02
   4.04097587e-02  1.12370700e-02 -8.60604048e-02  4.03432995e-02
   2.68799067e-02  7.47718662e-02  1.54793561e-02  9.04064924e-02
  -1.11636803e-01 -1.05376840e-02 -6.83154464e-02  1.09018430e-01
   1.08186111e-01 -7.99279138e-02 -6.09698817e-02 -3.27974111e-02
  -1.32964551e-03 -9.89527479e-02  1.48827061e-01 -1.23772621e-02
  -7.70610049e-02  1.36115268e-01 -1.15074173e-01 -1.53423920e-01
  -5.29048741e-02 -8.81739482e-02 -2.96860039e-02 -1.07294157e-01
  -1.39081389e-01 -5.71746454e-02 -9.22249705e-02 -2.77762413e-02
   1.37773007e-02 -1.04714774e-01 -3.67453694e-03 -6.68002218e-02
  -1.26443326e-01  8.12828094e-02 -1.49624601e-01  1.57978490e-01
  -4.81013954e-02 -9.92195308e-03  4.20466661e-02  1.00469992e-01
  -1.19315952e-01  1.27469137e-01 -5.11835515e-02 -1.72920972e-02
   6.79279864e-02 -8.36936906e-02 -8.28118995e-02  1.50743380e-01
   1.60253480e-01  8.20275098e-02 -1.85600817e-02  2.80597210e-02
  -1.64509848e-01 -1.52952895e-01  6.15425706e-02  6.02016747e-02
   3.46467346e-02 -1.57864839e-02 -1.35545015e-01  3.83472294e-02
  -3.91175449e-02 -1.62216648e-01 -9.10070986e-02  7.23455250e-02
   7.38300532e-02  7.48134404e-02  7.36293942e-02 -1.13825276e-01
   7.50132054e-02 -7.97517002e-02 -3.17654908e-02 -5.97867817e-02]
 [ 6.26410544e-02 -7.73550197e-02 -1.71916991e-01 -1.28287494e-01
   1.32671282e-01 -4.12458600e-03  3.51746231e-02 -1.69696927e-01
   1.43812478e-01  1.01663917e-02 -9.85706225e-02  4.76173759e-02
   6.45906329e-02 -6.95810914e-02 -9.20414031e-02  5.94097376e-02
   8.70916024e-02 -1.73718184e-01  5.39910793e-02 -3.78423408e-02
   2.77430713e-02  1.51431739e-01 -1.17190465e-01 -1.00507542e-01
  -2.21201479e-02 -7.08145872e-02 -1.31468505e-01 -7.82498345e-02
  -1.30950764e-01 -8.79093930e-02 -1.27252370e-01 -9.16741490e-02
  -1.77152663e-01 -1.56717718e-01  1.13130532e-01 -3.19888778e-02
  -3.88724208e-02  1.21707186e-01 -3.76371704e-02 -7.19940662e-02
  -1.06638066e-01 -1.22739755e-01 -1.00120761e-01  7.17309415e-02
   1.25825331e-01 -7.99441338e-03 -1.99067146e-02  1.16251066e-01
   3.36424559e-02  1.50436863e-01  3.89959142e-02  9.25406069e-02
   1.79989964e-01  1.10518321e-01 -5.48432097e-02 -8.98144245e-02
   5.32889217e-02  1.49960905e-01 -7.13501051e-02 -1.12068638e-01
   1.14296123e-01 -1.03880778e-01  4.71260697e-02  7.64701962e-02
  -1.17654189e-01  1.60353407e-01  4.87787724e-02 -6.53280616e-02
  -1.13314413e-01 -1.55244708e-01  1.21740088e-01 -1.75619736e-01
  -3.45791280e-02 -1.79633498e-04  1.51062056e-01  1.20245889e-01
   2.16661468e-02 -1.70136184e-01  9.36076976e-03  1.76128373e-01
  -1.56070247e-01 -1.01118945e-01 -4.90776449e-02  1.05769791e-01
  -1.22881025e-01 -1.06064267e-01 -4.35048109e-03 -1.59234881e-01
   1.29585221e-01  4.94292937e-02  1.01415366e-02 -1.16264939e-01
   1.14217922e-01  4.55698520e-02 -1.60853013e-01 -1.58885270e-01
   4.03932482e-02 -1.17230147e-01  1.45627469e-01  4.10555005e-02
   1.65817812e-01  1.01173602e-01 -1.27292156e-01  5.21980226e-03
  -9.37572643e-02  1.63354397e-01  8.20647031e-02 -1.14461988e-01
  -1.58599898e-01 -1.22844532e-01 -1.75495297e-02  1.95683222e-02
   1.12103388e-01 -1.09921098e-02  1.44027725e-01 -1.15840569e-01
   8.03498253e-02 -1.16006203e-01  5.10720760e-02 -7.82746226e-02
   1.18920162e-01  2.35798061e-02  7.29329884e-03  3.48414034e-02
  -1.23279959e-01  5.19232452e-02  1.23621002e-01 -3.73970810e-03]
 [-7.98776299e-02  5.56711406e-02  1.09739304e-01  1.32377848e-01
   3.98085862e-02 -1.35128070e-02  9.28570181e-02  5.76769114e-02
  -9.04052779e-02  4.14799973e-02  1.47848442e-01 -2.96138972e-02
  -1.49493560e-01  1.82608012e-02  1.64534673e-01  2.32837349e-02
   7.56208748e-02  6.28157333e-02 -9.78459716e-02  9.90060391e-04
   3.20920465e-03  5.31267701e-03  1.42073408e-01  1.28137246e-01
   4.05144095e-02 -4.25484180e-02 -8.76796171e-02 -1.15159728e-01
   5.43214679e-02 -3.69852930e-02  4.42391783e-02  1.17385797e-01
   1.81991965e-01 -1.02196790e-01 -1.56617120e-01  1.47877365e-01
  -1.74475059e-01 -3.40183228e-02  1.04195781e-01  6.13748282e-02
  -1.58743188e-01  3.22091728e-02  7.76963085e-02  5.99408746e-02
   3.41784842e-02  1.03396937e-01  3.91951352e-02 -5.14040589e-02
   1.12761900e-01 -1.05281226e-01  1.53726622e-01  7.67467171e-02
  -1.29375923e-02 -7.32808933e-02 -9.38501582e-02  2.45946646e-02
  -9.08176899e-02  1.71600044e-01  1.50793448e-01 -1.25012949e-01
  -1.60392284e-01  6.99302331e-02  5.63522726e-02 -9.75400582e-03
  -6.37256578e-02 -1.57724142e-01 -3.39765698e-02  2.46593282e-02
  -1.52897179e-01  1.20917127e-01  4.23773974e-02 -4.28771600e-02
  -1.08985171e-01  7.53632188e-03  1.61324944e-02 -9.45902988e-02
   1.37534484e-01  9.62042585e-02 -1.42565295e-01  1.27703115e-01
   1.63719356e-02  5.19691631e-02  4.82649319e-02 -1.48301721e-01
  -1.47600919e-01 -1.01094186e-01  5.93050495e-02 -1.69866636e-01
   5.94450086e-02  6.02191836e-02 -1.07967161e-01 -1.37775362e-01
   7.52518028e-02 -4.21297848e-02 -5.86888902e-02 -5.45332581e-02
  -1.74306333e-03 -5.14664054e-02 -1.64485425e-01  1.00440070e-01
   1.76994577e-01 -1.25989154e-01  1.22368529e-01 -3.31848711e-02
   2.06618607e-02  6.29553124e-02 -1.52546391e-01 -4.95846719e-02
   6.63137734e-02 -3.80731821e-02 -2.01748908e-02 -5.60528189e-02
  -9.12935566e-03  1.05237141e-01 -1.00724079e-01 -4.43272293e-02
   1.72308192e-01 -8.78368244e-02  8.77343863e-02 -1.47723272e-01
  -1.04068965e-02 -1.04882516e-01 -5.03579825e-02  9.94277447e-02
  -1.31332010e-01  4.40869294e-02  1.22242644e-01 -1.43314049e-01]
 [-1.39024585e-01  1.45325735e-01 -8.01965594e-04 -1.08346693e-01
   7.77971745e-03 -5.38031459e-02  1.69124946e-01  1.23672783e-02
  -9.29635987e-02  1.74291238e-01 -5.28451055e-02 -1.26835167e-01
  -8.52463394e-02  1.00630328e-01  1.40854970e-01  1.33185729e-01
   1.66430727e-01  2.91778892e-02 -1.24318071e-01 -9.86049101e-02
   1.58725247e-01 -1.03925444e-01 -9.65297297e-02  1.14642635e-01
   6.90828562e-02 -7.25706369e-02  6.18174076e-02  1.26373917e-02
  -7.24300295e-02 -6.77626878e-02  1.53547421e-01 -3.29534411e-02
  -1.19771272e-01 -1.38460785e-01  9.79931802e-02 -1.10526383e-02
  -1.40444681e-01 -8.19721594e-02 -1.34768933e-01  1.09998420e-01
   1.41115233e-01  1.59856305e-01  1.02097198e-01  6.81067705e-02
   7.07616508e-02 -1.42398104e-01  1.41721949e-01 -5.63248992e-04
  -1.18807159e-01  5.40731400e-02 -8.66812691e-02  3.42981815e-02
  -4.10605520e-02  1.37609199e-01 -1.58778891e-01  1.60192713e-01
   1.50507435e-01  1.38539270e-01 -1.62072077e-01 -2.24010944e-02
  -3.91526073e-02  5.67205548e-02 -2.72576660e-02  3.40866446e-02
  -1.08355202e-01 -1.69517547e-02 -5.11743724e-02 -9.86733958e-02
   8.06753784e-02  7.96703547e-02  9.92975384e-02 -1.93289220e-02
  -6.40273020e-02 -3.51419598e-02  9.39377397e-02 -6.36812747e-02
  -5.74337617e-02 -1.42871067e-01 -1.29130185e-01 -5.73452935e-02
   1.71537682e-01  3.69978994e-02 -1.22965828e-01 -7.40654171e-02
  -3.58851254e-02  1.59914866e-01  6.22849017e-02 -1.41163826e-01
  -1.39067441e-01  1.23477742e-01 -1.05641708e-01  1.35063544e-01
  -9.35109556e-02 -2.58938074e-02  1.34353265e-01  6.05837405e-02
   1.24470100e-01  6.18031323e-02 -5.69695160e-02 -9.60604623e-02
   1.13936201e-01 -7.40489364e-02  1.97808594e-02 -7.69654512e-02
  -2.86818594e-02  1.33674726e-01 -4.78902459e-02 -1.52075052e-01
   5.00646234e-03  1.28610298e-01 -1.56853497e-01  8.06483179e-02
   6.39073551e-02 -9.17221606e-02  6.22436404e-02 -2.86399573e-02
   1.67639121e-01 -1.38160706e-01 -2.82889605e-02  1.21093377e-01
  -1.05154954e-01 -1.17896155e-01  5.68926334e-05 -2.70804018e-02
  -1.53797001e-01 -1.05197608e-01 -1.68737143e-01 -6.56254664e-02]
 [-1.47556037e-01 -7.12502971e-02  1.23609081e-01  4.95882481e-02
  -2.33284533e-02 -2.76844501e-02 -9.55328271e-02  9.17818099e-02
  -1.46739691e-01 -1.58584222e-01  6.46766573e-02  5.30281514e-02
  -2.36127675e-02  1.13486275e-01  9.97463018e-02 -1.61441520e-01
  -1.02555588e-01  5.62511683e-02 -4.73992229e-02  7.00454414e-02
  -5.70219457e-02 -7.12519884e-02 -2.70742923e-02  6.09546751e-02
   7.83409029e-02 -7.32817799e-02  2.07266212e-03 -3.90775949e-02
  -1.46245807e-01  1.75681427e-01 -1.10525385e-01  1.06943533e-01
   1.30128399e-01 -1.56909376e-02  1.38919607e-01  5.04547507e-02
  -7.18123317e-02 -8.64230096e-03  4.38805968e-02 -2.97448039e-02
  -1.26086220e-01 -1.15955204e-01  1.31001726e-01 -1.60972685e-01
   1.56082809e-02  1.39803216e-01 -2.73801088e-02  5.22636473e-02
  -1.15459472e-01 -8.21691155e-02  6.76249117e-02 -4.87127006e-02
  -1.64384261e-01 -1.12875409e-01  7.54051059e-02 -2.77015269e-02
  -1.21331207e-01  5.81380427e-02  1.62235782e-01  8.23838562e-02
  -8.21626633e-02 -1.62153587e-01  8.38695318e-02 -7.44402260e-02
   1.37972936e-01 -1.72348112e-01 -7.05617666e-03  1.47795677e-03
  -1.58542573e-01 -1.52162850e-01 -3.42733115e-02 -1.32709339e-01
   1.20333686e-01  1.63777962e-01 -1.07407741e-01 -1.52860045e-01
  -7.24279657e-02  3.65686715e-02 -7.03025833e-02 -6.94405138e-02
   1.49050400e-01 -1.21491157e-01  1.88224912e-02 -3.37727368e-02
   4.27530110e-02 -1.39685318e-01  6.78941905e-02  6.50950074e-02
  -3.41440886e-02  1.73272356e-01 -1.54270232e-03 -8.99995342e-02
   1.52349189e-01  4.80781794e-02 -1.26561299e-01 -1.70302138e-01
   1.52485967e-02 -7.73722529e-02  1.22976407e-01 -5.66710532e-03
   1.21193603e-01 -6.48316741e-02 -1.73315883e-01  1.30622283e-01
  -8.92753229e-02  1.16225287e-01  4.14286256e-02  6.36417866e-02
   1.51478842e-01 -1.38851151e-01 -9.95018408e-02 -3.25277597e-02
  -6.05247691e-02 -5.74264303e-02  9.24595147e-02 -1.59178108e-01
   1.36829451e-01  4.06585187e-02  1.34473816e-01  5.14162034e-02
   1.75639197e-01  1.70048252e-01  1.73059896e-01  1.65380344e-01
  -1.82515234e-02 -1.02178328e-01  1.00672081e-01  1.25287071e-01]
 [ 1.73493043e-01 -1.33239716e-01 -1.39582351e-01 -4.18469496e-02
  -1.55642539e-01  8.28882903e-02 -2.92623937e-02  1.25130281e-01
   3.64582613e-02  1.22759156e-01 -2.58483794e-02 -4.29227352e-02
   7.06276298e-02  3.06641683e-02 -3.43862139e-02 -1.13549083e-02
  -1.44941449e-01 -7.49554560e-02 -1.55492485e-01  9.48280543e-02
   5.83343068e-03 -7.33409077e-02  8.44725966e-02  1.54865667e-01
   9.26708430e-02  7.88482875e-02 -1.41598314e-01  7.75398463e-02
   8.44197422e-02 -1.65259093e-02 -1.95883326e-02  1.30611390e-01
  -1.24278158e-01  9.74450409e-02  3.78588624e-02 -1.61587477e-01
   9.50572938e-02 -1.17683142e-01  2.85131996e-03 -8.78919810e-02
  -6.14159182e-02 -1.66380584e-01  5.54912090e-02  1.13111213e-01
  -6.88728294e-04  1.89815462e-02 -9.89366099e-02  8.61434788e-02
  -9.26585793e-02  3.85292172e-02  1.56698227e-02  3.93174887e-02
  -6.73996732e-02  8.04466158e-02 -2.35018432e-02  1.64380834e-01
  -4.57410514e-02  2.54804865e-02  1.22235224e-01  1.58362344e-01
   2.49668900e-02  1.15462504e-01 -6.62215054e-03  4.38286215e-02
   1.62803844e-01 -1.37180574e-02 -1.23872131e-01  1.60962835e-01
  -7.78100342e-02  1.65162802e-01  1.05633095e-01  5.37409075e-02
  -9.70293358e-02 -5.79778329e-02  4.44302410e-02 -9.95388031e-02
  -1.67028189e-01  1.75508037e-02 -1.05343215e-01  6.73077181e-02
  -5.10596037e-02  1.11848943e-01  4.18457836e-02  1.77291721e-01
   3.05448025e-02  1.75188020e-01  1.62149757e-01  1.52982071e-01
   3.22579704e-02  1.43934026e-01  1.30216524e-01  3.73153873e-02
   1.44156113e-01 -1.57138541e-01  1.23206168e-01 -7.29383230e-02
   3.31281424e-02 -1.22356862e-02  1.36587605e-01  1.16208807e-01
   4.37438302e-02  1.07568122e-01  1.08073190e-01  7.03792125e-02
   1.39314249e-01  2.30452307e-02 -5.14420420e-02 -6.37195408e-02
   1.32161811e-01 -1.19724318e-01 -2.12962180e-02  1.68296084e-01
  -7.73786381e-02  1.30958989e-01  1.09232806e-01 -1.75976366e-01
   1.76354811e-01 -1.55266136e-01  6.79953396e-02 -2.20729858e-02
   1.27069965e-01 -1.22830920e-01  1.50941655e-01 -2.39358693e-02
  -8.61315057e-02 -1.24105185e-01  6.53423220e-02 -1.51359588e-01]
 [-3.79338115e-02 -7.08802119e-02 -5.68940714e-02  5.63363731e-03
   1.66245684e-01 -9.84558463e-03  8.96691531e-02 -1.08446494e-01
  -1.25370309e-01 -4.77093458e-03  1.29549965e-01  1.31131873e-01
   4.86225486e-02 -1.43930525e-01 -8.27751458e-02 -1.06946826e-02
  -5.27970642e-02 -7.02582076e-02  5.86359203e-03 -1.33330926e-01
   1.44974962e-01  9.09438282e-02 -1.55795321e-01  1.53832033e-01
  -3.43788415e-02 -1.26610860e-01 -8.97759497e-02  7.88476616e-02
   1.69423968e-02 -1.55368239e-01 -1.67638585e-01 -1.16257526e-01
   1.66028544e-01  1.38465464e-02 -2.98057497e-02 -5.37754148e-02
   1.02263942e-01  9.49555635e-03 -8.17571729e-02 -1.01649515e-01
   1.61659271e-02 -1.16247386e-02  3.49711776e-02  6.36136234e-02
   6.18757010e-02  8.48169476e-02 -8.27995092e-02 -1.20481484e-01
  -1.61509588e-01 -1.73081383e-01 -1.05418876e-01 -1.32576108e-01
   1.60557017e-01 -7.23435059e-02 -5.45627624e-02  1.51557371e-01
   2.20249295e-02  8.64792317e-02 -2.80699730e-02  7.88311213e-02
   1.39988974e-01  6.96541965e-02 -2.95297205e-02 -1.34345233e-01
   1.50783941e-01  1.51381955e-01 -8.07483047e-02 -1.12539679e-02
   9.95374173e-02 -1.26428068e-01  1.60428956e-01  2.22344846e-02
  -1.75393268e-01 -6.02028519e-02 -1.01356633e-01  6.43365681e-02
  -1.91654414e-02  7.10174739e-02  6.77641630e-02 -6.75345510e-02
  -5.62152117e-02 -6.96702600e-02  1.58478424e-01 -1.01691574e-01
   7.52293020e-02 -4.51326221e-02 -4.62995470e-03  5.95781058e-02
   1.17370203e-01 -1.79644972e-02 -1.01310909e-01 -8.78984332e-02
   7.18941838e-02 -1.11703180e-01  1.54239848e-01  6.11232966e-02
  -9.69931334e-02 -7.22889602e-03  1.52986780e-01  1.33176282e-01
  -1.33156598e-01  2.74582952e-02  1.46981314e-01  3.52889299e-02
  -1.63037837e-01  1.52842104e-02  8.73471946e-02 -1.58255517e-01
   1.13239571e-01  5.90943843e-02  1.76226497e-02  1.12643763e-01
  -4.80480343e-02 -1.71016395e-01  1.69587150e-01 -1.69832855e-02
  -1.65378079e-01  9.14628655e-02 -1.51911989e-01  1.30608484e-01
  -3.58882546e-02  4.53850776e-02  1.19980231e-01  9.38184112e-02
  -1.21246666e-01  1.39423743e-01 -1.72368929e-01  4.09837216e-02]
 [-2.89326757e-02 -9.98952761e-02 -1.07958816e-01 -1.04839830e-02
   1.55300424e-01  2.09905896e-02 -1.63815647e-01 -1.22963123e-01
   6.56932443e-02 -1.18115380e-01 -1.46677732e-01 -8.99572223e-02
   1.30896971e-01  1.45680681e-01 -1.05121426e-01 -1.42431766e-01
   5.94847500e-02 -3.76396626e-02 -2.66091526e-02 -1.56963449e-02
   2.36549675e-02 -4.87273708e-02  1.82348698e-01 -1.87756345e-02
  -1.61035225e-01 -1.03038169e-01  9.01013240e-02 -1.66681722e-01
  -1.03513204e-01  1.12134442e-01  1.48936912e-01  1.49334237e-01
  -1.93560459e-02  1.82991400e-01 -1.46680027e-01  7.93953389e-02
  -1.44162074e-01  1.73939869e-01  1.19770490e-01  9.20641869e-02
  -4.26938571e-02 -5.06209284e-02 -2.03439891e-02 -3.58144939e-02
  -6.13161959e-02 -1.34727836e-01 -8.78420845e-02  1.20652422e-01
   9.68543738e-02  6.22092932e-02 -3.33375335e-02 -6.13717139e-02
  -1.43679842e-01 -1.48092300e-01 -6.78090528e-02 -3.20798159e-02
  -1.32647976e-01  4.91080098e-02  1.19463131e-01 -2.74989605e-02
  -5.84145226e-02 -1.76717062e-02 -3.56684923e-02 -8.22833180e-02
  -6.02731928e-02  1.40518323e-01 -1.61729187e-01 -1.50194481e-01
  -1.66380376e-01 -1.58946186e-01  1.56475767e-01 -1.18097641e-01
  -1.75332367e-01  2.90741175e-02  1.13309540e-01  7.63982087e-02
  -5.17730936e-02 -1.17341630e-01  1.20644547e-01  1.48439392e-01
  -4.34104055e-02  8.49434659e-02  7.46549442e-02 -8.92956331e-02
  -1.80061744e-03 -8.65504891e-02 -6.11138418e-02  7.64057487e-02
  -1.10058924e-02  8.38068351e-02 -1.49918318e-01  1.31455421e-01
   1.40787050e-01 -3.30281705e-02 -1.55145213e-01 -3.50574106e-02
  -5.66397980e-02 -4.00087386e-02  1.41306728e-01 -1.05312079e-01
   1.50590852e-01 -7.48759583e-02 -1.30240470e-01  4.09242958e-02
  -6.72114119e-02 -5.78801148e-02 -7.76808113e-02  9.22119170e-02
  -1.88130885e-02 -7.41445273e-02  1.32622465e-01 -8.62806663e-02
   2.14309283e-02 -1.75821722e-01  1.29132465e-01 -1.54449701e-01
   1.05971314e-01 -2.02217810e-02 -1.64616913e-01  1.13873079e-01
   3.79666835e-02  7.22458512e-02 -1.71656862e-01  9.60281491e-03
   8.08150992e-02 -2.08328776e-02 -8.04007202e-02 -1.22361153e-01]
 [-6.53271526e-02 -6.81077465e-02  3.16825844e-02  6.06010407e-02
  -8.23457912e-02  7.44148716e-02 -1.75151348e-01  1.44574925e-01
  -1.06908247e-01 -1.60025865e-01  9.25367177e-02  2.92246640e-02
  -1.68871328e-01 -1.14024259e-01 -1.81535676e-01  1.48481503e-01
  -1.25759661e-01 -3.67604606e-02 -9.00257081e-02  1.39873117e-01
  -5.72590418e-02  2.16771271e-02 -1.31899685e-01  1.72731504e-01
  -1.68502167e-01  8.14346224e-02 -9.41759422e-02 -2.57685781e-03
  -4.65047956e-02  1.43315896e-01 -1.51833862e-01  1.07855326e-03
   9.58091468e-02 -9.26006734e-02 -1.25962526e-01 -8.14918429e-03
   2.06631273e-02 -1.10431738e-01  1.30929723e-01 -1.47869945e-01
   5.02202054e-03 -7.81278610e-02 -2.62227207e-02 -7.47636631e-02
  -5.41400611e-02 -6.89478591e-02 -9.07280445e-02 -8.91326591e-02
  -1.59484982e-01 -1.06838942e-02  5.60840108e-02 -1.51938170e-01
  -1.32432589e-02 -1.18530765e-01  8.15943927e-02 -1.74244970e-01
  -1.37717485e-01  1.43964097e-01 -1.39041245e-02 -1.07616581e-01
   1.36607558e-01  1.84001833e-01  9.58008915e-02 -1.86055183e-01
   7.32541233e-02 -7.18668774e-02  5.48953526e-02  1.51189610e-01
   4.19171005e-02  6.71844035e-02 -9.22964513e-02  1.00776345e-01
  -2.00649351e-02  1.02763280e-01  1.28261179e-01 -1.05279282e-01
   1.02381799e-02 -8.43394473e-02  4.77159768e-02  1.85863152e-01
   1.34700075e-01  5.42614460e-02 -1.04723454e-01  1.61469921e-01
   3.64661515e-02  1.66950747e-01  7.50631392e-02  6.47665560e-02
   7.24025723e-03  1.26587257e-01 -6.96834028e-02  9.62168202e-02
  -1.50236577e-01 -1.18275985e-01  1.42571688e-01  6.97781593e-02
  -1.57209337e-01  4.61363792e-02  2.84764320e-02 -3.97486091e-02
  -7.92822912e-02  2.07215343e-02  7.94173032e-02 -8.51733014e-02
  -4.37976569e-02 -1.02922633e-01 -1.53431714e-01  9.89097506e-02
   1.67370811e-01 -1.32205725e-01 -1.05322823e-01  1.36892796e-02
   2.35776529e-02 -8.86352435e-02  5.86789139e-02  5.31165302e-02
  -6.53383881e-02 -1.11437932e-01  9.26937312e-02  4.33510542e-03
   8.83188397e-02  1.20577589e-01 -1.31059200e-01 -8.63985121e-02
   1.25617504e-01  6.28489852e-02 -1.69248298e-01  1.74311548e-01]
 [ 9.55926031e-02 -9.31256115e-02 -1.37090489e-01  9.24115255e-02
  -5.71747720e-02 -9.35826749e-02  1.22549847e-01  1.99946538e-02
   7.50994235e-02 -1.43898129e-01  1.46105602e-01  4.96746153e-02
   1.31481633e-01  1.31093830e-01 -1.38293654e-01  1.10016808e-01
   1.52148575e-01  1.21132635e-01  2.78278291e-02 -1.12307988e-01
  -6.99705165e-03  1.43322960e-01  1.35507464e-01  3.14075276e-02
   4.87413555e-02  9.02476460e-02 -1.00992113e-01  1.52540222e-01
   1.16473779e-01  7.40470737e-02 -1.84006810e-01  1.01576492e-01
   1.10117175e-01 -1.23082526e-01 -5.58152273e-02  1.42303780e-01
   1.12569138e-01 -2.15251744e-03  3.28922719e-02 -3.34669203e-02
  -3.42607573e-02  8.22156817e-02 -9.36402380e-03  1.34348020e-01
   1.35037228e-01 -9.70709324e-03  8.91560465e-02 -1.13937177e-01
   6.03397489e-02 -1.43722311e-01  4.15229946e-02 -1.70380324e-02
  -6.70370013e-02 -6.22409508e-02 -9.16926190e-02 -1.31749690e-01
   3.30159813e-02 -6.33394569e-02 -2.45727152e-02  6.27732575e-02
   8.01397264e-02  1.06527463e-01 -5.28951362e-02  1.24714084e-01
  -1.47583082e-01 -1.59564570e-01 -1.10654358e-03  4.88480218e-02
   1.01586983e-01 -1.51945278e-01 -5.82179874e-02 -3.65174003e-02
   1.42083064e-01  8.61374885e-02 -5.75352907e-02 -1.29064307e-01
   1.36985824e-01  1.59261581e-02  1.65689990e-01  1.67338774e-01
   2.89529413e-02 -1.80424720e-01  1.29816785e-01 -1.26504704e-01
  -1.47900999e-01 -6.10013232e-02 -1.78449050e-01 -6.63316399e-02
  -1.65538155e-02 -1.80469081e-01 -9.93072987e-03  1.44254133e-01
  -9.01786983e-03 -1.37731433e-01 -1.75241977e-01  4.63287383e-02
  -1.15446448e-01 -1.76084056e-01  1.10654667e-01 -8.91753137e-02
   1.65708497e-01  7.31097832e-02  1.87310725e-02  3.81822139e-02
   4.75984961e-02 -1.25049800e-02  7.87556171e-04 -3.19465548e-02
  -8.55448693e-02 -1.16293609e-01  3.42535824e-02 -1.46526828e-01
   3.60533409e-02 -3.36386263e-03 -9.20231119e-02  1.08020440e-01
  -1.56885590e-02  1.45274594e-01 -7.85034373e-02 -2.16970742e-02
   1.37856320e-01 -1.14546716e-02  2.84280926e-02 -1.54075027e-02
  -1.57280952e-01 -1.44621044e-01 -1.50813133e-01 -1.68522410e-02]
 [ 1.35273054e-01  1.18960187e-01 -4.71367985e-02 -4.94494773e-02
  -3.26643139e-02  1.60185590e-01 -5.22864908e-02 -1.05345897e-01
  -1.75744101e-01 -1.26264289e-01 -5.93975559e-02 -1.39181405e-01
  -1.20933592e-01  1.15793094e-01  1.58574834e-01 -3.82006019e-02
  -1.19827509e-01  4.44267094e-02  1.70204088e-01 -6.12879619e-02
   3.17109041e-02  1.58020481e-01  7.36561231e-03 -1.32343873e-01
   1.09472528e-01  1.34952888e-01 -5.75391129e-02  3.81426066e-02
  -1.35524660e-01 -8.36513340e-02 -1.46943763e-01 -4.06804085e-02
   1.11259677e-01  1.12809636e-01 -5.77745549e-02 -4.38583717e-02
  -9.19058919e-03 -1.43124118e-01  1.19705223e-01  4.20028716e-02
   3.35850492e-02 -1.24851778e-01  5.71505725e-02  1.62672594e-01
   8.94466415e-02  2.91265547e-02  1.36288106e-02 -1.11349866e-01
  -9.18866172e-02 -1.56343013e-01  1.32278996e-02 -1.45723864e-01
  -1.56513173e-02 -2.60273218e-02  1.73374414e-02 -7.02513754e-02
  -8.79255310e-02  7.33785033e-02  1.09688044e-02  1.68447301e-01
  -1.50750667e-01  9.19362828e-02  6.46802783e-03 -1.22434318e-01
  -4.43503708e-02  1.28298961e-02  2.08125971e-02 -8.29379857e-02
   1.63529083e-01 -1.38155982e-01  1.00335792e-01 -5.01084030e-02
  -3.03571075e-02  4.22254056e-02  3.70574035e-02  5.58243692e-03
   1.54359922e-01 -4.39944565e-02  1.46417379e-01  4.84974682e-02
  -1.67301357e-01  3.49279754e-02  7.60043561e-02  1.41038239e-01
   1.32040218e-01 -6.66564181e-02 -1.43465132e-01  8.31473321e-02
  -6.35313988e-02 -4.33018729e-02 -1.52994365e-01  1.62425250e-01
  -9.44592655e-02 -5.84867597e-03 -6.47866651e-02  6.70796186e-02
   3.41243595e-02 -7.34702200e-02  1.35181472e-01  5.36760688e-02
  -7.90237042e-04 -1.02369115e-01  1.77151263e-02  6.66508973e-02
   1.79959834e-02 -5.66735193e-02  1.01065353e-01 -8.02204981e-02
  -1.37526512e-01 -1.41036123e-01  2.37507969e-02  9.33766142e-02
   3.68506312e-02  3.64364088e-02  2.15378292e-02 -9.68588069e-02
   1.56193644e-01  8.77611190e-02 -1.62822962e-01 -1.70292899e-01
  -1.66370809e-01  1.63800970e-01 -1.08422220e-01 -7.16115832e-02
   9.65766311e-02  1.93085696e-03 -1.74963668e-01 -4.07594517e-02]
 [ 8.65052789e-02  8.79203826e-02 -1.13004632e-01 -4.79061157e-02
  -1.55257434e-01 -1.44049704e-01  8.12360793e-02  1.49488673e-01
   8.76738653e-02  4.28758785e-02  1.00958087e-01 -5.91753945e-02
  -4.64274436e-02 -1.42450273e-01 -2.44858526e-02  7.68929571e-02
   9.42385495e-02 -9.29199532e-02 -3.51049155e-02 -8.68209377e-02
   1.01673879e-01 -9.44437739e-03  8.76948163e-02 -1.13570966e-01
  -2.43236274e-02  8.53903145e-02 -1.26434669e-01  1.74735442e-01
  -1.10917315e-01 -8.96197930e-02  1.32120237e-01 -7.81821907e-02
   6.76587299e-02  1.66288212e-01  1.18416240e-02 -1.59279376e-01
  -1.09871328e-02 -2.68326998e-02  1.23428553e-02 -1.02202520e-01
  -5.62361069e-02  2.06048787e-02  8.72288793e-02 -5.91667965e-02
  -1.43202454e-01 -5.44256568e-02  1.30639628e-01  4.10146564e-02
  -1.26905546e-01 -1.92137361e-02  9.50277001e-02 -2.58394778e-02
   2.47605741e-02 -1.65666357e-01  9.97911394e-03 -7.98284933e-02
   5.46889454e-02  7.54799992e-02 -9.08912346e-02  5.46769351e-02
  -9.37093198e-02  1.18959166e-01 -1.36454418e-01 -7.85777941e-02
  -8.57426599e-02  1.29337087e-01  1.50132310e-02 -2.73428429e-02
  -1.19889617e-01 -8.47568549e-03  1.00965723e-01  8.15820768e-02
   1.48620024e-01 -1.45238921e-01  1.28325492e-01  4.94817048e-02
  -5.28568625e-02  3.00433766e-02  1.09023124e-01 -4.72493283e-02
  -1.13102920e-01  1.36093348e-01 -9.50900558e-03  1.88821387e-02
  -3.48773561e-02  1.58738479e-01 -1.44926608e-01 -1.14271186e-01
  -1.40504315e-01  1.51305005e-01 -1.40754700e-01  1.54121384e-01
   1.54169753e-01  4.27541435e-02 -1.44994967e-02 -1.00304484e-02
  -8.05035979e-02  5.76086342e-02  7.89630041e-02  1.46778420e-01
   3.48757915e-02 -1.77396223e-01 -9.16620567e-02 -1.75388083e-01
   8.33661407e-02 -2.73070652e-02 -9.68312025e-02 -9.81675982e-02
  -4.07198071e-03 -1.75422058e-01  1.41167000e-01  6.80656731e-02
   8.17882195e-02  7.69749284e-03  1.43427670e-01  7.92834014e-02
   1.82726368e-01  1.30252346e-01 -3.75625491e-03 -1.48596212e-01
   4.02773470e-02  1.64006040e-01  8.83655995e-02  2.66710669e-02
  -1.63370430e-01 -7.30689839e-02  2.42819786e-02 -9.55935940e-02]
 [ 1.31531760e-01 -8.49815309e-02  1.15921572e-01  9.55931693e-02
   6.38182461e-02 -4.63330895e-02 -1.58665642e-01  8.89533311e-02
  -3.46838981e-02  2.24862695e-02 -1.00832880e-01  1.35080114e-01
  -5.91871962e-02  1.35232642e-01 -1.35131598e-01 -1.64794758e-01
  -1.67346299e-01 -6.47725165e-03  1.14647195e-01 -1.19266346e-01
  -1.17677033e-01  6.26023561e-02  7.66576082e-02  1.67788282e-01
   1.23165354e-01 -5.89555129e-02  5.69348633e-02  5.52069694e-02
  -4.40951735e-02 -8.04214925e-02 -1.25368208e-01  9.01541859e-02
  -1.63279161e-01  7.96967000e-02 -1.24695033e-01  1.13921627e-01
   4.30918634e-02 -1.47149473e-01  9.21757966e-02 -7.59902596e-02
   1.68379620e-01 -1.76344231e-01 -9.70454365e-02  8.07570368e-02
  -4.90534455e-02  1.33378759e-01 -1.36532187e-01 -1.13827512e-01
   2.57300586e-02 -3.89245600e-02  6.82076812e-02  1.01279601e-01
  -1.28222167e-01  2.01984942e-02  1.39915869e-01  1.05073854e-01
  -9.91931558e-02  3.08043361e-02 -3.11066955e-02  1.48210242e-01
   1.74371079e-01  3.55200619e-02  8.03816319e-03 -4.90968674e-02
  -1.42535537e-01 -6.55823946e-02 -1.34416625e-01 -1.16694003e-01
  -1.54935896e-01  3.84330750e-04 -2.98610032e-02 -2.33101547e-02
   6.99882209e-03 -9.13037285e-02  1.96463764e-02 -1.42149940e-01
   2.42583305e-02  1.39650717e-01  3.37365717e-02  8.99634510e-02
  -1.96241587e-02 -9.62807685e-02 -9.13009867e-02 -1.31098524e-01
  -5.83519712e-02  1.76734939e-01 -4.16391939e-02  1.18874773e-01
   1.26656368e-01 -1.53255373e-01 -1.32462829e-01 -1.40313655e-02
  -1.60727054e-02 -4.41711992e-02  4.77332473e-02 -2.18767822e-02
   7.86883384e-02 -5.92724159e-02  3.36395204e-03  2.31967866e-03
  -5.41863441e-02  3.56650800e-02  1.70423940e-01  3.15676481e-02
   5.66152632e-02 -1.96420699e-02  1.59867153e-01 -1.71943665e-01
  -7.90420324e-02  1.70050785e-01  5.71284145e-02 -1.42949507e-01
  -5.88673875e-02  7.49611109e-02 -8.47394019e-02  6.02599233e-02
   2.50944048e-02 -8.37385654e-03 -1.53978541e-01 -1.70172155e-01
  -8.26966688e-02 -5.24142385e-02 -1.02808386e-01 -5.89447692e-02
   1.54827282e-01  6.49904758e-02  1.74429312e-01  2.72487849e-02]
 [ 7.43473619e-02  9.67893451e-02  4.02823202e-02  1.73732311e-01
  -8.02850723e-03  1.13508783e-01  1.70013145e-01 -1.49379477e-01
  -3.58533524e-02  4.18213569e-02  8.88043195e-02 -1.00163966e-01
   1.40939057e-02 -1.44137010e-01 -3.14923413e-02  6.77331835e-02
  -9.39268246e-02 -3.00511755e-02  8.33220333e-02  6.00128882e-02
   4.10176329e-02  1.00253746e-01  3.15615609e-02 -7.45034665e-02
  -1.45887017e-01  9.33692902e-02 -7.17946589e-02 -7.11284950e-02
   3.20450068e-02  8.85880738e-02  3.10648605e-02 -1.55662261e-02
  -1.58204753e-02  9.15466771e-02 -1.69466641e-02 -1.38459087e-03
  -1.49795383e-01  1.62833035e-02 -6.25108257e-02  1.64980009e-01
   1.10482574e-01 -1.18311003e-01 -2.92688310e-02  1.32677302e-01
  -3.33561525e-02  4.33214456e-02 -1.70231879e-01 -5.52640036e-02
  -1.21752888e-01  7.96752125e-02 -1.19075961e-01  4.29061651e-02
  -6.96445480e-02  1.59102336e-01  1.02837428e-01 -1.08090393e-01
  -7.09800571e-02 -8.51237029e-02 -1.00187860e-01  1.15833923e-01
  -1.59425419e-02  1.06646612e-01  4.92967665e-02  1.03294335e-01
  -8.64125416e-02  1.70417875e-01  9.65090096e-02  1.52870670e-01
  -5.06909341e-02  8.33969936e-02  1.39733121e-01  3.67754996e-02
   1.47789195e-01 -1.02395765e-01  2.77951881e-02  4.05444205e-03
  -1.14627831e-01 -7.95924291e-02  9.83453169e-02  1.01864196e-01
  -1.23008355e-01 -1.53258160e-01 -1.37990296e-01  8.40963870e-02
  -3.52095179e-02  1.76694259e-01 -4.93444093e-02 -6.72823042e-02
   9.26145315e-02  1.40035927e-01  1.51540622e-01 -1.23456866e-01
  -1.71378776e-01 -2.98799276e-02 -5.66845573e-02 -9.21312422e-02
  -1.02789544e-01  1.03938773e-01  1.64331302e-01  7.67152160e-02
  -1.56697392e-01 -9.90591198e-02 -2.74124742e-02 -4.52673137e-02
   4.07659113e-02  1.39537036e-01  6.20597601e-02 -6.14043772e-02
   1.55095682e-01  3.31898779e-02  1.07423857e-01 -6.33993670e-02
   1.05722085e-01  1.89720243e-02 -6.33910950e-03 -8.89283717e-02
   1.85474500e-01 -9.80336592e-02  1.22968569e-01 -1.06517054e-01
   7.31036216e-02  1.29168779e-02  2.91408002e-02  7.09358007e-02
   8.83007143e-03  9.21039097e-03 -1.87906176e-02  1.53781593e-01]
 [-1.47828683e-01 -8.26869309e-02 -1.51345447e-01 -1.50443763e-01
   2.43005604e-02  1.44770816e-01 -1.04150638e-01  1.64927632e-01
   5.04659628e-03  1.27182081e-01 -1.53177939e-02 -6.27599657e-03
  -1.01356804e-01  1.97576825e-02  8.92228559e-02 -1.43042654e-01
   1.55971393e-01  1.37955382e-01  5.13630509e-02 -8.16541240e-02
   9.97523144e-02  1.24536365e-01  3.30217108e-02 -1.39154032e-01
   5.75910956e-02  8.08214694e-02 -1.66728944e-01  9.98434275e-02
  -1.13864981e-01 -6.40340000e-02  1.10370265e-02  6.75675049e-02
  -9.01823267e-02  1.02178693e-01  7.34158084e-02  8.01281258e-02
  -1.35838866e-01 -1.34112075e-01  2.13684626e-02 -5.08167893e-02
   1.38824835e-01  4.86036241e-02  3.49988043e-03 -1.05599098e-01
   7.01332539e-02  1.43252864e-01 -1.35168910e-01 -1.58469319e-01
   7.77067393e-02  1.43909141e-01  1.67879909e-01  3.58330756e-02
   1.65170491e-01 -1.13045387e-01 -7.22684413e-02  1.50019929e-01
  -1.31044239e-02  9.02243704e-02  5.79870641e-02 -3.04366350e-02
   1.69616595e-01  2.84326430e-02 -7.02772141e-02  2.01797299e-02
   1.21863186e-03 -3.16113308e-02  4.39583100e-02 -1.11879278e-02
   5.66118509e-02 -1.47466689e-01  7.09041953e-04  8.79938006e-02
   4.60394919e-02 -1.18860811e-01 -1.21848419e-01 -1.36649519e-01
  -1.40605807e-01  1.51410913e-02 -1.04423925e-01 -1.50071261e-02
  -7.60233477e-02 -1.15437582e-01 -1.63535386e-01  1.76271722e-01
  -5.23308069e-02 -1.47483245e-01  1.13173023e-01 -2.83046812e-02
  -1.50454104e-01  1.34212688e-01  1.29556552e-01 -4.22212062e-03
  -9.18136612e-02  1.69036254e-01 -1.50716737e-01 -1.30065009e-01
   4.28404212e-02 -1.42816752e-01 -3.96913849e-02 -1.75962880e-01
   2.50029713e-02 -1.95819549e-02 -1.31343067e-01 -6.09062016e-02
  -1.38722926e-01  9.36816782e-02 -1.61874160e-01 -9.26132277e-02
   9.87177044e-02  8.78775120e-03 -4.24149930e-02  1.15098201e-01
   9.18470621e-02 -9.18519348e-02 -1.50333986e-01  2.19779015e-02
   1.74880460e-01  1.50892422e-01 -1.27218157e-01  6.92191124e-02
  -2.41969228e-02 -9.26940292e-02 -2.72913873e-02 -2.72208005e-02
   7.50030875e-02  5.79669215e-02  1.50068060e-01  6.33668602e-02]
 [ 1.24938950e-01  4.68004495e-02 -1.03125706e-01 -5.74344397e-02
   1.12490699e-01  1.11704543e-01 -9.93668437e-02  1.04471341e-01
   1.04328707e-01  8.80000442e-02 -4.47911024e-02 -1.73729852e-01
  -6.98403642e-02  5.22101223e-02 -1.01868719e-01 -7.68062472e-03
   2.07356960e-02  7.96680003e-02 -6.42941296e-02 -4.39389795e-02
   1.75411776e-01  1.11844048e-01  7.37495571e-02  1.09710321e-01
  -2.27671415e-02 -7.21133798e-02  1.07812449e-01 -9.86925736e-02
   4.92370874e-02 -1.63960159e-02  2.75031775e-02 -1.32274464e-01
  -1.69754222e-01 -5.74971735e-03 -7.22832754e-02  8.32396001e-02
   1.72219023e-01  3.85457426e-02  7.20699131e-03  1.05511501e-01
   1.27989724e-01  3.06206048e-02  1.66064575e-01  7.50344247e-02
  -1.45876989e-01  8.41820985e-02  9.12499875e-02  8.93942267e-02
  -9.35020670e-02  7.38010257e-02 -8.02709460e-02 -1.56334072e-01
   5.57807684e-02  2.83563584e-02 -2.95321643e-02 -1.56932905e-01
   2.20480263e-02 -2.07052231e-02 -4.94843125e-02  1.70971081e-01
  -3.70856076e-02  1.36014745e-01 -1.60860360e-01 -7.87964016e-02
  -1.70367837e-01  3.79309058e-03 -1.74008071e-01 -9.92674977e-02
   6.95308000e-02 -9.61470306e-02 -1.11425474e-01  2.56040394e-02
  -1.53402895e-01  3.42843086e-02 -4.53889072e-02  1.89110339e-02
  -1.44960582e-01 -1.42504096e-01  7.59560317e-02  1.33119389e-01
   1.21341154e-01 -1.18151858e-01 -4.75627184e-03  1.54693261e-01
   9.66346711e-02  1.64413556e-01 -1.33494526e-01 -1.66635960e-02
   1.42770603e-01 -1.19467601e-01  1.43738404e-01  1.66379914e-01
  -1.32571772e-01  1.55179217e-01  7.49109536e-02 -7.48812929e-02
   1.56973436e-01 -1.77606344e-02 -8.06395188e-02 -1.57101601e-02
  -1.73932746e-01 -1.53894573e-01 -1.00003302e-01  8.85681361e-02
  -1.93581283e-02  1.44429907e-01 -3.15187126e-02 -5.89446425e-02
  -2.95282006e-02 -8.14243406e-02 -7.24134296e-02  6.98239654e-02
  -1.66057616e-01  6.35856837e-02 -3.50873768e-02  1.43617615e-01
  -1.33259192e-01  6.77156597e-02 -8.40612575e-02 -1.66582212e-01
  -9.18885544e-02 -1.36718154e-04 -1.55203700e-01 -1.00077733e-01
  -1.66465387e-01  4.13111150e-02  1.01526543e-01  1.40138716e-02]
 [-4.71208096e-02  1.16549090e-01  3.42102982e-02 -9.95507762e-02
  -1.63964763e-01  1.84068099e-01  1.07212365e-02 -1.02087103e-01
   1.11885868e-01  1.16038360e-01  3.30187902e-02 -1.16845056e-01
  -1.67069137e-01  1.20789818e-01 -9.68569815e-02  1.70565203e-01
  -1.57227382e-01 -8.85780826e-02 -1.20096385e-01 -6.98263124e-02
  -1.27622962e-01  8.98225754e-02  1.00894228e-01 -7.88364187e-02
  -2.13024914e-02 -8.35226178e-02  7.71729127e-02  1.50046781e-01
   1.21641740e-01  2.87855864e-02  4.75797392e-02  6.91315681e-02
  -8.88730735e-02 -2.76925713e-02  8.92502954e-04 -1.29124615e-02
  -9.41039249e-02  8.91173631e-02 -6.77044764e-02  1.72692820e-01
  -8.31523165e-02  1.34052768e-01  7.76970536e-02 -4.84819412e-02
   1.15745448e-01 -1.31413281e-01  4.29099202e-02 -1.12353884e-01
  -2.70562470e-02  1.09309956e-01  4.38761674e-02  1.57962367e-01
  -4.84799668e-02  1.18817136e-01  5.99816442e-03  8.86222273e-02
  -1.11995175e-01  1.35748804e-01 -6.39802217e-02 -3.89786661e-02
   8.84438530e-02  1.79900497e-01 -9.13760066e-03 -1.76650342e-02
  -5.05229086e-02 -6.19957708e-02  1.33038908e-01  1.46276310e-01
  -9.33311880e-03 -1.13703102e-01  9.78966206e-02  8.58716816e-02
  -7.53370300e-02  1.85298920e-03 -3.40160541e-02 -1.09980553e-01
   9.76355299e-02 -3.46033536e-02  5.46726212e-02 -1.09393857e-02
  -1.16603717e-01  1.25792041e-01 -8.59344378e-02  3.91730033e-02
  -1.17052561e-02  6.35594279e-02 -6.60419911e-02  9.03302580e-02
  -9.63091031e-02 -7.88407549e-02 -1.64879709e-02  1.49027392e-01
   2.51393020e-03 -1.34775922e-01  1.29203498e-01  3.49317491e-03
   1.01794884e-01  8.65545422e-02 -2.64975764e-02 -5.44697866e-02
   1.73742488e-01  3.43489274e-02 -6.83775693e-02 -1.61749661e-01
   1.03394911e-01  6.07262328e-02 -4.71692830e-02  5.63693047e-02
   1.02879271e-01  1.65729001e-01 -8.19818974e-02  2.81624328e-02
   1.46820202e-01 -8.77273604e-02 -1.20108882e-02  9.13248509e-02
   8.07416737e-02 -1.36149779e-01 -8.11101720e-02 -1.45968050e-02
   1.57482609e-01 -3.89001518e-02  1.66894659e-01  9.70872790e-02
   1.35082424e-01  1.26844585e-01  1.08978167e-01 -1.34694334e-02]
 [-1.25661969e-01 -2.58773267e-02 -9.16962996e-02  1.07130267e-01
  -1.80721283e-03  9.92243960e-02  1.72600165e-01  1.19850107e-01
   1.21135503e-01  1.10520095e-01 -9.62673351e-02 -4.64997739e-02
  -1.69679523e-03  3.39973196e-02 -8.70742425e-02 -9.37592015e-02
  -2.53414102e-02  1.15050241e-01  1.13229647e-01 -1.11610673e-01
   2.53414661e-02 -6.89376295e-02  2.21902877e-02 -1.55950978e-01
   1.76198319e-01 -6.50562271e-02 -1.29105702e-01 -1.02538563e-01
  -1.34060189e-01 -1.08194202e-01 -1.26600057e-01  1.55688301e-01
   1.36221023e-02 -9.71007124e-02 -3.86380963e-02 -9.34164748e-02
   1.66877955e-02  1.55704036e-01  9.81372371e-02 -1.13069206e-01
  -1.36890441e-01 -9.45975482e-02 -1.02201104e-02 -3.27575058e-02
   7.28691965e-02  7.71236271e-02 -2.30908692e-02  1.74424186e-01
   1.31121501e-01  1.56137511e-01 -8.71276930e-02 -1.20130196e-01
   1.77944958e-01 -1.08342774e-01  1.40888765e-01  1.28043309e-01
   4.93519008e-02  1.18439056e-01 -1.31626919e-01  1.64301351e-01
   2.26256736e-02  1.79398626e-01  1.24435797e-01  8.18104371e-02
   8.13315362e-02 -2.26395521e-02  5.71874790e-02  6.68411478e-02
   7.22938925e-02 -1.41240954e-01 -5.55509776e-02  1.41857564e-01
  -5.27212396e-02  4.53283042e-02  1.01832062e-01  1.59461364e-01
  -1.95867736e-02  6.81507662e-02  1.26260608e-01 -1.25664353e-01
   5.95113486e-02  5.87962307e-02 -3.57470214e-02  1.38244644e-01
   3.77717614e-02  1.42067745e-01 -1.21501125e-02  9.57819670e-02
  -9.39276740e-02  1.25441998e-01  5.89162409e-02  1.34741977e-01
  -2.84806937e-02 -1.30623698e-01  7.92533234e-02  6.59146756e-02
   9.74656492e-02 -1.42826259e-01 -1.50459856e-01 -1.57688171e-01
   3.41068245e-02 -1.63075760e-01 -1.58822730e-01 -1.09964624e-01
  -1.75507441e-01 -3.22848820e-04 -8.08666646e-03  1.06095448e-01
   1.40219823e-01  1.14735380e-01  5.08085340e-02  2.08727494e-02
  -6.78288788e-02 -1.23447739e-01 -1.34605035e-01 -3.19407731e-02
  -9.20772552e-02  2.24556495e-02  7.58680850e-02  5.38139790e-02
   1.83704644e-02 -3.66512835e-02 -9.08081234e-02 -1.68737859e-01
  -1.55863762e-01  1.36265099e-01  3.04793417e-02 -1.22528926e-01]
 [-1.44205227e-01 -1.65532425e-01  7.88414255e-02  1.63259208e-01
   2.31288373e-02 -8.46620928e-03  4.66012955e-03  7.29196593e-02
  -8.95349979e-02  1.07216060e-01  3.44503857e-02 -7.82861263e-02
   4.54938561e-02  3.55709554e-03  6.70093149e-02  1.45401955e-02
   6.75444528e-02  2.84427032e-02 -1.50932968e-02 -1.25867575e-01
   1.37028024e-02  1.05156474e-01  1.77525848e-01  1.31408244e-01
   3.15112174e-02 -1.50860846e-03  1.62815198e-01 -7.77474865e-02
   1.13109991e-01  6.47942871e-02  1.52010411e-01  8.71992111e-02
   6.29451871e-02  8.05390030e-02  1.47120610e-01  1.15501724e-01
  -6.18766695e-02 -1.53105676e-01  6.88790828e-02 -1.19940743e-01
   1.62531197e-01  1.63472071e-01  1.50816903e-01 -8.93981010e-02
   6.11219257e-02  3.56985033e-02  6.68302774e-02  7.90595561e-02
   6.54089451e-03 -1.64291441e-01  3.88306640e-02 -1.12792470e-01
   5.56808226e-02  9.50423926e-02 -4.41821963e-02  2.67686397e-02
  -1.75084114e-01 -1.60525162e-02 -1.54014826e-01 -1.30959153e-01
   1.51790440e-01 -1.49108917e-01 -1.18300676e-01  1.01707913e-01
  -1.68389887e-01  1.43039510e-01  3.58918644e-02 -8.62646028e-02
  -1.50181353e-03  1.11532314e-02 -9.90898088e-02 -3.13304219e-04
  -1.50515750e-01 -3.01383436e-03  1.42492160e-01 -6.62024543e-02
  -2.78061023e-03  9.02628973e-02  1.49455935e-01  1.20659523e-01
  -9.68597755e-02 -1.58532768e-01  9.97198629e-04 -5.80340512e-02
  -2.15019360e-02  6.87415153e-02  8.94933790e-02 -9.85056981e-02
   5.78145571e-02 -1.77175269e-01 -3.99460196e-02 -1.60006210e-01
   2.83535272e-02 -1.69570431e-01  1.17232174e-01 -8.68640244e-02
   7.58090168e-02 -7.42114931e-02 -1.26005113e-01 -1.19152509e-01
   2.01019365e-02  1.34208063e-02 -9.56265181e-02 -1.38518900e-01
   4.45002019e-02  1.06108852e-01 -2.23110169e-02 -8.68950859e-02
   7.59337395e-02  1.07946619e-01 -1.49993002e-01  1.56294003e-01
  -1.74149737e-01  1.05109528e-01 -4.86049578e-02 -1.75719529e-01
  -1.43412545e-01 -8.54815766e-02  1.48142770e-01  5.06707132e-02
   1.31162956e-01 -1.73242971e-01  4.47269529e-02 -4.07222360e-02
  -5.47101395e-03 -8.81306976e-02 -7.49199390e-02  1.29426301e-01]
 [ 5.39122224e-02  6.96305186e-02  1.01037778e-01 -1.60205990e-01
   5.44891357e-02 -5.62618710e-02 -6.01794645e-02  1.47509845e-02
   2.36781668e-02 -1.40341118e-01  1.01189889e-01  1.53666779e-01
  -3.27484012e-02 -1.39872998e-01  1.00452594e-01  9.28149074e-02
   1.11601837e-01  1.30192190e-01  5.01285791e-02  2.13554669e-02
   1.38967410e-01 -1.44264996e-01 -1.08960867e-01 -1.29871100e-01
   6.35853112e-02  1.24513373e-01 -1.22299027e-02  4.04322296e-02
   8.42859298e-02 -3.58565599e-02 -1.44767985e-01  4.62331064e-02
   1.22952439e-01 -1.17019832e-01 -1.50994033e-01  8.35334882e-02
  -4.14866209e-02  1.15866795e-01 -1.72059745e-01  1.60976186e-01
   5.93978427e-02  1.43496409e-01  6.56366348e-02 -4.58818227e-02
   6.57456815e-02  9.21144336e-02 -1.29619688e-01 -5.96929193e-02
  -7.67913908e-02 -9.72499326e-02  1.40633909e-02  7.49537498e-02
   4.09360155e-02 -2.29434669e-03  1.33194178e-02 -8.38088393e-02
   1.63868085e-01  1.01572350e-01 -6.11710548e-03  3.63938063e-02
   1.53129891e-01  1.47890404e-01  3.66562903e-02  1.30210607e-03
  -1.57392770e-01 -1.03932973e-02  1.01742812e-03  2.01573521e-02
  -8.97990838e-02 -5.61283827e-02 -9.87492204e-02  7.00008422e-02
   3.50923091e-02  1.36108696e-03  7.98537657e-02 -1.44300565e-01
   1.26685053e-01  2.99186260e-02  1.04360774e-01 -1.24501660e-01
   1.70573547e-01  9.35430303e-02 -1.26637965e-01 -9.95301828e-02
  -8.53427052e-02 -5.27437031e-02  2.26393640e-02  1.47010908e-01
   8.01339820e-02 -6.95166886e-02 -1.02518417e-01 -7.83626661e-02
  -1.62028521e-02  1.27988443e-01  1.48604706e-01 -1.46347091e-01
  -4.94141877e-03  2.77117193e-02 -8.34521651e-03 -4.68671322e-04
  -2.35057008e-02  1.39239207e-01  4.52213287e-02 -7.35129938e-02
  -1.41656607e-01 -1.50581628e-01  8.49841088e-02  8.31145197e-02
  -3.28192413e-02  1.04612902e-01 -1.39292300e-01 -8.71339254e-03
  -1.78759135e-02  6.47660941e-02 -9.52669606e-02 -5.80328703e-03
  -1.41757742e-01  8.77880529e-02 -8.18378404e-02 -1.21111155e-01
  -4.20090705e-02  1.19568214e-01  1.12302229e-01  1.37110159e-01
  -5.43748774e-02  1.15378998e-01 -1.53406680e-01 -1.20930165e-01]
 [-1.22114047e-01 -6.54205084e-02  1.22954100e-02 -1.68042481e-01
   9.55751985e-02 -3.16401869e-02 -5.67711294e-02 -4.53385860e-02
   1.93552673e-02 -1.52986228e-01 -1.16095558e-01  1.19053766e-01
   4.71058488e-02 -8.98318365e-02 -9.48469266e-02 -1.25927538e-01
  -1.79888159e-02  7.89735764e-02  1.27336070e-01 -5.43205440e-02
   1.02642491e-01 -9.16078165e-02 -5.38071096e-02 -1.38499141e-02
   1.24349877e-01  5.27144969e-02  1.23689279e-01 -5.78754172e-02
  -4.66691554e-02 -1.11487262e-01  1.56409875e-01  1.24880090e-01
  -1.68764278e-01  3.82419825e-02  1.73356339e-01  1.42188951e-01
   3.57895046e-02  8.92470330e-02  1.47623345e-01 -4.76967096e-02
   1.55921385e-01  1.27638742e-01  1.18691251e-01 -1.74417987e-01
   1.14916846e-01 -8.73379633e-02 -8.28986317e-02 -1.30736649e-01
   5.79674691e-02 -1.61142439e-01  1.49659231e-01  5.96552789e-02
   1.75777987e-01 -1.03191160e-01  9.59090441e-02  8.93703550e-02
  -6.66306242e-02 -8.94100294e-02 -6.48233667e-02  7.97532052e-02
   1.22738168e-01 -4.33505625e-02 -7.70327598e-02  1.32915691e-01
   7.57048279e-02  1.14785925e-01 -1.45950362e-01  1.24375269e-01
   8.62006396e-02 -1.62351266e-01 -2.57854462e-02  3.46029848e-02
  -1.75861597e-01 -1.53455198e-01  9.15612429e-02  1.75497398e-01
  -8.23241323e-02 -2.56527215e-02 -1.49941579e-01 -4.20116782e-02
  -5.02741486e-02  8.32031816e-02 -5.67024723e-02 -1.69717133e-01
  -1.34120971e-01 -7.08687007e-02 -1.70367554e-01  8.73443484e-03
  -2.38699913e-02  9.96135622e-02  1.91325992e-02  4.49494869e-02
  -1.11646116e-01  6.91582114e-02 -1.48771718e-01  1.24210045e-01
  -1.06650025e-01  1.41035065e-01  1.01061016e-02  2.34783590e-02
  -6.59298897e-03  2.33210623e-03 -1.58481762e-01  9.18092877e-02
   1.69086322e-01  1.30670115e-01 -6.59605339e-02  1.70739904e-01
  -1.40717775e-02  8.94094855e-02  6.59139454e-03 -1.02189966e-01
   1.36505917e-01  1.63011849e-02 -1.38329744e-01 -8.56026486e-02
   1.69558123e-01 -1.00588053e-02  1.28558889e-01  1.41442493e-01
   1.26784891e-02  3.94352525e-02 -1.34671688e-01  1.38807729e-01
  -1.74976438e-01  1.60340860e-01 -6.70297593e-02 -1.28545657e-01]
 [-5.52922785e-02  4.74878997e-02 -3.85593958e-02  1.85771510e-01
  -1.31060183e-03 -1.36870980e-01 -1.56514719e-01 -4.01592404e-02
   1.47125170e-01 -9.44268182e-02 -6.72492236e-02 -1.29628539e-01
  -1.11472853e-01  7.91628957e-02  4.89916429e-02 -2.50275582e-02
   1.22537374e-01  8.57377648e-02 -1.14709727e-01  1.28342822e-01
  -4.91240509e-02  3.96316163e-02 -1.59951225e-01 -1.47519186e-01
   1.08522177e-02 -1.74638331e-01 -1.17730334e-01 -3.95064801e-02
   2.79587507e-02 -2.23451555e-02 -6.20703287e-02  2.29359549e-02
   3.23630050e-02 -1.22293927e-01  1.32667780e-01  9.97088328e-02
  -1.11099340e-01 -4.99948859e-02  1.62869260e-01  9.02373642e-02
   1.59999922e-01 -7.95473307e-02 -1.22201502e-01 -6.91776052e-02
   1.56279609e-01 -1.65882021e-01 -1.45531043e-01 -1.59792572e-01
  -9.41735059e-02  2.69260257e-02  1.14910677e-01  1.30926117e-01
   9.44839716e-02  8.82761925e-02  1.19552657e-01 -1.39044046e-01
  -1.54849797e-01 -1.41278490e-01 -1.30420893e-01  8.62677246e-02
   8.36788863e-02  1.76750183e-01 -4.36064750e-02 -9.07936916e-02
   1.69778034e-01  6.25346079e-02  1.49682105e-01  2.98541151e-02
  -1.62606001e-01  7.79913515e-02 -1.60484746e-01  3.92649397e-02
  -4.03497070e-02 -1.26871705e-01  1.36868104e-01  1.67170301e-01
   1.31419852e-01 -1.10550225e-01  1.55331075e-01  2.90493444e-02
   1.48612693e-01  5.98919205e-02  8.54286477e-02 -3.29156313e-03
   8.60276073e-02 -2.94697136e-02 -1.36364438e-02 -1.15970761e-01
  -5.82826883e-02 -7.38373771e-02 -1.25636756e-01  1.74189165e-01
  -1.75230742e-01 -9.06058624e-02 -9.64517668e-02  9.70818549e-02
   6.35015219e-02  1.19837269e-01  1.47701964e-01 -7.43233934e-02
  -1.49405003e-01 -3.44291367e-02  1.16020143e-02 -7.20108822e-02
   8.13731700e-02  9.81897935e-02 -5.88800758e-02 -1.47040576e-01
  -6.19136766e-02  1.52525157e-02  4.57492620e-02 -5.04800417e-02
   8.23941901e-02 -1.29481271e-01 -1.19473115e-01  6.87494874e-03
  -3.18289027e-02 -1.53033748e-01  1.63535550e-01 -2.18020976e-02
   4.02843356e-02  1.25938103e-01  4.43269312e-02 -1.45130515e-01
  -8.34642351e-02  1.57967657e-01  2.34921426e-02  1.60780638e-01]
 [ 1.09065339e-01 -1.23179853e-01 -1.02168024e-01 -5.52793369e-02
  -1.51363149e-01  1.38482779e-01  1.65570572e-01  5.81744350e-02
   1.27220228e-01  7.24051222e-02  1.85641944e-01  1.02069214e-01
  -1.34770691e-01 -1.51148960e-01  7.95504451e-02 -1.49132460e-02
   1.01854704e-01  1.42331645e-01 -1.05110653e-01  3.79624106e-02
  -1.39841989e-01  2.99986266e-02 -1.52237028e-01  1.97001211e-02
  -5.15306294e-02  8.66186470e-02  1.34491980e-01  1.10505626e-01
  -1.55282766e-01 -1.07544050e-01 -3.68608795e-02  2.90550925e-02
  -1.21481977e-01  8.07906911e-02 -1.42185381e-04  1.15543485e-01
  -1.41739845e-03 -3.39521915e-02 -1.26487156e-02 -8.70736614e-02
   7.69875497e-02  1.66117683e-01 -2.49138921e-02 -1.44854963e-01
  -1.51713192e-01  1.00049928e-01  8.94593447e-02  5.74906617e-02
  -1.40165791e-01 -5.76038659e-02 -1.58679560e-01 -1.15784138e-01
  -1.65728480e-01  1.30616322e-01  2.34250128e-02 -1.76020876e-01
   2.66830921e-02 -1.29901767e-01 -7.74043724e-02 -6.96113333e-02
  -8.57374631e-03  1.43237665e-01 -1.53615013e-01  2.72345059e-02
   3.85086536e-02  1.58471130e-02 -1.70067381e-02  3.42575349e-02
  -1.44939929e-01  1.35586441e-01 -1.66397691e-01 -1.80431888e-01
   1.39191523e-01  8.73665661e-02  1.00955218e-01 -3.48660350e-03
   1.38050959e-01  8.89711902e-02 -1.51033059e-01 -5.32319210e-02
   1.59158960e-01  1.48021683e-01 -5.17590903e-02  1.24264933e-01
   1.02136418e-01 -2.48119384e-02  4.12736312e-02  1.40850082e-01
  -1.64303616e-01  1.29019275e-01 -1.05362833e-02  4.73804139e-02
   7.19621629e-02  6.58364594e-02  1.20042600e-01  1.59757748e-01
  -1.06673166e-01 -1.50127321e-01  3.47781368e-02  1.41142622e-01
  -1.30539329e-03  1.27003580e-01 -1.65277123e-02 -4.93889451e-02
  -7.18886107e-02  1.17548622e-01  1.02176800e-01 -4.08370048e-02
   2.17208415e-02  1.74887910e-01 -5.81967011e-02 -3.16135660e-02
   7.26731792e-02 -9.57816839e-03  1.32856369e-02 -1.09850362e-01
   2.42010094e-02  1.07064322e-01 -5.07376790e-02  4.20077592e-02
  -1.06256463e-01  1.19647682e-02  3.29213291e-02 -7.52590150e-02
  -2.55681481e-02 -6.05424261e-03 -1.43346027e-01  7.41634965e-02]
 [-1.16160758e-01  6.23966306e-02  1.24973573e-01  1.07975967e-01
  -2.28489488e-02  1.31750911e-01 -1.58564791e-01  3.00358213e-03
  -1.51445717e-02 -5.55183552e-02  1.03907868e-01 -9.58605632e-02
   3.33184004e-03 -1.82343826e-01  1.08773120e-01 -6.61475807e-02
  -1.03442654e-01  6.56553507e-02 -5.85450456e-02  2.81523075e-03
  -1.27585769e-01  1.61107164e-02  8.65641087e-02  1.00307822e-01
   1.32469192e-01 -1.21223859e-01  8.26982632e-02  8.68853182e-02
   1.52122125e-01  1.10081732e-02  6.68135434e-02 -6.09094873e-02
   1.83700487e-01  1.24281183e-01  1.72625706e-02  1.04227044e-01
   3.02409083e-02  1.40605226e-01  1.63578317e-02  9.08446759e-02
  -8.91209990e-02 -7.18731061e-02 -5.59647754e-02  1.11779585e-01
  -9.70916376e-02  1.04236528e-01 -7.98103660e-02  1.70793727e-01
  -5.96996620e-02 -1.70679852e-01  4.20451760e-02 -9.57194567e-02
   5.34543060e-02  1.72567621e-01 -1.54852405e-01 -1.42593324e-01
  -1.47104427e-01  6.50306866e-02  7.69673288e-03 -6.04783222e-02
   1.37468994e-01  1.20115623e-01 -1.33311108e-01 -1.85285047e-01
   1.32410303e-01 -2.36320216e-02  1.56655729e-01  1.20308779e-01
  -1.01184085e-01  1.37078196e-01  2.61023641e-03 -2.09889337e-02
   1.14389673e-01  1.34765252e-01  1.17952466e-01  2.76803672e-02
  -7.49740154e-02  1.58514589e-01 -3.18524651e-02 -4.04174812e-02
  -8.36730003e-02 -5.13183922e-02  1.17381020e-02  2.48025581e-02
   9.69018638e-02  2.15105265e-02  9.04196501e-02 -1.66347027e-01
   1.43540755e-01 -8.58835652e-02  1.52090266e-01 -1.23790950e-01
   1.49353549e-01 -4.60200608e-02  6.50363266e-02  1.99216306e-02
  -5.14178127e-02 -1.74314678e-02 -1.96546335e-02  2.04880536e-03
   1.21569946e-01 -1.35475695e-01 -1.04168043e-01 -6.37236759e-02
   1.21597841e-01  4.30225693e-02 -6.40046671e-02 -8.26527104e-02
  -1.07068591e-01 -1.41209140e-01 -1.48165137e-01  3.34773734e-02
   1.63132131e-01  5.12059331e-02  8.04167762e-02  5.31910956e-02
   2.73686424e-02 -6.58223480e-02  1.38342336e-01  1.70530155e-01
  -2.48817354e-02  1.53439060e-01  1.32082060e-01 -4.41740453e-03
   5.54427365e-03  5.77374808e-02 -8.60163644e-02 -4.44149459e-03]
 [ 1.61165848e-01  1.70239374e-01  1.18445754e-02 -3.73154730e-02
  -8.59120116e-02 -4.64897007e-02 -6.03093132e-02  2.79038697e-02
   1.38639495e-01 -7.95333758e-02 -1.65509030e-01 -6.92406520e-02
   2.40833759e-02  1.66657642e-01 -1.03067927e-01  1.31720439e-01
  -3.07205021e-02 -4.59018797e-02  4.02146280e-02  1.47011742e-01
  -1.53497308e-01 -1.53256595e-01  1.65329114e-01 -1.51984528e-01
   1.43649593e-01  1.07142881e-01  8.13544244e-02  1.01873264e-01
   4.77207303e-02  1.58047572e-01  6.07752055e-02 -1.68757319e-01
   6.54075295e-02 -1.34791642e-01  5.31993061e-02  1.13328353e-01
  -1.18277505e-01  7.90633261e-03  1.34100065e-01  1.54537514e-01
   9.69218463e-02  1.16750970e-01  2.41655260e-02 -1.32185832e-01
  -7.74777532e-02 -8.00801888e-02 -1.39352113e-01  8.89527351e-02
  -1.28272325e-01 -1.47245318e-01 -7.99458250e-02  7.32815713e-02
   5.61638325e-02 -9.93815511e-02 -3.61639708e-02  7.02053159e-02
   1.40775591e-02  9.75786895e-02 -1.32762611e-01  1.65891811e-01
   1.47467151e-01 -1.52395755e-01  4.53293324e-04  1.55425370e-02
  -1.61491185e-02  1.80429816e-02  8.66148919e-02 -3.99237275e-02
   1.23989031e-01  5.27113825e-02 -9.47938263e-02 -1.65255427e-01
   4.07572687e-02 -7.82744512e-02 -1.70110375e-01 -9.77851152e-02
   1.16785571e-01 -1.76103354e-01  6.76709861e-02  9.51956660e-02
   5.12547046e-02  1.47783652e-01  1.05923414e-02 -3.53005975e-02
  -1.71112239e-01  7.49870688e-02 -4.02053148e-02  6.66641295e-02
  -9.95088369e-02 -5.52001074e-02 -9.53595191e-02 -1.63248271e-01
  -1.26948327e-01 -1.12965524e-01  5.92517704e-02 -6.78021386e-02
   1.52358249e-01 -1.48851126e-01  9.63270813e-02 -1.33220628e-01
   3.20490152e-02 -3.32845896e-02  1.05141714e-01 -6.04081899e-02
   2.92863250e-02 -1.27833366e-01 -1.51163593e-01 -4.23792452e-02
   1.26569942e-01 -1.09587327e-01 -1.17850602e-02  1.28258124e-01
  -1.02645405e-01  1.36113331e-01  5.49140573e-02 -1.53894320e-01
  -9.71845165e-02 -2.92103291e-02  1.59498051e-01  7.24682659e-02
   3.12321633e-02  6.79974556e-02 -9.85311568e-02 -1.14843585e-01
   1.24419227e-01 -1.17024049e-01  1.74036101e-01 -1.30879700e-01]
 [-1.66456953e-01  5.66266477e-02 -1.18009895e-02 -7.75272325e-02
   6.45824522e-02 -1.12535074e-01  2.35129744e-02 -9.31754261e-02
   3.41407210e-02 -1.40092462e-01 -1.31463900e-01  1.47341192e-03
  -1.37340650e-01 -1.36646196e-01  4.73258048e-02 -3.03769261e-02
  -1.30474299e-01 -8.41146559e-02 -1.64849341e-01 -1.66855618e-01
  -1.51822805e-01 -4.43596840e-02 -1.61496058e-01  5.75624406e-03
  -1.44579709e-01  1.26059666e-01 -1.18130580e-01  2.75081098e-02
  -8.55692700e-02  6.07794672e-02 -1.64420336e-01  1.40389070e-01
   1.35061041e-01  1.17481098e-01  1.42571077e-01 -1.40703887e-01
  -9.79951695e-02  8.68387669e-02 -1.76527560e-01 -8.54253769e-03
  -9.11442861e-02  1.25408754e-01  1.12755939e-01  2.29367316e-02
  -1.48953348e-02 -1.10669583e-02 -8.46282169e-02 -1.72531664e-01
   1.03892311e-01 -9.93052199e-02  1.06236383e-01 -1.27033293e-01
   1.01581082e-01  1.67707801e-02 -1.16112754e-01 -1.10977709e-01
   1.30625084e-01 -6.48852438e-02 -1.41792282e-01  4.03726697e-02
   1.31629571e-01 -1.27391964e-01 -6.28581867e-02  1.62164941e-01
  -1.63298890e-01 -5.28241619e-02 -6.70518428e-02 -6.57499656e-02
   1.57085061e-03 -6.83057979e-02  2.64635384e-02 -1.09640345e-01
   7.45846182e-02 -1.74335837e-02  1.12361565e-01 -1.31386563e-01
  -9.88462865e-02  1.17719024e-02 -3.63487899e-02  5.11541814e-02
  -1.12950981e-01  1.10162750e-01 -2.38211900e-02  1.60656080e-01
  -6.27447292e-02 -1.16936475e-01 -1.31509081e-01  1.13288954e-01
  -6.48820400e-02  4.73714918e-02 -1.37068585e-01 -1.11102082e-01
   1.21678039e-01  2.26308405e-02 -1.85117126e-03  1.20019123e-01
   1.60828337e-01 -1.27008766e-01  1.75602287e-02  8.16006511e-02
  -5.11057079e-02  1.51910529e-01  7.53220767e-02 -5.03212363e-02
   2.92239487e-02 -1.07074954e-01  1.35860369e-01 -2.01038420e-02
   3.75221521e-02 -1.33099705e-01 -5.68039194e-02  5.42188436e-02
  -1.65205732e-01 -1.09427124e-02 -3.01407725e-02 -5.93127087e-02
  -1.51756510e-01  8.66025835e-02  9.19175595e-02  1.42050341e-01
  -1.62173823e-01  6.44960552e-02  1.20472685e-01  1.31507382e-01
   3.05214524e-03 -1.21453054e-01 -6.79613650e-03  1.40950307e-01]
 [-1.62235528e-01 -1.04525320e-01  9.12749916e-02 -1.53120801e-01
   1.57436594e-01 -9.43513662e-02 -1.49686128e-01  9.80028957e-02
  -3.68161500e-03 -9.84700397e-02  7.14762956e-02 -7.77699500e-02
   9.25596207e-02  1.41723201e-01  1.17607459e-01  9.25815105e-03
   1.38082400e-01  9.77038592e-02 -7.98415542e-02  4.84457314e-02
   1.88032240e-02 -2.95861661e-02 -3.51333171e-02  3.63785028e-02
  -9.71643701e-02 -4.26761657e-02  4.00986820e-02  7.05395788e-02
  -1.08029537e-01  4.26277518e-04  8.43141228e-02 -6.21013120e-02
  -1.62203789e-01  4.57500219e-02 -1.75849631e-01 -1.65758118e-01
   1.64115474e-01  2.09605992e-02  3.70579511e-02  5.10719866e-02
  -5.31181395e-02 -8.57163221e-02 -6.83454946e-02  7.16744214e-02
   1.61001965e-01 -3.89690250e-02 -2.98829973e-02  3.42077762e-02
   1.66463569e-01  1.42284289e-01 -9.42848623e-02 -2.80608684e-02
  -1.42054006e-01 -1.31411001e-01  5.02749532e-02 -1.07023492e-01
  -1.46709383e-01  3.78612280e-02 -1.32852510e-01 -1.35062188e-01
   4.39331979e-02 -5.88985309e-02  9.44051892e-02 -3.60493362e-02
   7.59970099e-02 -1.24562986e-01  3.04578245e-03 -1.35244131e-01
   1.37138292e-01  1.26171112e-03  8.97401720e-02  9.78679806e-02
  -1.43535644e-01 -1.04703642e-01  1.19680598e-01 -9.00495648e-02
   2.84812450e-02  4.01594490e-02 -1.13662422e-01  1.49604991e-01
  -1.42219186e-01  3.39817852e-02  1.76106438e-01  1.20269880e-01
   9.90474969e-02  9.96428579e-02  1.14086673e-01 -7.63263404e-02
  -2.66637355e-02 -4.29851860e-02 -1.39653087e-02 -5.13407588e-02
   8.81163627e-02  8.54667276e-02  8.24321061e-02  1.30530462e-01
   1.67987064e-01 -1.05444498e-01 -4.18481082e-02  6.21071458e-03
  -3.93523872e-02 -6.14933446e-02  1.61762878e-01  5.63816130e-02
   1.10685095e-01 -1.76101774e-02 -2.84767300e-02 -1.35300577e-01
  -3.72089297e-02 -1.07178986e-02 -4.15310264e-04  8.49886239e-03
  -7.88988173e-02  8.16351175e-03 -1.15241826e-01  1.35750011e-01
  -9.70148370e-02 -3.65466326e-02  7.88970739e-02 -2.39314139e-03
   5.42569011e-02  1.19320676e-01 -9.20442045e-02 -1.18195057e-01
   5.49105555e-02  1.80163383e-02  1.64427504e-01 -1.37832284e-01]
 [-1.33612961e-01 -1.57038063e-01 -1.29633248e-01 -1.31446704e-01
   1.42544731e-01 -6.83316737e-02  1.18501261e-01 -4.41256464e-02
  -7.37684071e-02  4.65814620e-02  1.19444504e-01  1.37112841e-01
  -7.93230236e-02  3.75722349e-03 -9.00454819e-03 -5.08000553e-02
   6.58047646e-02  3.23807895e-02 -8.01898167e-02  9.22564715e-02
   1.50354668e-01 -1.69876322e-01  8.91407877e-02 -7.64281228e-02
  -9.86081958e-02 -2.91405022e-02 -4.41963226e-02 -2.54566967e-02
   3.30275297e-02  7.50137717e-02 -4.11985070e-02  5.80778718e-03
   7.49738365e-02  1.65685698e-01  1.75631687e-01 -7.49781057e-02
   1.57614052e-02  1.93249583e-02 -3.38084996e-03  3.57573032e-02
  -1.48863852e-01 -6.30563498e-03  1.47707716e-01  1.02683172e-01
   7.76719600e-02 -1.61804780e-01  1.17305890e-01  9.05148536e-02
  -1.50247782e-01 -3.04372758e-02 -7.83549547e-02 -1.73165336e-01
  -5.73605523e-02 -1.50099590e-01  2.01225281e-03  7.05703795e-02
   6.47840500e-02 -1.56325549e-02 -1.69555545e-01  3.51897031e-02
  -6.94236159e-02  6.53475076e-02  1.37448534e-01  8.59519094e-02
  -1.03105813e-01  1.17683664e-01  5.45817763e-02 -1.48508251e-02
  -1.26823634e-02  1.76102087e-01  1.27416000e-01  2.40916014e-03
   1.47776902e-02  4.43086922e-02  1.58563480e-01 -2.25995183e-02
  -6.33967370e-02  1.92404985e-02  1.59187809e-01 -1.96873844e-02
  -1.76713809e-01  1.65154919e-01  1.35071322e-01  1.39638141e-01
  -5.29065728e-03 -1.27683163e-01 -2.26534605e-02  5.74453175e-03
  -5.79206422e-02  7.10202605e-02 -1.64321661e-02  4.49343920e-02
   8.37916285e-02  4.17741835e-02 -1.00796461e-01  1.04971990e-01
  -2.43865848e-02  5.20160347e-02 -1.43822327e-01  1.51152328e-01
  -1.66080326e-01  9.47462469e-02  9.25579220e-02  4.78862375e-02
  -6.36498779e-02  1.53248116e-01  1.73553526e-02 -1.25476778e-01
   4.50048745e-02  5.73489666e-02  7.42231756e-02  1.62613317e-01
   1.59005150e-01 -7.11042583e-02 -1.36215284e-01  1.92285776e-02
  -4.00639027e-02 -1.61325112e-01  1.16469488e-01 -7.83204734e-02
  -9.28932577e-02  1.43610582e-01 -1.01506636e-01 -6.52901903e-02
   1.58161357e-01  8.64831060e-02  1.09513566e-01 -4.33054715e-02]
 [-6.51583970e-02 -1.09746262e-01  1.51700512e-01  1.73948273e-01
  -6.89269155e-02 -3.43745425e-02 -1.76751569e-01 -1.43275186e-01
  -7.33906105e-02  8.05695802e-02  8.54154602e-02 -8.82898942e-02
   1.14590570e-01  1.16362229e-01  6.95697442e-02 -6.55127615e-02
   1.84784718e-02  1.04209757e-03  8.88763219e-02  1.05688170e-01
   5.39140590e-02  7.58332834e-02  1.63894430e-01 -2.22580694e-02
  -7.31236041e-02  9.88292545e-02 -9.74875351e-04 -1.40231788e-01
   1.59240738e-01 -1.68797612e-01  3.92010994e-03  1.92305967e-02
   1.51674584e-01  1.82863593e-01 -1.09645888e-01  1.65417060e-01
  -1.09138787e-02 -8.37163255e-02  1.54154316e-01 -1.20855495e-01
  -6.93433136e-02 -1.29731208e-01 -3.14248651e-02 -1.13759652e-01
  -1.68053254e-01  4.34101522e-02 -6.30483106e-02 -7.47732297e-02
   1.11237869e-01  4.07387316e-03 -1.18961602e-01 -1.36793330e-01
   1.17658451e-01  1.36982799e-02  1.25788376e-01 -3.08749229e-02
  -1.45871967e-01 -1.77225713e-02 -1.18379593e-02 -1.55003369e-03
  -1.40100300e-01  2.69120373e-02  4.48130965e-02 -6.29748611e-05
  -7.85892457e-02  1.19228952e-01 -8.52640197e-02 -3.69467726e-03
   1.23602495e-01  1.73204213e-01 -1.11428171e-01  1.06837422e-01
  -1.31625444e-01  1.19544014e-01 -1.40960561e-02  1.16642907e-01
   2.90134028e-02  1.20995596e-01 -6.22049943e-02  5.69980443e-02
   1.75954565e-01  1.36369541e-01  1.46343559e-01 -1.52177453e-01
   2.07322873e-02 -1.00843415e-01  6.24362892e-03  4.58773524e-02
   3.55085954e-02  1.28457353e-01  5.27604818e-02  1.14983976e-01
  -1.47923052e-01 -4.05053049e-02 -1.37054399e-01 -8.82562995e-03
   4.46587205e-02  1.38647631e-01 -4.63078767e-02  1.10729560e-01
   4.62728143e-02  3.20123099e-02 -3.42179686e-02 -3.11035365e-02
  -1.66725129e-01 -1.44493014e-01  3.98026854e-02 -1.08808659e-01
  -1.21449679e-01  8.14759284e-02 -8.32959935e-02  6.25415295e-02
  -2.13022362e-02 -1.42652035e-01  1.94552541e-02  9.57686454e-02
  -1.30175471e-01 -4.53854501e-02  8.28682333e-02  1.02880105e-01
  -7.94378296e-02 -1.20214447e-01 -6.44716099e-02 -2.11077780e-02
  -7.72153214e-02 -4.19268534e-02  1.71312615e-01  5.39237000e-02]
 [-1.22208662e-01 -7.16178641e-02  1.20300934e-01 -1.15775369e-01
  -1.15042560e-01  1.56215236e-01  9.06142145e-02  1.38178453e-01
   9.46740955e-02  1.60969988e-01  1.59401402e-01  8.63525718e-02
   1.69995233e-01  2.34027058e-02  4.45702523e-02 -1.05319917e-01
  -1.53482407e-02 -1.13622211e-01  1.01103112e-01 -8.69676992e-02
  -4.70814854e-02 -1.53788447e-01  6.71008527e-02 -9.58983600e-03
   1.50219038e-01  1.30012408e-01 -2.10326314e-02 -1.09117933e-01
  -4.51587439e-02 -5.43011725e-03 -7.46875852e-02 -1.17664218e-01
  -1.68774605e-01 -1.52171358e-01  1.62192151e-01  6.24917150e-02
   1.59506008e-01  8.38446766e-02  5.40562868e-02 -8.71248692e-02
   1.23577163e-01 -1.81131065e-02  2.81728059e-02  3.46492678e-02
   1.07992575e-01 -1.53497934e-01 -3.39207500e-02 -5.55147752e-02
  -5.69390431e-02 -1.34922549e-01 -1.64750546e-01 -9.40418392e-02
   8.04019719e-02  1.05568454e-01  5.07444739e-02  8.93498510e-02
  -1.53797641e-01  1.46013662e-01 -1.07843377e-01 -1.64679199e-01
   7.99857825e-02  1.22165307e-01  7.60049373e-02  9.14020985e-02
   2.16609985e-02  1.63878992e-01 -1.37915358e-01  7.12991506e-02
  -1.57421306e-01  1.47651449e-01  7.65460879e-02 -1.27172470e-01
  -8.44485834e-02 -1.74611509e-02  1.57303616e-01  1.29674211e-01
   3.72555852e-02 -1.66883051e-01  2.66927779e-02 -1.29976124e-01
  -1.13608263e-01  3.75042111e-02 -7.06789121e-02  5.25691658e-02
   1.10616222e-01  2.44655758e-02  1.49304822e-01 -1.60849869e-01
  -1.62671447e-01 -7.44309574e-02  7.11172819e-03  3.22680920e-02
  -6.63230792e-02  1.43939480e-01  9.38251615e-03 -7.15969130e-02
   1.30357668e-01 -8.94702524e-02 -4.62976843e-02 -2.11734027e-02
   3.32992524e-02 -1.32383496e-01  2.90827155e-02  8.54143500e-03
  -1.31454751e-01 -9.55981091e-02  5.17378747e-02  4.74564582e-02
   7.50484020e-02 -1.23742133e-01 -1.25566959e-01  1.42193869e-01
   1.65220901e-01  2.82022208e-02 -1.21612959e-01 -1.46665573e-02
  -2.39739269e-02  9.11421031e-02  5.04330397e-02 -1.37478262e-01
   2.45486349e-02 -2.52523720e-02  1.70988068e-01 -3.29777151e-02
   1.42348483e-01  1.20079443e-01  1.44159794e-03 -4.23817784e-02]
 [-8.56820941e-02  1.03193149e-01  7.29660988e-02  1.02079287e-01
   1.27872452e-01 -4.54932600e-02 -6.82920143e-02 -1.51247084e-01
   1.46969214e-01  9.13975984e-02  1.47570267e-01 -1.25066310e-01
   1.72040567e-01  1.03627160e-01  4.65067774e-02 -7.95175284e-02
  -5.91754839e-02 -2.43503898e-02 -7.45756477e-02 -6.57233298e-02
  -4.16175723e-02  6.17217422e-02 -1.64197385e-02 -1.01709448e-01
  -1.15107462e-01  3.21801752e-02 -4.82948571e-02 -3.99480462e-02
   2.31082290e-02  7.32611269e-02 -1.22427322e-01  4.50292230e-03
  -1.42198801e-02 -1.55791640e-02 -1.61419734e-01 -1.33473754e-01
   5.09294569e-02  9.71552730e-03 -1.09579109e-01 -5.69989756e-02
   1.57909825e-01 -7.92330503e-03  4.13198769e-03 -6.65059984e-02
   1.56154886e-01 -1.63140878e-01 -1.03263363e-01  1.93649232e-02
  -1.75366461e-01 -8.45335945e-02 -4.37617451e-02  6.03713542e-02
  -1.06653444e-01 -1.95952952e-02  5.89722842e-02  5.37765920e-02
  -1.21935725e-01  1.19761690e-01  1.71330556e-01 -9.85317007e-02
  -1.10962324e-01 -1.52918756e-01 -3.70256305e-02 -3.11369598e-02
   1.09967440e-02 -7.80066103e-02  2.75248885e-02 -1.07767001e-01
  -2.72229910e-02  1.50790170e-01 -1.38985932e-01  8.45763832e-02
   1.63996816e-02  1.15179166e-01 -1.43105835e-02  1.27825782e-01
   1.16585866e-01  9.68756825e-02 -5.72646260e-02 -2.54766345e-02
   6.11600429e-02  1.16795793e-01  5.46344519e-02  1.74962237e-01
   7.30560720e-03 -1.27048045e-01 -8.44565108e-02  1.58356950e-01
   1.12775430e-01  3.96080017e-02  8.88413936e-02  1.40484378e-01
  -1.27235517e-01  7.17768371e-02  7.54307061e-02  7.30739981e-02
   2.76360214e-02  1.38593167e-02  7.10203052e-02  1.52389720e-01
   3.91903371e-02 -2.93697417e-02  1.56939492e-01 -5.91225475e-02
  -1.03392161e-01 -1.70885876e-01 -9.07709077e-02  8.96391273e-03
   9.10708159e-02  1.31599918e-01 -1.26315787e-01 -3.46743762e-02
   1.29725173e-01  8.18011314e-02  1.69212595e-01  9.07932073e-02
  -1.24806017e-02 -1.76366895e-01 -1.26034796e-01  1.07977197e-01
   5.05464226e-02 -1.40491247e-01 -9.30857360e-02  1.52738497e-01
   1.24921694e-01  1.59852132e-01 -1.62739307e-01  1.02088049e-01]
 [ 8.35583657e-02 -6.97286427e-03  5.07479906e-02 -1.08706146e-01
  -6.33853599e-02  4.10924293e-02 -3.61740887e-02  1.56643987e-01
  -1.37588918e-01  1.45096138e-01  1.20886177e-01  1.69015631e-01
   5.05908430e-02 -1.04848139e-01  1.00880980e-01  1.15415826e-01
  -4.02846709e-02 -1.69036150e-01  3.37294489e-02  4.13262472e-02
  -5.41268708e-03  9.52548981e-02  1.68326236e-02  1.33363143e-01
   5.47248125e-02  1.76170036e-01  2.65895445e-02  1.58364043e-01
  -3.03490162e-02 -1.59776926e-01 -1.52138412e-01  1.63442224e-01
   4.73123118e-02 -1.55873522e-01 -5.55871464e-02 -1.00120693e-01
  -1.31330505e-01 -5.85269704e-02 -1.75739110e-01 -5.33757806e-02
   1.73154995e-01  2.22640336e-02  1.26832053e-01  2.82435119e-03
   8.92358944e-02  1.74409345e-01  4.73595709e-02  2.65521407e-02
   1.56016544e-01  1.47346571e-01  4.34810892e-02 -7.40048289e-03
   5.78875802e-02 -9.08638388e-02  1.29375175e-01  9.94093567e-02
   1.65310547e-01 -2.62185745e-02  7.27843195e-02  1.50450453e-01
   1.18684664e-01  1.16386943e-01  1.41141966e-01  1.44146681e-01
   8.05768371e-03  1.57828689e-01  3.53717245e-02  2.79865041e-02
  -6.49815798e-03 -2.54263058e-02 -1.45493239e-01 -4.01884690e-02
  -1.16085857e-02 -1.76162615e-01  1.82592690e-01 -1.35541707e-02
  -5.64508489e-04  4.12050784e-02 -7.72505924e-02 -6.54150778e-03
  -1.45485774e-01 -3.51596028e-02 -2.24514212e-02 -3.76063995e-02
   1.75752848e-01  1.02199316e-02 -1.57112315e-01  1.19440660e-01
  -1.58505425e-01 -1.12473808e-01 -8.67862180e-02  7.63272941e-02
   8.73518139e-02 -1.07543617e-02  1.60674930e-01 -4.03679609e-02
   9.39925760e-02 -1.36010736e-01  1.79306969e-01 -9.01104659e-02
  -1.10151675e-02  1.23058960e-01  2.33393610e-02 -4.88440245e-02
  -1.38918996e-01 -4.13842201e-02 -1.65581644e-01  2.94756442e-02
  -1.05800472e-01  2.11724639e-02  5.85567653e-02  5.52406162e-02
   1.04979038e-01  3.11513245e-02  1.78666469e-02 -9.08726081e-02
  -1.07142292e-01  5.92985041e-02 -4.74525839e-02  1.07736140e-02
   1.04574263e-02  5.01676053e-02 -1.29935533e-01 -4.53275442e-02
   1.41596690e-01  7.18209296e-02 -6.90654516e-02 -9.42540839e-02]
 [-1.08174562e-01  2.33713537e-02  1.29312888e-01 -9.18264315e-02
   1.73083410e-01 -2.56672204e-02  1.72502533e-01  1.37133524e-01
  -1.49555385e-01 -6.17230460e-02  5.55488318e-02  1.14625648e-01
   5.62667549e-02  1.39323786e-01  9.87717360e-02  1.35570601e-01
   1.17573366e-01 -4.73841876e-02  5.98607510e-02 -5.59722334e-02
  -1.27427578e-01 -5.56484610e-02 -4.00514752e-02 -1.18978024e-01
  -1.78044289e-02  4.95652854e-02 -6.55577779e-02 -1.14021972e-01
   1.91487074e-02  1.15918741e-01 -1.24164745e-01  2.15227455e-02
  -3.38735431e-02 -1.39902681e-02  1.69399306e-01  5.61717153e-02
   1.07824370e-01  1.15161791e-01  1.20291069e-01 -1.01855740e-01
   1.42069891e-01  7.42714256e-02  1.31775245e-01 -1.19066536e-01
  -9.12325829e-02 -1.54647708e-01 -6.30029216e-02  7.08010495e-02
  -9.08735767e-02  9.15870816e-02 -4.47638780e-02  9.34387594e-02
   9.81053561e-02  5.48841804e-02  1.29991025e-02  9.30255502e-02
   1.49605796e-01 -1.07366607e-01  8.87464136e-02 -9.41825658e-02
  -1.27691329e-01 -1.30519480e-01  1.27724007e-01 -1.33748934e-01
   1.09417781e-01 -4.09002751e-02 -8.36162716e-02 -7.17236921e-02
  -9.24431235e-02  1.75999701e-02 -1.51871949e-01 -1.31042048e-01
   5.58269173e-02  3.25994045e-02  3.99166048e-02  3.28906029e-02
  -7.98052698e-02  1.75231799e-01 -1.70514226e-01 -1.30519211e-01
  -1.57504797e-01 -3.39091271e-02  1.33987620e-01 -2.62072086e-02
  -4.96556908e-02 -9.70683992e-03 -1.51284635e-01  9.92819667e-03
   1.08774647e-01  8.65437537e-02  2.45687068e-02  7.34103173e-02
  -6.87703490e-04  4.69972342e-02  1.09266415e-01  1.73667356e-01
  -2.13719457e-02 -4.33470160e-02  3.10761333e-02  1.13962010e-01
   1.34531513e-01 -8.68815556e-02  9.77395624e-02  5.52825481e-02
  -1.02844507e-01  4.97685522e-02 -6.04393780e-02 -1.13162056e-01
   9.03345495e-02  1.42078802e-01 -1.60864398e-01 -1.70759887e-01
   4.65123802e-02 -5.75724244e-02 -1.73929378e-01  4.71549928e-02
   1.24960050e-01 -1.82963908e-03 -9.53901634e-02  4.35844064e-03
   1.34403810e-01  4.61020768e-02  1.31336883e-01  7.98820108e-02
  -5.31135425e-02  1.01242200e-01  1.62829950e-01  7.65872151e-02]
 [ 5.84720075e-03  1.29858896e-01  8.44633505e-02  1.68356732e-01
  -8.26041996e-02  1.25154421e-01 -3.50576639e-02  1.46766052e-01
   9.35383886e-03  1.60956308e-01  3.41049246e-02  8.86353701e-02
   5.71056455e-02 -8.83339792e-02 -8.19808096e-02 -5.36167324e-02
   1.53665110e-01  7.20091164e-02 -2.85776705e-02 -1.14217652e-02
   6.66360557e-02  4.47708890e-02 -6.86473846e-02  1.53266460e-01
  -4.33741659e-02  6.07819557e-02  1.64017320e-01 -4.09986377e-02
  -1.27932250e-01  1.20547727e-01 -6.09623492e-02  4.55614142e-02
  -1.45281041e-02 -3.59438770e-02  7.82153457e-02  1.73755258e-01
   1.04623005e-01  1.60102263e-01  8.74405075e-03 -8.30597654e-02
   4.24847379e-03 -9.22492892e-02 -8.14802647e-02  1.36969164e-01
   1.93920154e-02 -1.41500875e-01  3.67079675e-02 -1.25273913e-02
  -1.05541103e-01 -2.20529586e-02  2.70769168e-02 -1.09688014e-01
   4.58854111e-03  1.05530724e-01 -7.79067203e-02  3.22368145e-02
   8.07262510e-02  5.18305227e-02  8.21978897e-02 -1.67216182e-01
  -1.35530919e-01 -1.37152180e-01 -1.61433637e-01 -7.73247406e-02
   1.15169138e-02 -8.82932395e-02  5.68167232e-02 -3.37847210e-02
   8.63360614e-02 -4.48753405e-03  1.74034908e-01  1.92373134e-02
  -3.69565934e-02 -1.13260679e-01  7.30135152e-03 -5.90339527e-02
  -1.67778239e-01 -7.22896084e-02  1.58755332e-01 -7.14051649e-02
   1.68118879e-01  1.13892734e-01 -1.81739211e-01 -1.08962581e-01
   2.60641947e-02  5.37705421e-03 -1.49574384e-01 -1.11021243e-01
  -4.75220717e-02 -2.50770524e-02  1.68627217e-01 -1.23815238e-02
  -5.30948713e-02  6.22304976e-02  1.29594311e-01  1.27983093e-03
  -1.64133146e-01 -1.28066659e-01  1.81474742e-02 -7.01774061e-02
  -1.71409659e-02  1.46233827e-01  1.60006687e-01 -6.28843904e-03
  -4.08108383e-02 -4.01361659e-02  1.95032358e-02 -1.06325030e-01
  -1.45790324e-01  1.61722884e-01 -5.15495092e-02 -3.30700241e-02
   1.43113211e-01 -1.66429982e-01 -4.83485265e-03 -1.18596174e-01
  -4.87310216e-02  1.29143968e-01 -2.61947513e-04 -1.17725253e-01
   1.32792756e-01 -1.76340729e-01  1.96829140e-02  9.23779160e-02
   1.63416669e-01  3.04286350e-02 -9.41776782e-02 -4.45973575e-02]
 [-6.05295748e-02 -1.30729914e-01 -1.51535958e-01  9.97547656e-02
   7.87226409e-02  1.45257428e-01 -1.61019117e-02 -1.00030445e-01
   1.53691813e-01 -1.50863424e-01 -1.11826465e-01 -6.53432533e-02
  -1.18289292e-02  8.70275050e-02 -6.69279695e-03 -4.40220088e-02
   3.93338352e-02  1.36393026e-01 -1.02576241e-01  8.41376334e-02
   1.38593629e-01 -3.12501639e-02 -5.07210791e-02 -4.92364913e-02
   1.68834582e-01 -8.92198160e-02  1.60246491e-02 -3.85919660e-02
   2.41694897e-02  5.99050373e-02 -7.55966902e-02 -1.74767599e-01
  -8.76722261e-02  9.54274982e-02 -1.73782408e-01 -2.95042247e-02
   1.27834827e-02 -7.77688175e-02 -6.03156388e-02  1.79237127e-02
   6.05396926e-03 -9.90645215e-02 -4.41429615e-02  7.16264248e-02
  -4.12525237e-03 -7.02819750e-02  7.25777596e-02  5.07214516e-02
  -7.09275380e-02  6.44230992e-02  1.13959268e-01 -7.79720023e-02
   1.37613267e-02  1.72109172e-01  1.74449384e-03  1.08818099e-01
  -1.48379415e-01 -5.44987395e-02 -3.05271298e-02  1.76130995e-01
   1.21835753e-01 -8.53036642e-02 -1.76079422e-01  1.38336167e-01
  -9.14589092e-02 -3.63341272e-02 -1.12872802e-01 -8.98543373e-02
  -2.01796591e-02 -1.35219485e-01 -4.76143956e-02  3.57358009e-02
   8.15949887e-02 -3.61930132e-02 -9.68300626e-02  1.30128413e-02
   4.08757478e-02 -1.11895800e-03  1.12973228e-01  1.10770419e-01
   1.19832918e-01  1.41508624e-01 -5.46796620e-03  1.53101131e-01
  -8.29256922e-02  1.48837864e-02 -9.52133089e-02  1.16092518e-01
   1.58693627e-01 -1.14545822e-02  6.73802048e-02 -3.96084636e-02
   1.66787818e-01 -5.79628348e-02  1.67870477e-01  1.37539074e-01
   1.40603945e-01 -6.81165978e-02  8.85043293e-02  4.32575792e-02
   4.37303931e-02  1.05079040e-01  1.72422513e-01  5.47953695e-02
  -8.30270573e-02  1.02149293e-01  6.94209933e-02  1.64170519e-01
   9.31235999e-02 -1.22122392e-01  2.80898213e-02  1.63227186e-01
  -6.94319978e-02 -1.48296416e-01  9.40271765e-02 -4.81222123e-02
   1.56174287e-01 -4.20385301e-02 -1.26573727e-01  1.47258267e-01
   1.51465192e-01 -1.17437430e-01  2.61121690e-02  1.05579838e-01
   8.06436986e-02 -8.78011957e-02 -2.04982013e-02  1.60043389e-02]
 [ 1.49520949e-01  1.75156400e-01 -1.73249766e-01 -5.12974709e-02
  -6.07573763e-02 -8.81407335e-02  1.45498052e-01 -9.43629593e-02
  -6.44365475e-02 -3.48111987e-03 -3.69273871e-02 -2.08963454e-03
  -7.53908902e-02  1.44066766e-01  1.33137271e-01 -1.10774770e-01
   1.60266384e-01 -8.60558450e-03  1.27235010e-01  1.83112919e-02
   1.62023559e-01 -7.21018314e-02  1.02637187e-01 -3.09430361e-02
   1.73532143e-01 -1.52092174e-01  9.15682316e-03  1.45934626e-01
   1.17345884e-01  1.10739782e-01 -5.89677840e-02  8.43118131e-03
  -1.12000652e-01 -8.80889595e-03 -1.22676872e-01 -4.25790250e-02
   1.05849609e-01 -6.03037104e-02 -9.84853432e-02 -6.55783042e-02
  -1.37203798e-01 -5.44787645e-02 -1.40848577e-01  9.28983837e-02
   5.49357682e-02 -7.80305862e-02 -1.69745043e-01  1.15721628e-01
  -4.78073955e-04  3.77019942e-02  2.12654024e-02 -1.23802021e-01
   8.23275894e-02  1.08931765e-01  9.83303338e-02 -5.89534119e-02
   8.54606479e-02  2.57609487e-02 -1.56505749e-01 -4.41524088e-02
  -1.43423676e-04  2.73691565e-02  1.09985098e-01  1.68418691e-01
   9.74626392e-02 -4.60394025e-02 -3.13929468e-02 -1.22145489e-01
  -2.34030485e-02 -3.85325402e-02  1.62113920e-01 -1.46848977e-01
   1.19286925e-02 -9.18391198e-02  1.20621487e-01 -3.47032994e-02
  -1.13723740e-01  2.38378346e-02 -1.12108424e-01  8.14121515e-02
   1.32167593e-01  6.90786391e-02 -1.27960950e-01 -1.41600683e-01
  -3.86278331e-02  1.61741659e-01 -1.36953771e-01 -3.26036215e-02
  -1.71014339e-01 -1.64912656e-01  7.84614533e-02 -1.26647949e-01
   9.57062095e-02 -1.40012205e-01 -1.25590563e-01 -1.12000145e-01
  -3.21566612e-02 -2.09023952e-02  9.16955322e-02 -8.36680233e-02
  -6.57859221e-02 -1.63550764e-01 -2.95586437e-02  8.86882842e-03
  -1.38103709e-01  1.34948984e-01  8.30400437e-02 -1.02288589e-01
   5.36693335e-02 -2.14906335e-02 -6.87640980e-02  1.40842631e-01
   1.41689137e-01 -7.01883435e-03 -1.43257171e-01 -1.39219463e-01
   1.46156400e-02  8.66030008e-02 -1.33055896e-02 -1.36212334e-01
   2.44066119e-02 -8.45268965e-02 -1.32239863e-01 -1.22108608e-01
   6.66781664e-02 -2.06450075e-02  7.52487630e-02  1.76639870e-01]
 [ 1.28207341e-01  6.55771643e-02 -1.36551648e-01  2.37369835e-02
  -1.14298537e-01 -1.35200515e-01  1.35193899e-01  1.48503229e-01
  -1.25185281e-01  1.75321922e-01  1.55832544e-01 -2.14216113e-03
  -1.64763823e-01  1.56998768e-01  1.59391567e-01  5.60681224e-02
  -3.69387269e-02 -3.12696695e-02  3.48807275e-02 -7.97833055e-02
  -7.08414763e-02 -1.62278801e-01 -1.12757534e-02  3.73417735e-02
   6.55588806e-02  1.48841143e-02  2.19416618e-03  7.25278556e-02
  -8.29735696e-02 -6.27942905e-02 -1.15681633e-01 -9.23828557e-02
   1.10293180e-02 -1.38970077e-01  9.54215676e-02  4.29034233e-03
  -1.47370964e-01  1.71317533e-01 -1.69273913e-02 -5.27050123e-02
  -6.99862316e-02  3.78582329e-02  8.76346380e-02 -1.63996711e-01
  -6.45571277e-02  1.45242289e-01  8.08067471e-02  1.51109383e-01
  -9.88186896e-03  1.00358799e-01 -8.64286050e-02 -4.14191335e-02
   3.46955806e-02  1.40903994e-01  1.00988135e-01 -1.03695579e-01
  -7.02833235e-02 -1.53171122e-01  9.10896212e-02 -2.26894617e-02
  -9.82717797e-02 -1.22949690e-01  1.49206325e-01  5.18138111e-02
  -4.38086540e-02 -3.78356427e-02 -1.25046834e-01  1.52333528e-02
   1.75745860e-01 -1.19905546e-01 -1.70703545e-01 -4.23987210e-02
  -2.87499279e-02  5.83393276e-02 -1.67260826e-01 -4.79040593e-02
   1.52362123e-01  1.41020730e-01 -2.92348713e-02  6.39805645e-02
   1.60773590e-01  3.76930684e-02 -2.21479982e-02 -1.24647573e-01
  -1.69848293e-01 -4.19462770e-02 -5.29043227e-02  6.49105757e-02
   1.60302386e-01  7.75414854e-02 -6.62637800e-02 -7.26663917e-02
  -1.59457177e-02 -6.83824718e-03  2.06666291e-02 -1.14392363e-01
   1.72187403e-01  5.40637076e-02 -2.23704875e-02 -9.93011743e-02
  -1.58852100e-01 -5.98675013e-03 -1.01942182e-01  8.44881684e-02
  -9.55703780e-02 -1.55259669e-02 -1.25691846e-01  5.74915856e-02
   2.30472088e-02  2.54633129e-02  1.71726540e-01  3.62913311e-03
   9.29185748e-03  1.53188258e-02 -1.75343066e-01  3.39721292e-02
   9.22560841e-02 -9.76257101e-02 -1.34974942e-01  5.85702062e-02
  -7.34208226e-02  1.28712758e-01 -7.56951049e-02 -1.41217738e-01
  -5.39817214e-02 -2.47864276e-02 -4.31095213e-02  1.00664005e-01]
 [ 5.37031293e-02  1.76301792e-01 -7.66330436e-02  4.42154109e-02
   1.00222901e-01 -1.04858913e-01  5.91355264e-02  9.37023908e-02
   4.75207418e-02 -5.61385080e-02  9.74947065e-02  8.52173716e-02
  -3.51142883e-03  2.06727833e-02 -1.15757793e-01  8.08006078e-02
   1.09524474e-01 -2.13479698e-02  1.60995051e-01 -1.05316624e-01
   1.75073907e-01  1.56656668e-01 -9.27444324e-02 -7.47832581e-02
  -1.09752327e-01 -9.15687084e-02 -4.24004942e-02  2.46535093e-02
   2.87762731e-02 -1.64443254e-01 -1.15196437e-01  1.46774516e-01
   1.14621386e-01 -9.58701968e-03 -2.96250582e-02 -5.92922270e-02
   7.60187954e-02 -7.76189864e-02  3.76619101e-02 -1.64570808e-02
  -1.87036395e-02 -1.13723785e-01  1.28464386e-01 -3.42899561e-02
   1.88064724e-02  1.08224556e-01  4.40183431e-02  3.48924547e-02
  -1.11108407e-01  7.51043409e-02 -9.51749608e-02  1.62745640e-01
  -1.30156159e-01  1.52491525e-01  4.75443900e-02  3.93362492e-02
   1.10039189e-01  1.36110768e-01  1.29016683e-01  3.21288407e-02
  -1.27683967e-01  8.07750970e-02 -1.63903996e-01 -8.61788839e-02
   3.76641452e-02 -2.15283185e-02 -1.55885428e-01  2.03692317e-02
  -1.51480958e-01 -2.36073136e-03  5.41433990e-02 -6.47066683e-02
   1.37426004e-01 -2.09184438e-02  6.45898730e-02  2.73252279e-02
  -1.71455741e-01 -2.77432054e-02  3.50174904e-02  1.59349188e-01
  -2.59286612e-02  6.01440668e-04  1.63474083e-02  5.44990748e-02
   1.73124298e-01 -1.74817592e-02 -3.25026363e-02  2.03352273e-02
   1.27208754e-01 -7.06011131e-02 -1.05841398e-01  9.21629369e-03
  -1.93237811e-02  1.39693245e-01 -1.52666837e-01 -1.43738627e-01
  -8.13285410e-02  5.43630272e-02 -1.51276842e-01  8.83708447e-02
   1.63957253e-01 -1.34220690e-01 -1.39267564e-01  1.09583437e-02
  -1.31273061e-01  1.72112584e-02  1.40154317e-01 -1.53082758e-02
  -2.39869952e-02  1.18930742e-01 -1.44840389e-01 -1.34238154e-02
   1.49367750e-03  1.21541768e-02 -9.13341567e-02  7.35618025e-02
   1.38189346e-02  8.97470266e-02 -1.31224215e-01 -9.80027989e-02
   1.28343865e-01  9.05347019e-02 -6.70465752e-02  1.40660718e-01
   1.45484820e-01  9.84106511e-02  1.12305537e-01 -1.18038356e-01]
 [ 7.73831755e-02 -1.54030919e-01 -5.46605438e-02 -1.06990829e-01
   2.32537091e-03 -5.23854122e-02 -1.53636560e-01 -3.85294706e-02
   6.78869039e-02 -1.61317885e-02 -1.68420285e-01 -7.87587166e-02
  -1.12522267e-01 -1.01000071e-01  5.02685457e-02 -1.17560580e-01
   1.44291818e-02 -5.74079677e-02  2.65808851e-02  1.21299937e-01
   9.67601091e-02  1.03329316e-01  3.05617750e-02 -5.49712926e-02
  -1.09190471e-01 -1.11587197e-02  1.21383801e-01 -3.31307948e-02
   1.78828239e-02 -6.30067140e-02  7.46050477e-03  1.71271011e-01
   1.16709933e-01  1.12245694e-01  1.74857154e-01 -7.07516149e-02
   2.75142640e-02  1.31192043e-01 -5.39009273e-02 -6.17876649e-03
  -1.94745064e-02 -1.54903993e-01  1.55749366e-01  9.79210883e-02
   7.30501115e-03 -1.16287500e-01 -2.04062462e-03  1.67216808e-02
   1.16340980e-01  6.99182004e-02 -1.25722319e-01  9.19030160e-02
   5.82945347e-02  1.43631324e-01 -1.44084439e-01 -1.76144108e-01
   1.66325018e-01  1.11806244e-02  6.85066730e-02  5.14506847e-02
   1.09278336e-01  7.52529055e-02  7.47019053e-03 -1.23992570e-01
   1.73877463e-01 -1.72988653e-01 -1.40529424e-02  3.92633229e-02
  -8.04917961e-02 -5.43222725e-02 -7.32266083e-02  1.11432567e-01
   1.25740394e-01 -1.16236202e-01  7.10943639e-02 -9.74510536e-02
  -1.09698892e-01  1.09447643e-01  1.64826617e-01 -5.19142970e-02
   9.59573686e-03  4.36502248e-02 -1.62810534e-01  3.71277332e-04
  -8.92450213e-02  2.15257853e-02  1.42708734e-01 -1.69560567e-01
   1.23518869e-01 -1.62052810e-01  1.98322833e-02 -1.55120671e-01
   6.12479746e-02  1.75612584e-01  9.61554497e-02  1.47595987e-01
   7.24975020e-02 -1.54489353e-01  1.40523151e-01  3.62180024e-02
   1.64886013e-01  1.32095769e-01  1.32293716e-01  1.64908901e-01
   1.72273710e-01  9.13277119e-02 -6.14536032e-02  1.11295447e-01
  -1.46269828e-01  7.77749270e-02 -6.58807456e-02  2.05229223e-03
  -3.25706601e-03 -3.05417925e-02  1.11447275e-02  1.43085971e-01
  -8.43434036e-03 -1.14589140e-01 -2.27981210e-02 -6.87017217e-02
  -5.00329435e-02 -7.94621482e-02  9.88180190e-02  5.50983995e-02
   3.68277878e-02  2.74616629e-02  1.34634748e-01 -4.54122573e-02]
 [ 6.69200867e-02  1.15839019e-01 -2.84006763e-02 -1.31472170e-01
   7.36663789e-02  7.84391835e-02  2.58914381e-02 -1.02188319e-01
   1.54586270e-01 -8.03433731e-02 -4.37479764e-02 -1.57703012e-02
  -6.54234141e-02 -1.83901310e-01  9.04931501e-02  1.39373884e-01
   8.52712542e-02 -5.30162752e-02 -1.42356157e-01 -5.83046563e-02
   1.84445098e-01  3.63335907e-02  1.55252323e-01  1.10789035e-02
  -1.16642788e-01 -8.52884054e-02  5.67792654e-02  1.41048357e-01
   5.17081171e-02 -1.23756967e-01 -1.34089710e-02  5.08668423e-02
   5.57168424e-02 -1.24175467e-01 -9.30462684e-03 -1.53297514e-01
   1.68788597e-01 -1.20909065e-01 -3.94164138e-02  1.65111884e-01
  -7.43827447e-02  6.36841357e-02 -1.15792349e-01  3.53765041e-02
  -1.55547503e-02 -1.37007892e-01  1.23695359e-01 -2.18140334e-02
  -1.90164000e-02 -2.78242975e-02  1.21950388e-01  2.01619565e-02
  -1.23443613e-02  6.48526996e-02  1.28860176e-02 -7.74919093e-02
   1.14709839e-01  1.15108252e-01 -8.09551626e-02  1.44524857e-01
   5.87937571e-02 -1.54849336e-01  1.18007287e-01  1.37282878e-01
  -1.25592172e-01  1.15591049e-01  8.00275356e-02 -1.06484452e-02
   7.97924846e-02  5.48468810e-03 -8.07650760e-02  1.32876649e-01
  -8.76804888e-02 -1.12697892e-01 -3.42222713e-02 -1.26037955e-01
   1.37984440e-01  1.46436274e-01  8.68402645e-02  1.03586361e-01
  -1.16264440e-01 -1.73136547e-01 -2.47390307e-02 -1.10474020e-01
  -1.38313591e-01 -8.44499767e-02 -7.50063034e-03 -1.49725541e-01
   2.07593292e-02 -2.71082278e-02 -1.55525416e-01 -4.49610502e-03
   1.51125565e-01  1.60590753e-01 -1.29715845e-01 -1.27854407e-01
  -2.51961052e-02 -5.00792265e-02  1.34870121e-02  1.50537193e-02
  -1.43696547e-01  1.43187642e-01 -1.31278038e-01  2.27922499e-02
  -4.77528572e-03 -1.54859319e-01  4.87884283e-02  1.62103519e-01
  -1.16757601e-01  1.29264638e-01  1.01903185e-01 -7.01314658e-02
   5.48945554e-02 -9.76974890e-02  5.42439334e-03 -1.50384843e-01
  -1.51676536e-01  8.85222107e-02 -3.19741219e-02 -1.50162816e-01
  -1.16432182e-01 -1.51296601e-01 -2.34552324e-02  1.14374325e-01
   5.02284728e-02  1.20554596e-01 -1.37164742e-02  4.41847444e-02]
 [ 1.55640244e-02  1.26200274e-01 -1.58444241e-01  1.67255282e-01
  -4.36125100e-02 -1.12642847e-01 -1.01688623e-01 -6.96986765e-02
   1.16116747e-01  9.27478597e-02 -1.25870153e-01 -1.73284233e-01
   1.51896939e-01 -5.17524034e-02  6.24783263e-02 -1.61696926e-01
   5.13429977e-02 -4.91293855e-02  1.26541659e-01 -7.38581493e-02
   2.79922523e-02  1.11996077e-01 -1.23104639e-01  5.55729233e-02
   7.71079510e-02 -6.34957403e-02 -1.78874269e-01 -1.69863388e-01
  -7.68294930e-03  8.95715803e-02  1.30948365e-01 -1.36361063e-01
  -1.58148736e-01 -1.10082375e-02 -1.14723250e-01  1.63617939e-01
   7.43543655e-02 -1.00996956e-01  1.19551539e-01  3.13202143e-02
  -6.09400943e-02  2.27721930e-02 -1.62901193e-01  1.55990377e-01
  -1.02359459e-01  1.03019923e-02 -1.01323128e-02  8.50914568e-02
   1.39793456e-02 -9.76149216e-02  1.54459581e-01 -1.76420927e-01
  -8.88165757e-02 -3.55727971e-03 -1.35517791e-01 -6.69637993e-02
  -8.82039964e-02 -1.63257673e-01 -1.50471658e-01  8.46616775e-02
  -3.72815621e-03 -8.95269623e-04 -8.44482481e-02  9.94592905e-02
   2.88933516e-03  5.90155572e-02 -9.74526852e-02 -5.40682860e-02
  -7.79017434e-02 -6.06554598e-02  8.83911699e-02 -1.02683894e-01
   1.47941455e-01 -8.97398591e-03  5.04473262e-02  2.61985660e-02
  -8.79761875e-02  5.48270112e-03  1.50422379e-01 -1.30654007e-01
   1.37457296e-01 -1.68638408e-01 -4.67103757e-02  1.85686663e-01
  -1.50057152e-01 -1.48236319e-01 -8.69996324e-02 -1.23407230e-01
   3.99103314e-02  2.16622241e-02  9.53774005e-02 -1.29010871e-01
   6.17949069e-02 -1.34615093e-01  8.85985941e-02  4.01832163e-03
   1.31144121e-01 -2.45312303e-02  1.69446439e-01  8.75720829e-02
  -2.99542565e-02 -1.55227557e-01 -2.54822373e-02 -1.00224279e-01
   1.07734516e-01  1.05190150e-01 -1.04265779e-01 -1.25792995e-01
   1.15711972e-01  1.18527219e-01 -1.34469569e-02  6.85776323e-02
   7.61527475e-03 -5.05234450e-02  1.20488323e-01 -1.42352790e-01
