sequential/dense/kernel:0
(10, 64)
[[-2.44413957e-01  8.24479535e-02 -1.01696193e-01 -1.16549753e-01
   8.62919986e-02  2.78598934e-01 -2.15061560e-01  4.25751567e-01
   1.18959039e-01 -4.15406793e-01 -1.78449944e-01 -2.58461893e-01
  -2.39860993e-02  2.63184220e-01 -3.38585258e-01 -6.14411160e-02
   1.24508619e-01  3.40622187e-01 -3.72854650e-01 -3.68898332e-01
   4.91685033e-01  2.25666285e-01  4.05359924e-01  1.62674055e-01
  -8.71977210e-02 -2.13714510e-01 -6.82625771e-02  4.18017581e-02
   2.20596373e-01 -1.64084882e-01  2.32220560e-01  3.67001891e-01
   7.57142752e-02 -7.28757679e-02  3.48007046e-02  4.40861173e-02
  -1.10757925e-01 -8.17434639e-02  2.57922202e-01 -2.45311007e-01
  -2.58485526e-01  1.03076145e-01 -1.89605996e-01  3.35022993e-02
   3.18433702e-01  2.87468761e-01 -1.92661211e-01  5.72365373e-02
  -3.17806192e-02 -1.97692558e-01 -2.67891705e-01 -2.76350886e-01
   1.91448808e-01  2.33608991e-01 -9.23140943e-02  5.57890534e-02
  -5.72527014e-02 -4.12708968e-01 -2.53003687e-01  1.56505793e-01
  -1.03368223e-01  2.09703296e-01 -1.03742201e-02 -1.92619085e-01]
 [-7.15305060e-02  3.58053178e-01  1.21605277e-01 -1.66867137e-01
  -9.22990441e-01 -7.60919571e-01 -1.02133062e-02  8.55974257e-01
  -1.37203038e-02 -1.54529929e-01  5.40463328e-01  1.92211062e-01
  -1.04714191e+00  6.55387938e-01 -4.99962240e-01  2.98748195e-01
   1.01807386e-01 -8.82870197e-01  8.23651493e-01  8.97378385e-01
  -2.79783428e-01  4.03596044e-01 -3.22989613e-01  5.65478904e-03
   6.25086248e-01  1.18560791e-02 -1.00716442e-01  6.88176394e-01
   2.13405654e-01 -2.49035165e-01 -4.90354836e-01 -6.64093733e-01
   6.00410938e-01 -1.62156135e-01 -5.90944409e-01  5.93929589e-01
  -1.23382461e+00 -1.52565747e-01 -1.74311399e-02 -2.17734724e-01
  -9.57113504e-03 -1.03955388e+00  4.76822883e-01  8.36154938e-01
   7.46210158e-01  4.93495315e-01 -4.86307144e-01 -1.18832374e+00
  -1.05059552e+00  1.55225575e-01 -8.42586905e-02 -2.06648886e-01
   8.34027827e-01  2.20149428e-01 -5.46103716e-01  2.75851339e-01
   1.72702897e+00 -1.94378391e-01 -1.20607913e-01  2.35373706e-01
  -1.14645755e+00 -6.48641810e-02 -1.35444820e-01  4.00194041e-02]
 [ 1.57720894e-01 -2.21641555e-01 -1.81764901e-01  4.94721770e-01
  -1.17289484e-01 -1.61901489e-01 -7.41738826e-02 -9.18410003e-01
   1.93209022e-01 -1.13162007e-02  3.98161620e-01 -2.74647951e-01
  -2.19684377e-01  5.60683548e-01 -5.79644144e-01 -5.40350437e-01
   1.86599821e-01  7.35372007e-01 -1.69476998e+00 -8.18146206e-03
   8.02985549e-01  1.73759758e-01 -1.31781310e-01 -5.22482514e-01
  -2.35425964e-01 -4.02072370e-02 -1.27404034e+00  1.98809709e-02
   5.85197747e-01 -1.73226297e-02 -3.06747943e-01 -1.13163665e-01
  -2.57658392e-01 -2.62697369e-01 -5.58416843e-01 -8.85768756e-02
   8.79073083e-01 -1.81145221e-01  5.00344783e-02 -4.41437632e-01
  -1.60700217e-01 -5.36590278e-01  6.34958923e-01  2.21360579e-01
   8.96444395e-02  6.88136160e-01 -4.12094504e-01 -2.76939362e-01
   4.17622596e-01  2.38040477e-01  1.80847377e-01  7.51124024e-02
   4.86478060e-01 -1.39716789e-01 -4.27879065e-01 -1.24254242e-01
  -1.45386624e+00 -1.32872295e+00  2.22941250e-01  4.39823329e-01
   1.76066115e-01 -6.05878413e-01 -3.82161349e-01 -8.23350158e-03]
 [-2.48723149e-01 -2.89483815e-01 -1.07373357e-01  3.21681559e-01
  -1.77388817e-01 -3.37323576e-01  2.33366087e-01  4.65928078e-01
  -1.46249145e-01  4.16610241e-01  2.47441739e-01 -1.52833089e-01
  -2.58365534e-02  5.44427514e-01  1.40072614e-01  2.05199420e-01
  -9.07850713e-02  7.16231614e-02  4.98324633e-03  1.11961298e-01
  -4.71164227e-01  1.13861591e-01 -1.01875775e-01  5.11008739e-01
   3.20486307e-01 -2.67910361e-01 -6.45149350e-01 -7.96781182e-02
  -5.12122452e-01  1.00680649e-01 -7.31140316e-01 -1.68143049e-01
   4.03162986e-01 -2.19244227e-01 -2.07820579e-01 -1.02189027e-01
  -1.06236249e-01 -2.02005208e-02  4.27576095e-01  7.47409523e-01
  -1.78458631e-01 -2.81485915e-01 -2.75529027e-01 -3.22348654e-01
   3.58592689e-01  4.26813543e-01 -3.86389196e-01  1.95717633e-01
  -5.55214398e-02  2.17644185e-01  1.07059985e-01 -2.47842073e-03
  -2.28482395e-01  2.97794044e-02  5.94176650e-01  1.16972923e-02
  -9.17815089e-01 -1.54782206e-01 -1.34137467e-01  5.25420547e-01
   1.18150420e-01  1.43702433e-01  1.05284557e-01 -7.09721521e-02]
 [-2.56264806e-01 -2.61885583e-01  2.27569133e-01  1.28201342e+00
  -7.79825509e-01 -1.65979898e+00 -1.70833135e+00  3.19169939e-01
  -2.48648733e-01  4.03211445e-01  1.02122724e+00 -1.11025110e-01
  -1.89122939e+00  7.39771724e-01 -1.37892175e+00 -6.30390704e-01
   1.98080897e-01 -4.40150112e-01  4.71437454e-01  3.54770184e-01
   3.63658071e-01 -2.52409041e-01  4.07839000e-01  1.21014464e+00
  -7.26197362e-02  1.31905079e-04  1.96612656e-01  5.58768511e-01
   1.70983982e+00  8.24650526e-02 -1.93946525e-01  1.30461276e+00
   1.10588336e+00 -1.52369782e-01 -1.32185519e+00  9.41778123e-01
  -6.34968102e-01  2.18367606e-01  2.10663295e+00 -1.78554386e-01
   1.86163157e-01 -3.91976595e-01  2.10537100e+00  7.43772030e-01
   3.47561866e-01 -5.48636317e-01 -8.32523823e-01 -1.99318194e+00
  -2.65535146e-01 -1.01116419e-01  9.54420567e-02  1.36131287e-01
   1.03438723e+00 -2.05016226e-01 -1.07929993e+00  7.58859217e-02
   2.45186880e-01 -1.74713361e+00 -7.99366683e-02  3.67602825e-01
  -1.32373059e+00  4.48206127e-01 -1.48556352e+00 -9.26852405e-01]
 [-6.04133904e-02 -7.07975850e-02 -2.54120111e-01  1.95385575e-01
  -2.07674101e-01 -1.92027260e-02  5.99985532e-02 -2.38042593e-01
  -9.71781164e-02  5.61038740e-02 -1.52383804e-01  1.48774892e-01
  -8.41637850e-02 -2.55097687e-01  4.44009937e-02  2.18025208e-01
   4.56732512e-02  1.26613081e-01  3.61399889e-01 -2.07106769e-02
   6.87439591e-02  2.83957183e-01  2.20360920e-01  5.84007204e-02
   1.46603867e-01 -7.97589272e-02 -1.47524729e-01 -2.83789754e-01
   3.49355489e-01  4.98999655e-02 -1.27650946e-01  3.55762430e-02
  -2.42642567e-01 -1.71089873e-01 -2.53282428e-01  1.26088157e-01
  -2.32513443e-01 -2.70813555e-01 -2.50786878e-02 -2.56100595e-01
  -1.88652933e-01 -1.62424177e-01 -8.89057666e-02 -1.87366620e-01
  -1.12816170e-01 -1.40105009e-01  3.86180937e-01 -5.45567088e-02
   2.21691519e-01  3.50543857e-02 -1.10858634e-01 -8.54703784e-03
  -2.34306216e-01 -2.35739350e-03  9.64795575e-02  9.03559923e-02
   1.69032782e-01 -3.34654227e-02  1.02909505e-01 -4.65715647e-01
   1.79602638e-01  1.10306613e-01  1.29055828e-02  3.15432847e-01]
 [-1.17102534e-01 -3.41806233e-01 -1.25742644e-01 -2.25257650e-01
   1.53733045e-01  1.57612506e-02 -1.05474524e-01 -1.47147970e-02
  -1.56030595e-01 -7.85567332e-04  2.00251743e-01 -2.01090127e-01
   6.26891404e-02  4.76408005e-02  4.69861459e-03 -3.33322823e-01
  -2.59151310e-01  1.41421640e-02 -8.40254053e-02 -8.04541400e-04
  -7.82422815e-03 -2.79633284e-01 -3.27789456e-01  2.29208823e-02
   3.96301672e-02 -2.84397423e-01  4.21537533e-02  1.65804222e-01
  -8.72860663e-03 -7.00115561e-02  6.88693970e-02 -3.32979620e-01
   9.95460376e-02  2.23100688e-02  2.09473535e-01  8.81125331e-02
   1.28322899e-01 -1.94203883e-01  1.74845979e-02  1.07344806e-01
  -2.24919736e-01  5.86266220e-02  1.18663050e-01  1.58421263e-01
  -1.12040520e-01 -2.36792624e-01  9.38226134e-02  6.67141974e-02
  -1.14009075e-01 -1.77443027e-01  2.21704543e-02 -2.77023524e-01
   1.51536569e-01 -2.71285594e-01  6.94855899e-02 -1.61700964e-01
  -2.80893184e-02  8.78094882e-02 -1.66238263e-01 -1.56148419e-01
   8.13131779e-02 -1.89960182e-01  2.81288731e-03 -3.28132093e-01]
 [-1.32994056e-02  1.15260698e-01  2.41001576e-01 -7.07732141e-02
  -6.05420291e-01 -3.29743773e-01  6.08226240e-01  1.47247270e-01
   2.14317918e-01  6.55530512e-01  3.66019189e-01  2.08169073e-01
  -3.69057834e-01  4.59022671e-01 -2.32306868e-01  2.59628773e-01
   8.71320963e-02 -5.09501100e-01  2.81476974e-01  3.53719145e-01
   9.04888213e-02  3.21058959e-01  6.74958229e-02  4.83082719e-02
   3.28183204e-01 -7.76528716e-02  1.30118087e-01  2.34623641e-01
  -1.75558440e-02 -8.29802603e-02  4.59869772e-01  2.66367286e-01
   4.27552730e-01  1.09652452e-01 -4.28801507e-01  3.60307276e-01
   1.02213025e-01  1.45576715e-01  4.47934307e-02 -2.96420544e-01
   1.11354828e-01 -4.67963405e-02  5.06316543e-01  6.42422020e-01
  -4.95900363e-01  2.90476233e-02 -1.84458524e-01 -3.10359061e-01
  -3.59113991e-01  1.56840503e-01  1.20403230e-01 -9.91109759e-02
   2.65498728e-01 -1.64792702e-01 -3.42222989e-01 -7.38660246e-02
   2.64930785e-01  2.98772822e-03 -2.68732011e-01 -1.10087179e-01
  -1.14154346e-01 -9.54430401e-02  2.31064230e-01  1.06633388e-01]
 [ 7.16358721e-02  6.48866832e-01 -6.84225410e-02  4.97730583e-01
   8.97936642e-01 -5.25932498e-02 -3.50610673e-01  9.89224762e-02
  -3.44520807e-02 -3.67843688e-01 -5.00509441e-01  1.97336286e-01
  -2.28507221e-01 -8.27406704e-01  6.82561815e-01 -3.41330886e-01
   2.38514930e-01  6.21337414e-01 -8.62071991e-01 -7.85656095e-01
  -6.85126901e-01 -4.30000186e-01  6.58450782e-01  1.23658323e+00
  -9.77015197e-01 -2.13968754e-01  6.83217049e-01 -1.06491828e+00
  -3.03080499e-01 -1.25013441e-01  8.39894474e-01  3.99320215e-01
  -5.97635269e-01  6.93056285e-02  3.43461841e-01 -8.52921247e-01
   5.99961340e-01  9.79272723e-02  6.89511597e-01 -7.39159584e-01
   1.15849972e-02  1.07816565e+00  7.79442787e-01 -2.20634267e-01
  -7.41664544e-02 -9.76199359e-02  2.54063815e-01 -2.57103652e-01
   5.20712912e-01  1.39798313e-01  7.39005208e-03 -6.60272837e-02
  -3.22343200e-01  5.52428961e-02  2.53391773e-01 -3.03390026e-02
  -1.64756551e-01 -4.59802091e-01  2.19144970e-01  1.72155142e-01
   4.68538463e-01  6.96505129e-01 -1.71668136e+00 -5.19344985e-01]
 [ 4.75402772e-02  3.73457521e-01 -1.36086687e-01  3.22260916e-01
   2.54281580e-01  4.54447344e-02  1.09205775e-01 -2.83004701e-01
  -9.04130340e-02  2.13507954e-02 -5.07980287e-01  7.31612742e-02
   2.68719137e-01 -4.63634171e-02  4.11396146e-01  4.20016050e-01
  -2.72165298e-01 -9.83573794e-02  9.54365358e-02  3.14648539e-01
  -3.23170185e-01  1.58883542e-01  9.53971148e-02 -3.67358953e-01
  -1.96251079e-01  1.14928782e-02  3.93904209e-01 -5.61528057e-02
  -2.56296128e-01  7.49197602e-03 -1.78419679e-01  2.81392843e-01
  -6.29992858e-02 -1.35314286e-01  1.45671949e-01 -3.29291403e-01
   7.22230077e-02 -4.78844047e-02 -3.46349061e-01  2.68734425e-01
   1.31291628e-01  2.41117910e-01 -4.73496825e-01 -2.74645209e-01
  -5.07651120e-02 -2.45170429e-01 -1.86770558e-02  1.13237888e-01
  -2.32898295e-01 -1.69283837e-01 -2.05204964e-01  2.68281072e-01
  -2.57540256e-01 -1.87659919e-01 -4.05302532e-02 -1.84240758e-01
   1.97007060e-01  2.84420341e-01  8.33602548e-02  2.86336184e-01
  -1.08276196e-01  3.50449264e-01  6.27384111e-02  3.95208508e-01]]
sequential/dense/bias:0
(64,)
[ 0.          0.0463325   0.         -0.1840649  -0.3868877  -0.28330532
  0.16116026 -0.16140176  0.          0.28045198  0.28444898  0.
 -0.32550758  0.22535455 -0.3671471   0.05743824  0.         -0.353166
  0.07808064  0.18889447  0.14085779  0.11934043  0.17044473  0.05226019
  0.22090758  0.         -0.00827275  0.16392072  0.28648877  0.
  0.23262718  0.05697221  0.23753807 -0.00772747 -0.27901414  0.342495
 -0.10460786  0.          0.01969292 -0.29038137  0.         -0.21000715
  0.30626944  0.38316816 -0.29423332  0.13396756 -0.12015086 -0.2934189
 -0.2577746   0.          0.          0.          0.23127896  0.
 -0.27703312  0.          0.19758871 -0.1127868   0.         -0.05523704
 -0.14499286 -0.04487288 -0.02127122  0.02967585]
sequential/dense_1/kernel:0
(64, 128)
[[ 1.36165246e-01  2.49469727e-02 -9.22270119e-03  1.29670456e-01
   1.36075392e-01  1.48936644e-01 -1.30014136e-01  1.37252614e-01
  -1.37216181e-01 -7.62427226e-02  5.09827286e-02  1.63195029e-01
  -2.10497379e-02 -1.04402885e-01  7.39232153e-02  1.53528646e-01
  -5.58198318e-02  4.58354950e-02  1.52511075e-01 -1.66588321e-01
  -1.71251446e-01  4.08714414e-02  1.83006674e-02 -1.64457634e-01
   5.29993623e-02 -1.53971374e-01 -1.67076305e-01 -1.53653577e-01
  -9.80053693e-02  1.50746837e-01  1.74487457e-01  9.30940360e-02
   1.52465329e-01  1.36824682e-01  7.84391314e-02  1.47025600e-01
   9.58579779e-03 -3.95739079e-02 -1.08444177e-01 -1.62451237e-01
  -1.09830499e-02  1.05437934e-02 -1.80536509e-02 -1.24688447e-02
  -1.32635415e-01 -1.54288903e-01 -1.16239995e-01  8.53175968e-02
  -1.58624053e-01 -5.10656685e-02  1.31561801e-01 -9.77838933e-02
   2.08990574e-02  1.43025026e-01  1.45409271e-01  9.64366347e-02
  -7.48621970e-02 -3.04926485e-02  1.14757493e-01  1.24182031e-01
   2.64379531e-02 -9.67997611e-02  6.41877055e-02 -8.37881044e-02
  -8.26355964e-02  1.69302359e-01  1.66268691e-01 -6.35675192e-02
   1.19883642e-01  1.30336836e-01 -9.08012986e-02  6.12941533e-02
   1.36823758e-01  7.31551200e-02  5.96610904e-02 -6.02955744e-02
   3.08278948e-02  1.60084590e-01 -1.06626548e-01 -8.38806108e-02
  -6.26311451e-02  1.62767664e-01 -3.83431017e-02 -4.16695774e-02
  -1.76482469e-01 -1.76163375e-01  8.60142857e-02  1.17843524e-01
  -1.01724863e-02  1.36872694e-01  1.18309960e-01  3.55315655e-02
   1.29912183e-01 -1.73903704e-01  1.07777163e-01  9.65779871e-02
  -1.57311082e-01 -3.98893356e-02  2.08104253e-02  1.61650926e-02
  -8.44867676e-02  6.75024092e-03 -1.20873615e-01 -7.72269070e-03
   1.31927595e-01 -1.52749568e-01 -8.72639492e-02 -1.41253561e-01
  -1.55598879e-01  9.56692249e-02 -1.05960213e-01  1.55871317e-01
   1.13267139e-01  3.98044884e-02  2.42622495e-02 -8.00857544e-02
  -5.18155470e-02  1.54238805e-01 -1.60843924e-01  1.61464080e-01
  -4.21206355e-02  1.30069271e-01  1.77104920e-02  1.69219926e-01
   1.50706932e-01  1.48034975e-01  6.43045902e-02 -5.13421893e-02]
 [-1.28336446e-02  1.89258993e-01  1.22504108e-01  7.69077167e-02
   1.27176389e-01  4.33027297e-02 -3.74148972e-02 -4.25320268e-02
   3.82258385e-01  7.40752667e-02  5.75576872e-02  3.85034323e-01
   1.86952541e-03  5.45522273e-01  1.64484173e-01 -1.11434750e-01
  -5.56655228e-02 -7.70340741e-01 -1.41910627e-01 -1.29442662e-01
  -8.07517588e-01  2.37280741e-01 -3.79296765e-02  9.10269096e-02
  -4.30656791e-01  1.85152993e-01 -1.74414828e-01 -9.75571796e-02
   3.66377383e-02  4.95300055e-01  4.11743850e-01 -8.35577667e-01
  -5.15269637e-02 -1.75221309e-01 -5.28903067e-01 -1.70642152e-01
  -1.54874668e-01 -9.55353379e-01  7.45530725e-02  1.71540946e-01
   2.86392212e-01 -1.49814010e-01 -2.34109923e-01  5.24783432e-02
  -6.72235712e-03  2.27617219e-01 -1.27950335e+00  4.41426724e-01
  -6.99018240e-02 -3.86703722e-02  2.88927406e-01  1.06667906e-01
  -5.85051738e-02  1.40185341e-01  1.71373412e-01 -7.88995385e-01
   2.97830999e-03 -3.48315805e-01 -3.50546241e-02  3.84773701e-01
  -4.31650817e-01  1.16096132e-01 -2.72657275e-02 -9.78150517e-02
  -2.45852545e-01  1.08802356e-01  1.04926459e-01  4.45893705e-01
   7.05418736e-03 -1.01585954e-01  7.23879337e-02 -1.55817226e-01
  -4.47112739e-01  5.44121623e-01 -3.75121348e-02  7.91177154e-03
   1.13425255e-01  1.84540883e-01 -1.40885875e-01  2.05277339e-01
   4.83032018e-02 -2.01417491e-01  2.40378976e-01  7.23051727e-02
   2.64193088e-01 -3.39084864e-02  1.11691944e-01 -1.72574729e-01
   2.54787743e-01 -2.67239273e-01 -7.21699223e-02  4.86506581e-01
   2.39068061e-01  7.32498914e-02 -3.95536333e-01  6.75996318e-02
   3.26808095e-01  2.24113062e-01 -3.01633328e-01  2.96248011e-02
  -1.57721594e-01 -2.65075415e-01  1.76145136e-02 -1.99427009e-01
   3.72147977e-01  1.24817699e-01  6.95429385e-01  6.36843815e-02
  -2.31990838e+00 -8.07826102e-01  1.35282949e-01 -8.07088017e-02
   7.42697269e-02 -1.42103449e-01  1.05644390e-01 -2.84938008e-01
   1.06030427e-01  9.39346105e-02  6.42921999e-02  5.08204818e-01
   4.84030470e-02 -6.59133375e-01 -4.08969730e-01  3.98925334e-01
   9.38409492e-02  5.34246266e-02 -4.52443250e-02  2.31049612e-01]
 [-1.59102678e-02  5.98783195e-02  8.54368955e-02  3.43361944e-02
   2.03438103e-03  1.09686509e-01  1.16930768e-01  2.31882632e-02
  -1.56972557e-02 -1.56114027e-01 -4.99389619e-02  1.93893611e-02
  -1.72045454e-01  1.90875530e-02  1.75776556e-01 -5.82026914e-02
   4.70362604e-03 -5.52894175e-02  6.19381666e-03  1.24733150e-03
   1.75237805e-02 -1.06441699e-01  1.57612339e-01  1.12658277e-01
   4.98554260e-02 -9.65191498e-02  1.37053832e-01  4.31470275e-02
   2.98421532e-02  4.01344150e-02  1.04181364e-01  1.08014420e-01
   6.09381497e-02  1.10559031e-01 -1.73728839e-01  1.30314007e-01
   9.69756395e-02 -1.55113250e-01  6.15483522e-02  2.32600868e-02
   1.70151338e-01 -9.42967013e-02  3.53527814e-02  3.60225141e-03
  -5.16005605e-02 -4.20800000e-02  1.50514409e-01 -1.07526600e-01
  -4.58864123e-02 -1.02461599e-01 -4.42145765e-03 -1.35854840e-01
  -1.63096339e-01  3.22127044e-02 -1.32886022e-02  9.37171131e-02
   1.75885111e-02  7.69339353e-02  4.40813452e-02 -5.46733961e-02
   7.54786879e-02 -1.32641360e-01  3.01918089e-02  1.63280502e-01
   3.00834030e-02  1.34349152e-01  1.58759162e-01  1.74296930e-01
   1.01324692e-01  1.46859840e-01 -1.41835436e-01  7.71547407e-02
   6.13240451e-02  8.36999267e-02  8.76153857e-02  1.29658625e-01
  -1.73766434e-01 -3.27371061e-02  1.40489176e-01 -1.13297008e-01
  -1.74314052e-01  5.82943112e-02 -6.83410466e-03  1.66953310e-01
  -1.59023598e-01 -7.48139843e-02 -1.51191145e-01 -8.59421417e-02
   7.10708350e-02  7.89756626e-02  3.17740440e-03 -3.81911099e-02
  -5.28636128e-02  5.57363033e-03 -1.13342695e-01  1.69151857e-01
  -2.15518326e-02 -1.62765056e-01 -1.29297465e-01  1.11232653e-01
   1.29581228e-01 -5.67430630e-02 -1.54211357e-01  9.47844237e-02
   1.27723113e-01 -1.63574189e-01  6.55027777e-02 -7.34742656e-02
  -1.47740245e-02  3.62722576e-02  6.16149455e-02  1.62073091e-01
   8.67315978e-02 -8.85597542e-02 -7.91857094e-02 -1.37398422e-01
  -6.32879585e-02 -1.81327611e-02 -2.26579309e-02 -6.24377728e-02
   1.39636800e-01  1.13444194e-01 -7.77850449e-02  9.57721025e-02
  -1.40847117e-02  5.22885174e-02 -1.71075404e-01  6.40141964e-02]
 [ 2.17269227e-01  1.33269712e-01 -1.34995192e-01  2.63623685e-01
   1.26936406e-01 -3.30747552e-02 -2.42687523e-01 -1.86945304e-01
   2.62034476e-01 -2.22684398e-01  1.50633857e-01  1.30662650e-01
   6.91726580e-02 -1.20195426e-01 -2.24909797e-01 -2.04259783e-01
   9.15876310e-03  4.75578696e-01 -2.16583125e-02  4.88667190e-03
   3.93061340e-02 -1.64359137e-01  2.37415761e-01 -1.73910582e+00
  -7.13577494e-02  2.58438557e-01  7.73733016e-03  2.76707727e-02
  -6.89937221e-03 -3.28358918e-01  3.34458649e-01 -1.03634410e-01
   1.33011118e-01  5.08753173e-02 -8.92232209e-02 -2.02743262e-01
  -1.14448622e-01 -4.02024314e-02 -1.66506946e-01  2.80888304e-02
  -2.07328528e-01 -4.86824900e-01  2.60013878e-01  2.19661146e-02
   7.77062118e-01 -1.03114557e+00  2.29815468e-01  2.15791523e-01
  -2.08915874e-01 -1.98362678e-01  3.04838836e-01 -9.94259566e-02
  -9.47684050e-02 -7.00554550e-02 -8.71594697e-02  5.89335978e-01
  -3.55253667e-02 -6.72876951e-04 -5.78004085e-02  1.62611548e-02
  -2.79565481e-03  7.26012513e-03  2.59610936e-02 -8.57874900e-02
   2.27086276e-01 -7.02899396e-02 -3.06708515e-01  8.20762664e-02
  -4.23380941e-01 -1.98061466e-01  1.31155625e-01  1.05855437e-02
   4.97511327e-01  2.07909159e-02 -1.40833445e-02  5.26314005e-02
  -2.02995211e-01 -8.14329207e-01  8.41891766e-03  5.23576513e-03
  -4.84454148e-02  7.82701932e-03  2.78984547e-01  5.91947436e-02
   1.14508703e-01  2.00354010e-01 -1.32662937e-01  1.06479838e-01
   2.80236304e-01  3.37206513e-01 -1.01730712e-01  1.59978583e-01
   9.94272158e-02  1.12038173e-01 -2.85742253e-01 -2.52998918e-02
   3.84430200e-01 -3.08015645e-01  4.71486486e-02  3.54325995e-02
   3.35917890e-01 -2.76594192e-01  1.02971107e-01 -1.65122733e-01
   2.12264225e-01 -2.41129294e-01 -1.29807621e-01  9.79518220e-02
  -3.79437506e-02 -2.95197606e-01 -8.83479714e-02  5.00338003e-02
  -1.83132917e-01  1.51941612e-01 -6.87617660e-02 -2.31859058e-01
   1.98557064e-01  6.98413700e-02  1.74768999e-01 -4.83260095e-01
  -7.02903718e-02  2.44148716e-01 -3.54441166e-01  1.05884321e-01
   3.54273394e-02 -1.08439542e-01 -1.32566303e-01  4.56056781e-02]
 [ 7.31528029e-02  9.04531926e-02  2.14229003e-01  2.50892460e-01
  -1.60830654e-02  1.35906478e-02 -2.31108159e-01 -1.28162399e-01
  -1.41731314e-02 -1.33814260e-01 -2.07434207e-01 -1.30775124e-01
  -1.01339236e-01 -2.15403631e-01 -2.37322748e-01 -1.00470804e-01
  -9.34666693e-02  1.28236622e-01  2.41223387e-02 -8.46347064e-02
  -1.58262908e-01 -1.18584074e-01 -4.45368677e-01 -1.98150456e-01
  -2.31421576e-03  9.74285454e-02  5.15722670e-03  1.51559219e-01
  -2.22897939e-02 -3.68851840e-01  1.10182770e-01  8.28052983e-02
  -1.83684051e-01 -1.40610948e-01 -2.50065625e-01 -1.65016457e-01
   6.41467869e-02 -8.45598727e-02 -9.18108895e-02 -1.41919777e-01
   2.24028885e-01 -4.72111031e-02  1.16036925e-02  1.19527904e-02
  -2.86323518e-01  9.54593942e-02 -2.43410900e-01 -4.47739035e-01
  -2.57930726e-01 -9.62165743e-02  6.87147006e-02 -1.27286151e-01
   9.44239497e-02 -1.67116687e-01 -7.78904483e-02  2.42067933e-01
  -7.10484982e-02 -2.62976408e-01 -1.39917210e-01 -1.30220339e-01
  -2.22402379e-01  1.46178408e-02 -1.48195982e-01 -6.73740804e-02
  -1.90520614e-01  1.07330121e-01 -3.16315085e-01 -3.77101288e-03
  -7.21808523e-02 -1.99621528e-01  9.56194848e-02 -2.31768861e-01
   1.00291848e-01 -7.97928795e-02  2.04172328e-01  3.83924134e-02
  -1.20321415e-01 -2.23744940e-02 -7.68960938e-02  8.95519834e-03
  -6.85887188e-02 -1.24117091e-01  1.77864105e-01  1.80897349e-03
  -6.25642529e-03 -1.20183885e-01 -2.23832920e-01 -8.71626735e-02
   2.61853095e-02  1.57713383e-01 -1.01006344e-01 -1.96085237e-02
   1.95384637e-01 -7.99567252e-02  1.76421389e-01 -6.30519390e-01
   2.54896492e-01 -5.83506152e-02 -5.95774092e-02  2.98126061e-02
   2.03233451e-01  9.87168103e-02 -1.51522413e-01 -7.47852176e-02
  -2.74755895e-01 -2.71292835e-01 -1.16210788e-01 -1.79400280e-01
  -1.86649621e-01 -1.45567968e-01  5.98654035e-04  7.42079616e-02
   1.01733275e-01 -1.41679302e-01 -1.43948793e-01  1.43654808e-01
  -1.97316818e-02 -1.85113266e-01  3.60205658e-02 -1.09814271e-01
   1.96010739e-01 -2.14127868e-01 -1.52407475e-02 -9.22376364e-02
   2.29128808e-01 -1.49105921e-01  4.92335334e-02  2.96171695e-01]
 [ 6.61155656e-02  1.15414940e-01  6.31165653e-02  1.83972031e-01
  -8.51987451e-02  4.96361442e-02 -3.92032683e-01 -6.34115636e-02
   1.66467518e-01  9.87904519e-02 -2.47790471e-01 -3.07922691e-01
  -1.74059957e-01  3.84202693e-04 -9.29128602e-02  1.50363475e-01
   6.81359321e-02  5.31879663e-02  4.51192185e-02 -1.03267238e-01
   2.35401198e-01  1.21645495e-01 -5.45705184e-02  3.66714783e-02
   1.26643464e-01  3.02779615e-01 -1.06808148e-01 -1.46717250e-01
   6.71501234e-02 -2.00676292e-01 -3.22015643e-01 -4.24144529e-02
   2.79407334e-02  3.59151214e-02  1.22880876e-01 -4.14628200e-02
  -2.04113424e-01  1.90355089e-02 -1.80024818e-01  2.22639054e-01
   1.35519594e-01 -1.29923180e-01 -1.00219347e-01 -3.96615900e-02
   9.23166610e-03  3.18378717e-01 -2.50567138e-01 -7.52306819e-01
   1.01377532e-01  8.91497731e-03 -3.82598698e-01 -1.04070365e-01
  -1.12837814e-01 -1.53541058e-01  5.78610003e-02 -1.07758872e-01
   1.98975205e-04 -2.24929661e-01  1.39788657e-01 -8.21796525e-03
  -9.77355763e-02  2.32569680e-01  1.27888978e-01 -3.21590900e-01
  -1.93756357e-01  6.62095519e-03  1.33335561e-01 -2.75711983e-01
  -1.84064627e-01 -4.46118694e-03 -1.10276043e-01 -5.07322550e-02
   3.39078903e-02 -1.93694293e-01 -6.77656531e-02 -1.87263876e-01
  -1.17205426e-01  1.02601074e-01  8.27467889e-02 -1.01234458e-01
  -1.91266358e-01  1.88609824e-01 -7.61457905e-02 -1.53584406e-01
  -2.94522673e-01 -1.71586916e-01 -1.82377566e-02 -6.43017590e-02
   2.37518832e-01  8.05568323e-02 -1.58399418e-01  9.78386998e-02
  -3.44289355e-02  2.60339491e-02  1.95567474e-01 -4.23279889e-02
   2.08213389e-01  1.07822075e-01  1.51961874e-02  1.21515132e-01
   1.28972515e-01  6.81862421e-03 -4.42332849e-02 -1.26000896e-01
  -8.00746262e-01  1.31464258e-01 -1.47885427e-01 -1.02789976e-01
  -4.84662503e-01 -1.13585539e-01 -1.92916676e-01 -1.18721753e-01
  -9.57900137e-02 -9.26119462e-02  1.37872100e-01 -1.26495063e-01
   2.05774844e-01 -1.07469097e-01 -1.53376415e-01 -2.67519891e-01
  -1.27539426e-01 -2.60737568e-01  1.89353079e-01 -5.55431485e-01
  -1.65749580e-01  1.32428735e-01  4.97975200e-02 -2.77285522e-04]
 [ 2.28911802e-01 -1.32168978e-01 -8.42222691e-01 -6.50393605e-01
   1.54759154e-01 -1.28711417e-01  2.64328182e-01  1.49639305e-02
  -7.96134114e-01  1.41307777e-02 -9.89005715e-03 -2.81387985e-01
  -2.21364930e-01 -7.75870502e-01  1.10042882e+00 -7.04064429e-01
  -6.39608577e-02 -5.53594649e-01 -8.51266459e-02  1.73574910e-01
  -9.42740202e-01  7.14731634e-01  7.01656640e-02 -7.98586458e-02
   7.78801203e-01 -2.42988870e-01 -1.07786305e-01 -8.73410344e-01
  -1.90412164e-01 -6.17405713e-01  1.93902969e-01  5.47812998e-01
  -9.42930356e-02 -9.99659076e-02  1.09913242e+00 -9.67525914e-02
   1.65197104e-02 -2.40828469e-01  1.14698336e-01 -2.09876940e-01
  -1.06768250e+00  5.31821884e-02  3.89374048e-01 -1.51591441e-02
   1.27832735e+00 -9.91581306e-02  2.18750060e-01  5.14918208e-01
   2.66408980e-01  1.00841761e-01  2.77146131e-01  5.69403470e-01
  -7.21393824e-02 -8.35044459e-02  2.60971226e-02 -4.96421248e-01
  -1.48390621e-01  3.20711643e-01  4.71596792e-02 -9.89948809e-02
   4.46043789e-01 -7.34443724e-01  1.71859264e-02  4.29069586e-02
  -8.90810937e-02 -5.17440915e-01  9.73083377e-01 -1.02642822e+00
   6.72832653e-02 -1.79555595e-01 -7.46473372e-02  2.88301229e-01
  -3.96336019e-01  8.73234510e-01 -3.70881140e-01 -1.60653859e-01
  -4.16847080e-01  4.64079350e-01 -1.11556761e-01 -7.30515540e-01
  -3.79715934e-02 -3.74696776e-02  2.84957550e-02 -1.95537508e-01
  -2.61933267e-01  2.06951916e-01 -2.52183769e-02 -3.59193981e-02
  -1.04306452e-02 -3.97748649e-01 -7.92773217e-02 -8.62078249e-01
  -4.82977122e-01  1.05995663e-01  5.62782168e-01  1.43929780e-01
  -1.44192114e-01  5.51285446e-01 -4.96604651e-01  7.13093653e-02
  -4.63365197e-01  3.79297316e-01  2.00847536e-01 -3.79216447e-02
   2.17833340e-01  2.94557899e-01 -1.62913668e+00  1.28635123e-01
   1.10591494e-01  9.24380183e-01 -1.01960115e-01  2.43908037e-02
  -3.00575122e-02 -3.49880680e-02 -1.28471017e-01 -2.23025292e-01
  -6.20660901e-01 -1.66187420e-01  3.92879933e-01  5.28658330e-01
  -2.75257051e-01  5.91837466e-01 -3.53270248e-02  3.69836301e-01
  -5.95580518e-01 -8.01501125e-02  1.15797020e-01  8.80268365e-02]
 [ 3.70571434e-01  4.72713441e-01  2.48969853e-01  3.10431838e-01
  -4.10560161e-01  1.11649230e-01 -2.83712119e-01 -6.86060861e-02
  -1.86006129e-01  3.82174514e-02 -1.34915829e-01  2.24898130e-01
  -3.34222540e-02  2.89192617e-01 -5.11858940e-01  1.48243040e-01
   9.32079852e-02  1.22077547e-01 -9.69145223e-02  1.36329249e-01
   3.72782387e-02 -3.71846080e-01  3.77624854e-02  8.85173157e-02
  -2.68075854e-01  3.92250299e-01 -1.21285364e-01 -8.32708329e-02
   1.37596965e-01  1.87305510e-01 -1.80787563e-01 -3.97275388e-01
  -3.19681764e-02 -8.15697461e-02 -2.65431434e-01 -1.23462014e-01
  -6.77172840e-03 -2.48520061e-01 -5.46021061e-03 -1.70138657e-01
   5.48535943e-01  6.76394284e-01  6.14040732e-01 -1.81448609e-01
  -1.55991507e+00  5.05398326e-02  2.90865153e-01  1.41140774e-01
   1.51225254e-01 -6.42016232e-02 -1.41635671e-01 -1.61078021e-01
   5.42823076e-02  1.50065124e-02  1.52778700e-01  4.58695382e-01
  -1.05543040e-01  2.69619584e-01 -1.63306132e-01 -1.63405374e-01
  -5.06813489e-02  4.88326520e-01  3.33971381e-02  2.40100816e-01
   3.53068709e-01 -1.85519069e-01  1.34794042e-01  1.39859587e-01
  -2.21199796e-01 -7.53174573e-02  1.40874535e-02 -4.48305637e-01
   5.92678130e-01 -8.92652422e-02  5.17687023e-01 -2.37412192e-02
  -4.12547551e-02 -1.18141659e-01 -1.48856804e-01  2.76256323e-01
   6.82793036e-02 -9.05732870e-01 -1.78128898e-01 -2.24812657e-01
  -2.80162811e-01 -2.94576641e-02  2.61933431e-02 -1.08647451e-01
   4.68993008e-01  5.27237318e-02 -1.04052603e-01  3.44409853e-01
   4.30591643e-01  3.51053244e-03 -2.19770223e-01  3.83179456e-01
  -2.15092316e-01 -7.43808806e-01  3.14251661e-01  1.08412489e-01
   8.65907431e-01 -1.63280115e-01 -4.08822060e-01 -9.75130051e-02
  -1.00373529e-01 -8.78924951e-02  3.34078133e-01 -1.07348338e-01
   2.76894063e-01 -5.68029225e-01  1.31772593e-01  1.55902505e-02
   2.92452239e-02  7.88905919e-02  7.89452121e-02 -2.43093923e-01
   5.86888433e-01 -1.07108541e-01 -1.40236825e-01 -6.26890883e-02
   1.14596270e-01 -8.79438967e-02 -1.88215703e-01  3.10455263e-01
   4.16501850e-01  1.03259712e-01  8.21704119e-02 -5.94090343e-01]
 [-1.62791520e-01 -1.69160798e-01  3.18208337e-02 -1.19014814e-01
   1.12653181e-01  1.19269475e-01 -1.21602505e-01  1.36475578e-01
   2.88366228e-02  1.26361296e-01 -8.33070800e-02 -2.68359035e-02
   1.23159364e-01  1.04650006e-01  9.16000754e-02  1.67901948e-01
   8.47885758e-02 -1.22585535e-01  1.72734603e-01  1.08565316e-01
  -5.95904589e-02  1.68441638e-01 -1.50966927e-01  4.24918681e-02
   1.75743386e-01 -2.71932334e-02  6.81157559e-02 -5.47469035e-02
  -1.08077973e-02  9.95346755e-02  8.57650787e-02  7.54147023e-02
  -2.77268589e-02  1.26603976e-01  1.62494257e-01  4.27191556e-02
   5.30882180e-03  1.45662084e-01 -1.31781474e-01  1.18138865e-01
  -1.09024331e-01  4.76307422e-02 -1.22388154e-02 -4.02218699e-02
   1.41712651e-01 -1.22205377e-01 -1.42088622e-01 -8.22759122e-02
  -5.26629388e-03 -1.35275424e-02 -4.35056984e-02  1.25666812e-01
   1.11529127e-01 -1.26967207e-01  1.59582540e-01  1.34904549e-01
   6.88325912e-02  7.31093138e-02  9.38921720e-02  1.31205425e-01
   6.64176047e-03 -7.09322616e-02 -6.89080730e-02 -8.25694203e-03
   2.41956562e-02  1.34981945e-01  6.66925460e-02  7.70148784e-02
   9.82241482e-02  7.27611333e-02  1.37131348e-01  5.10763377e-02
  -9.39101726e-02  1.47688821e-01  5.01858145e-02  2.91493535e-02
   3.39861661e-02 -1.57747775e-01 -7.74757713e-02 -3.80745381e-02
  -1.24284312e-01 -8.02838877e-02  7.31715709e-02  7.10066855e-02
   4.09699380e-02  5.30053079e-02 -1.25767842e-01  4.49024439e-02
   1.59780607e-01  1.03229091e-01 -1.19611278e-01  6.73523545e-02
  -1.75938174e-01  1.06232956e-01 -6.28809929e-02 -1.01415135e-01
  -9.86025929e-02  1.09373674e-01  1.56266540e-02 -3.98801863e-02
  -1.68616429e-01  1.14376947e-01  1.71859637e-01  1.40782788e-01
  -1.53730169e-01  1.45889595e-01  1.65387169e-01 -2.52671987e-02
  -4.91295755e-02  1.64928868e-01 -1.05627462e-01 -1.28881902e-01
  -1.64359942e-01 -8.18157122e-02 -2.15573907e-02 -3.24739814e-02
  -7.87992626e-02 -1.04299836e-01  8.70918185e-02 -1.71132222e-01
   1.98872834e-02 -1.20751351e-01 -6.62125722e-02  2.45846808e-02
  -1.25973299e-01 -1.08465403e-02 -1.53954431e-01  1.07575998e-01]
 [-5.22602499e-01 -9.64694843e-02 -2.40802750e-01  1.22609988e-01
   2.62861010e-02 -7.77229071e-02  1.39827594e-01 -1.17943041e-01
   3.03834856e-01 -2.92181484e-02 -1.45920301e-02  2.00073212e-01
  -2.04681009e-01 -4.65509057e-01  9.77958217e-02 -9.06287313e-01
   8.80369693e-02  4.09753807e-02 -7.71101713e-02 -5.31779453e-02
  -4.67143744e-01 -1.16721843e-03  3.51239741e-01  8.41260970e-01
  -2.80470997e-02 -1.76542476e-01 -1.88511357e-01 -2.57843226e-01
  -1.21700816e-01 -4.21077698e-01 -3.34925115e-01 -2.75454581e-01
  -9.67752784e-02 -1.90969095e-01  4.17581163e-02 -1.07884839e-01
  -1.26880612e-02 -1.29878759e-01 -6.49430454e-02 -1.12802811e-01
  -2.52876580e-01  2.55538553e-01 -7.97132790e-01 -8.75045806e-02
  -2.82734316e-02 -4.75781232e-01  1.72793061e-01  2.81874686e-01
  -4.10288393e-01 -5.84098585e-02  2.70644039e-01  1.95722803e-01
   1.85452010e-02  2.23282608e-03  3.58386748e-02  1.86528787e-02
  -7.99499154e-02  8.92864466e-02  1.24278236e-02  4.73356210e-02
  -4.15580384e-02 -2.70817816e-01 -1.98140353e-01 -9.63767096e-02
  -5.57833135e-01  4.11864109e-02 -7.82267973e-02 -2.84292456e-02
  -1.52292565e-01  1.24310635e-01  6.22496307e-02 -1.37779731e-02
   1.91472098e-01  1.55889645e-01 -1.05047233e-01  8.04534927e-02
  -1.98207125e-02 -3.07449788e-01  1.39902294e-01  1.65606871e-01
  -1.04329988e-01 -2.72373587e-01  3.56466949e-01 -1.30373403e-01
   1.08082362e-01 -3.09085459e-01 -9.66686010e-02 -1.46598995e-01
  -1.21761449e-01 -1.29550397e-01  1.25026524e-01  3.39319184e-02
  -1.23250306e-01 -1.33401781e-01 -2.23943874e-01 -7.06370696e-02
   2.48463243e-01 -1.51954219e-01  1.73901811e-01  9.76208821e-02
   1.62716404e-01  1.22789703e-01  9.49637368e-02 -1.29344895e-01
   1.94475949e-01  5.18437698e-02 -7.70436376e-02  4.12698425e-02
  -1.72358334e-01  5.43667600e-02 -4.68541831e-02 -1.97571591e-01
  -7.85943680e-03  7.67673831e-03 -1.72385514e-01  1.87936097e-01
   4.72258450e-03 -1.66639075e-01  1.04589753e-01 -2.60803811e-02
  -1.58566888e-02  5.30025482e-01 -9.15120319e-02  1.18614435e-01
  -1.50679216e-01 -1.03861086e-01 -7.52426833e-02 -1.02269340e+00]
 [ 5.69730818e-01 -1.20307043e-01 -1.15990043e-01 -1.84439644e-01
   5.46865985e-02  2.35986318e-02  2.69289892e-02 -1.83410436e-01
  -1.05975378e+00  1.43449903e-02 -1.55172974e-01  1.29682988e-01
  -4.35147732e-02  1.29871862e-03  2.07537469e-02  1.08792640e-01
   5.59452958e-02  1.42464191e-02 -1.92701012e-01  5.51948398e-02
  -1.16402008e-01  1.35634150e-02 -1.87580109e-01  1.04374290e-01
   9.55121890e-02 -4.22257110e-02 -2.71863192e-02  1.82600431e-02
   1.90190338e-02  9.79159772e-03  5.91896940e-03 -4.04064894e-01
   1.09881341e-01  1.66612223e-01  8.32379330e-03  1.11998792e-03
   3.51522192e-02 -7.96020031e-01 -1.04608722e-01 -1.79800838e-01
   1.01186953e-01 -1.61624730e-01 -1.30148494e+00 -1.66276515e-01
   2.17718422e-01 -2.20459625e-01 -1.38794339e+00  2.99163666e-02
  -1.66526526e-01 -1.08717889e-01  1.39600029e-02 -2.28270903e-01
   8.73791203e-02 -6.29018098e-02 -7.43958801e-02 -2.17913553e-01
  -1.08170561e-01 -1.04314220e+00  1.63418949e-02 -5.99476881e-03
  -1.21985137e-01 -1.89699978e-01  8.47672019e-03 -4.54853661e-02
   8.26960146e-01 -1.06590912e-01 -1.96343511e-02 -1.13002822e-01
  -3.81557316e-01  7.51996925e-03 -8.74868706e-02 -2.94654891e-02
  -2.54237801e-01  1.69520229e-01 -1.73381403e-01  1.35872379e-01
   1.08846940e-01 -9.28513587e-01  9.61322486e-02 -1.12540163e-01
  -1.26840726e-01 -5.68935648e-02  1.58444136e-01 -1.55002132e-01
  -1.54932618e-01  1.86985582e-01  2.06000861e-02  1.58675507e-01
   7.26153404e-02 -1.93413377e-01 -9.72493738e-02 -1.43337548e-01
  -1.44172356e-01 -7.12510198e-02 -4.48066324e-01  4.77069942e-03
   1.31138429e-01 -7.71980882e-02 -1.45000970e+00  1.20429948e-01
  -2.10164607e-01 -5.62131889e-02  5.84730208e-02 -1.03117667e-01
   1.04796022e-01  1.01698212e-01 -2.30172083e-01 -1.65718287e-01
  -9.71755326e-01 -8.04663599e-02 -6.53815493e-02  4.69670743e-02
   3.48522738e-02  1.09158203e-01  1.16046086e-01 -1.34107973e-02
  -2.16567248e-01 -2.31825877e-02 -1.57967985e-01  8.76837224e-02
  -3.94313037e-01 -2.95376807e-01  4.59754094e-02 -9.05965790e-02
  -1.89294294e-01  5.58799505e-03 -1.24142006e-01 -3.53521556e-02]
 [ 1.50693849e-01 -7.29749054e-02  1.64096043e-01 -9.87584889e-03
  -2.32440680e-02  7.28495270e-02  7.36961216e-02 -1.76061839e-01
  -1.21703193e-01  1.35225222e-01 -6.71727210e-02 -1.19711339e-01
  -1.30276412e-01  1.62821099e-01  2.63317078e-02  1.09764799e-01
  -3.38219255e-02  2.42509097e-02  1.33739784e-01 -1.46476924e-03
   4.53473479e-02 -1.32127494e-01 -7.68512785e-02 -1.30971119e-01
  -1.36192858e-01  1.56746611e-01  8.24608952e-02  1.16327778e-01
   7.96059221e-02 -1.13800623e-01 -6.84453398e-02  1.16286740e-01
  -1.97454542e-02  8.40994269e-02  1.24317721e-01 -7.74075761e-02
   1.78942084e-02 -1.88623220e-02 -2.98654288e-02  7.69486874e-02
  -2.27809250e-02  6.21425807e-02  5.68394959e-02  8.21398944e-02
   1.86812133e-02 -3.97200733e-02 -1.63206086e-01 -8.65764916e-02
   4.09896672e-02  1.18538812e-01 -1.54111549e-01  3.86328995e-02
  -1.66574419e-02  1.38039008e-01  1.24906823e-01 -1.51107907e-01
   2.01181620e-02 -3.93336713e-02 -1.10304117e-01  5.43320924e-02
   1.44453183e-01 -5.49545586e-02 -1.58708125e-01  1.29908025e-02
   7.27334023e-02 -8.26744959e-02  1.59363434e-01 -1.65776744e-01
  -1.61350816e-02  1.04436129e-02  1.49921939e-01  3.23861837e-02
   7.18696415e-03  6.48160726e-02  1.33036271e-01  4.35122848e-02
   8.34413320e-02  1.68881118e-02  1.38438180e-01  3.58010530e-02
  -1.58384308e-01 -9.98905152e-02  6.64606094e-02 -1.40460148e-01
  -1.01674676e-01 -7.92908669e-03  1.10129252e-01  1.45864412e-01
  -1.19444802e-01 -1.33803129e-01 -1.52677208e-01  1.64907128e-02
   1.46812186e-01  1.24211952e-01  1.41396150e-01  8.57556313e-02
   1.19235888e-01 -1.55494303e-01  9.78791565e-02  2.71784365e-02
  -1.43249094e-01 -1.07402980e-01 -7.21752942e-02  5.23874313e-02
  -1.28610089e-01 -8.45159814e-02  3.51597369e-02 -9.26429853e-02
  -9.11159217e-02 -1.73523709e-01  1.33783653e-01  1.37794271e-01
  -1.63218856e-01 -5.11772335e-02 -8.47571865e-02  1.21471271e-01
  -4.15082425e-02 -1.65789470e-01 -1.36690944e-01  1.45905614e-02
  -5.63921034e-03 -1.58424318e-01 -7.62657747e-02  9.48170871e-02
   1.79586411e-02 -3.85255069e-02 -1.39827102e-01 -1.20031103e-01]
 [-1.67419717e-01  1.27082646e-01  1.74495116e-01  1.80127054e-01
  -9.95233580e-02 -6.06825016e-02 -2.65041776e-02  1.03816509e-01
  -5.59731498e-02 -4.26467210e-02  9.20595415e-03  8.05069692e-03
  -1.82763431e-02 -6.89200401e-01 -5.56333177e-02 -3.18335086e-01
  -6.02280982e-02 -4.93219681e-02 -1.33336172e-01  7.28676021e-02
  -3.08659468e-02  8.90147313e-02 -1.09076120e-01  1.73547432e-01
  -4.55622561e-02  2.18144417e-01 -1.01156430e-02 -3.17854702e-01
   8.07727799e-02 -4.89908755e-01 -3.67259920e-01 -1.75427407e-01
   8.91931951e-02 -1.88960314e-01 -1.45272966e-02  1.11524507e-01
   9.27275643e-02 -1.49265110e-01 -1.77122220e-01  2.00927898e-01
  -5.25068790e-02 -1.54138476e-01  8.81503299e-02 -1.93165720e-01
  -1.57329932e-01  2.68642753e-01 -5.58448434e-01 -2.53522754e-01
  -1.71115533e-01 -1.31423965e-01 -1.31764546e-01  1.15297586e-01
  -1.84931159e-01 -2.33224947e-02  7.54228160e-02  6.14587441e-02
  -2.77818143e-02  1.09578706e-01  6.64526448e-02 -4.81987558e-02
  -1.47090256e-01  7.81446099e-02 -1.82903171e-01 -4.05293286e-01
  -1.57988966e-01  2.35312521e-01 -2.10933182e-02 -4.87997413e-01
  -1.76894501e-01 -1.92885205e-01 -4.99530286e-02  1.21510606e-02
  -4.75763110e-03  4.99459216e-03  2.06187204e-01 -1.45583466e-01
  -6.49523512e-02 -7.34307095e-02 -1.29401982e-01  4.14834283e-02
  -1.16692513e-01 -2.33660087e-01 -1.53901145e-01  1.64046530e-02
  -4.87350933e-02 -1.70263425e-01 -2.20519945e-01 -1.04409039e-01
   2.47975394e-01  4.91580367e-02  1.13603376e-01 -3.94785106e-02
   1.24818623e-01  1.72731262e-02 -9.16821882e-02 -2.98204869e-01
   4.42175359e-01  1.11894891e-01  1.22526102e-01 -7.27571100e-02
   2.65224248e-01 -5.45274727e-02 -5.65323904e-02 -3.35656069e-02
  -4.39323634e-02 -1.37547538e-01 -2.78526366e-01 -4.00122628e-02
  -9.39969942e-02 -6.60540313e-02 -1.47616933e-03 -2.23661557e-01
  -1.37607589e-01  4.81768548e-02 -1.36954919e-01 -1.09090572e-02
  -8.60924423e-02 -1.19733647e-01  8.41946602e-02 -2.77461261e-01
  -1.07499920e-01  1.27699330e-01 -1.98717162e-01  3.12681310e-02
   7.68636242e-02 -7.11689666e-02 -4.43705469e-02  2.50831872e-01]
 [ 9.00516808e-02 -2.51739055e-01  3.12109798e-01  3.37501876e-02
   2.40400523e-01 -5.41004650e-02  1.70994923e-01  9.27304700e-02
   1.54162154e-01 -8.89714137e-02 -9.66853462e-03 -1.65323876e-02
   9.01423767e-02 -4.11539301e-02  2.86030203e-01  4.92064208e-02
  -1.71162099e-01 -3.41844141e-01 -6.66043088e-02 -1.66831389e-01
  -4.85884547e-02  1.55753598e-01 -9.30877090e-01  2.66148388e-01
   1.43291309e-01 -2.64473498e-01 -6.63998071e-04 -2.44351649e+00
  -1.60018861e-01 -6.23425543e-02  4.16514687e-02  7.28661641e-02
  -4.05695885e-02 -1.75160870e-01  1.74176782e-01  2.67391698e-03
  -3.44703980e-02 -1.15886219e-01 -9.44077969e-02  1.38009205e-01
   1.02145173e-01 -1.27448678e-01  2.14657456e-01 -8.89098346e-02
   2.40987599e-01 -1.12567425e-01  1.94386557e-01  9.89225730e-02
   1.99958116e-01 -5.62204085e-02 -2.55726963e-01  1.83784142e-01
   8.90396163e-02 -1.88022390e-01 -3.89755964e-02  5.00548445e-03
   5.23040295e-02 -1.60967261e-02 -3.95147577e-02 -1.58025697e-01
   4.61541116e-02 -1.49278685e-01  2.69981660e-02 -2.15317216e-02
  -3.04145459e-02 -2.76079208e-01  1.67746425e-01  3.48337442e-02
   2.30247572e-01  1.08391404e-01 -3.72036994e-02  5.80937788e-02
  -2.10720440e-03  9.87902805e-02  8.74339417e-02 -9.28972140e-02
  -6.07845373e-03  1.31641775e-02 -4.84094471e-02  2.82627881e-01
  -6.50170222e-02 -6.19307198e-02  5.63959917e-03 -1.45791441e-01
  -1.21594526e-01 -6.10091910e-02  1.04797743e-01 -7.28316531e-02
  -4.42159595e-03 -2.38635555e-01 -1.04433419e-02  1.42367914e-01
   1.45730162e-02 -5.36608584e-02 -3.78172547e-02  3.06800425e-01
   8.86727422e-02  2.97812015e-01  4.92237508e-02 -1.94015324e-01
  -3.42859834e-01 -6.05602888e-03 -1.59703001e-01 -1.03408560e-01
  -8.15027952e-02 -1.81306064e-01  3.58505137e-02 -1.52252331e-01
   9.79660153e-02  1.70770168e-01  2.90812105e-02 -1.62978526e-02
  -1.98321328e-01 -3.82003188e-02 -1.26003325e-01 -4.95368429e-02
  -6.81748465e-02 -2.04524621e-01 -9.62801054e-02  1.51798829e-01
  -2.74349213e-01  1.43156841e-01  2.29885448e-02 -1.22566693e-01
  -1.35548161e-02 -1.71875939e-01 -3.04252412e-02  3.55141386e-02]
 [-5.55443764e-02  1.74951106e-01  1.76661596e-01  1.50859371e-01
  -5.71242988e-01 -1.80568881e-02 -9.47439894e-02 -1.37481270e-02
   2.86293119e-01 -1.72363669e-02  5.09379171e-02  2.67686307e-01
   9.34153572e-02 -1.27171564e+00 -2.78860837e-01 -5.20527780e-01
   1.74217418e-01 -1.19430520e-01 -2.92939156e-01 -4.83645201e-02
   1.55935124e-01 -1.96358234e-01 -7.76664764e-02 -3.00106764e-01
  -7.23158866e-02  3.53589892e-01  7.31120929e-02 -6.75897449e-02
   1.73121065e-01 -1.16393626e+00  4.54593182e-01 -1.18087649e-01
   1.18368134e-01 -1.53601453e-01 -1.77544743e-01  1.16412200e-01
  -1.80321783e-01  3.17310184e-01 -1.32865980e-01 -6.17538452e-01
   7.94624537e-02  1.07914217e-01 -5.38258314e-01 -9.37276110e-02
  -3.07538450e-01 -1.74582340e-02 -1.24348797e-01  1.59784779e-01
  -5.45216858e-01 -2.96010054e-03  2.46154353e-01 -5.74500114e-02
  -3.31032164e-02  1.36119232e-01 -2.73949672e-02  4.57161106e-02
  -8.32743347e-02  2.10596099e-01  1.06883207e-02 -3.63232046e-01
  -6.80368245e-02 -1.84934679e-02 -1.93671305e-02  4.30271327e-02
  -9.06965323e-03  4.73276466e-01  7.50815496e-02 -8.17704022e-01
  -3.13159257e-01 -2.24351548e-02 -1.40330076e-01  4.41075750e-02
   1.78929016e-01 -1.00393943e-01  1.87423497e-01 -1.27110183e-01
  -1.49052948e-01 -3.87588322e-01 -5.53950332e-02  3.03816319e-01
   4.47883904e-02  9.82301757e-02 -6.41425669e-01 -2.03970298e-01
   8.71138498e-02  4.55711707e-02 -1.31194562e-01 -1.38453364e-01
   2.78970718e-01  3.34475160e-01  8.57594162e-02  2.14991439e-02
   1.35551710e-02 -1.71068579e-01  2.42083341e-01 -3.98208708e-01
   4.06070292e-01  2.73222387e-01  2.48288378e-01  2.04763971e-02
   1.67234689e-01  7.27990568e-02 -1.10172361e-01 -1.45848781e-01
   1.38504654e-02 -7.47421384e-02 -3.18414778e-01  5.09821549e-02
   1.62736923e-02 -1.34783179e-01  3.36923860e-02 -1.46071911e-01
  -1.48715660e-01  9.54139140e-03 -1.58955157e-01 -2.11489797e-02
   1.26720369e-01 -8.99925735e-03  1.50714904e-01 -4.79053587e-01
   4.61129814e-01  3.06554377e-01 -1.70036882e-01  3.84168118e-01
   8.05948228e-02 -5.84564134e-02  2.72289999e-02  1.73651427e-01]
 [ 1.50488928e-01 -3.03300768e-02 -7.98349157e-02  1.49216484e-02
  -1.21384241e-01  6.59099966e-02 -2.40889611e-03  3.03271860e-02
  -3.38044614e-02  1.85538102e-02  1.85067356e-02  1.36664852e-01
  -1.15411310e-02 -3.35315019e-02  3.27165663e-01  1.93539917e-01
   3.04445978e-02  3.76701802e-01  2.54319422e-02  2.75484473e-02
  -5.23187481e-02  2.16123566e-01  1.51505694e-02 -1.30351269e+00
  -1.22574024e-01  8.82642865e-02  9.81125887e-03  9.96695086e-02
  -1.44450635e-01  4.68555540e-02  2.59842664e-01 -1.44330606e-01
  -1.13509342e-01 -1.81859374e-01  2.50434309e-01 -1.28411680e-01
  -7.13335797e-02  1.02555729e-01  9.40760300e-02 -2.45020077e-01
  -4.05311942e-01 -7.92222619e-02  5.33761859e-01 -3.91833857e-02
   6.80463195e-01 -5.48147559e-01  3.29187624e-02  2.01993376e-01
   2.29194723e-02  3.54631729e-02  6.30203122e-03 -1.48454368e-01
   1.56171173e-01  1.79136693e-02 -1.04603373e-01 -2.47547895e-01
  -1.25330016e-01  1.42969400e-01  4.59968038e-02  2.62955666e-01
  -2.15065777e-01  1.44365236e-01 -1.43339962e-01  4.47581075e-02
   6.79251105e-02 -3.79853733e-02 -5.60008585e-01  1.11092903e-01
  -1.91121921e-01 -2.32976731e-02  7.31900632e-02  6.69791475e-02
   2.49415562e-01 -8.89525935e-02 -1.66830659e-01 -2.98685785e-02
   1.19487286e-01 -8.78372043e-02  9.56272632e-02 -1.28368121e-02
  -6.57735094e-02  2.01331466e-01 -3.51839177e-02  4.12715785e-02
   2.19403535e-01  3.23597640e-01 -9.78002846e-02 -1.21133491e-01
   1.08044557e-01 -1.35609105e-01 -7.77135566e-02 -1.38297588e-01
   2.85716876e-02  8.95656869e-02  7.18528107e-02 -1.13361561e+00
   1.45254523e-01 -1.24735869e-02 -8.98478925e-02 -4.34562229e-02
  -1.64132759e-01 -2.12351963e-01 -8.92690197e-02  4.67231944e-02
   2.31019586e-01 -1.50189921e-01  1.59459531e-01 -8.56388884e-04
   2.24292934e-01  3.89164925e-01 -1.81098599e-02 -1.86823141e-02
   5.42420149e-02 -4.17807251e-02  1.29275292e-01 -8.16354677e-02
  -7.20188692e-02  3.49083543e-02  2.49640480e-01 -1.82074800e-01
  -1.89556137e-01 -3.69842462e-02 -9.69766080e-01 -4.44484800e-02
   2.87649836e-02 -6.24526069e-02 -1.26912296e-01  6.73796982e-02]
 [-1.06242381e-01 -2.32258141e-02 -1.70485854e-01  8.45528096e-02
  -1.74216688e-01 -1.40973628e-01 -1.30900651e-01  2.69597322e-02
   5.55600226e-03  1.03293911e-01  6.26327842e-02  9.20349211e-02
  -6.30658865e-02 -9.53048989e-02 -1.23392440e-01  1.70442745e-01
  -1.20466776e-01  5.94582856e-02 -1.69155538e-01  1.73681512e-01
   3.62000912e-02 -1.72887638e-01  9.52640623e-02 -4.52615023e-02
   1.12222388e-01  7.89398998e-02 -3.58992517e-02 -1.71086356e-01
   9.39496309e-02 -9.66012105e-02 -9.94592682e-02 -7.93046057e-02
   5.48539162e-02  1.10170797e-01  1.36856720e-01  1.40441671e-01
  -1.68208197e-01  7.67561644e-02  1.49841323e-01  9.71741974e-03
   1.34171918e-01  1.49565831e-01  6.72220290e-02 -1.62845269e-01
   1.67042658e-01  1.73352167e-01 -1.75686687e-01  4.56444472e-02
  -2.02869177e-02  1.62846789e-01  2.35600770e-03  6.75161779e-02
  -4.63275611e-02 -1.23476818e-01  1.09108254e-01  1.68639407e-01
   1.47671178e-01 -2.07468718e-02 -2.12666243e-02  1.33005828e-02
  -1.01131700e-01 -1.11347966e-01 -5.33126891e-02  1.31228760e-01
   2.99629569e-02 -1.33121908e-01  4.30833548e-02  6.50825351e-02
  -1.17287934e-01  1.11242101e-01  3.85712385e-02  4.40512598e-02
  -2.31605321e-02  9.38499123e-02  7.10124224e-02 -3.93313468e-02
  -1.20658875e-02 -1.50697529e-01  1.67429164e-01  2.71248221e-02
   7.90831596e-02  4.42546606e-03 -1.42866731e-01 -5.99949807e-02
   1.07081875e-01  1.36933640e-01 -2.23176032e-02 -5.01348525e-02
  -1.34287402e-01 -4.85293120e-02  5.70726097e-02 -5.99055067e-02
   9.79012698e-02  8.79089385e-02  1.62336662e-01  1.52931914e-01
   3.15349847e-02 -5.67919090e-02  5.60624748e-02 -1.40438020e-01
   3.57853323e-02 -4.45579439e-02  1.15686521e-01 -1.59429014e-01
   1.06850013e-01 -4.58638668e-02  1.01070210e-01 -1.51122242e-01
   6.40482008e-02  1.64409593e-01  4.95345145e-02 -9.37649384e-02
   2.96876431e-02  8.89670998e-02  7.87373930e-02  1.64862230e-01
  -1.64749071e-01  9.19693857e-02  5.24105132e-03  8.27756375e-02
  -1.31310359e-01 -2.08178908e-02  1.61201015e-01 -1.69214904e-02
  -4.97353822e-02  7.32614100e-03 -1.72339812e-01 -1.58225000e-01]
 [ 3.29619527e-01  1.16742507e-01 -2.91876998e-02  1.18416809e-01
  -2.31489670e-02 -4.73393388e-02 -3.21121633e-01 -2.84692105e-02
   1.27512857e-01 -1.67939633e-01 -6.61169812e-02  2.12160245e-01
  -7.50729665e-02 -1.49575233e-01 -1.93863809e-01  1.02407217e-01
  -2.88662035e-02  2.18660593e-01  6.62026256e-02 -9.41027030e-02
   2.04089150e-01 -3.59680466e-02 -1.80296287e-01 -2.16470689e-01
   9.33906883e-02  8.33486244e-02 -8.47386643e-02  2.71115452e-01
  -1.21226296e-01 -2.26649027e-02 -3.59524667e-01 -2.01759756e-01
  -1.08952627e-01 -1.85979366e-01  1.14151843e-01  1.21299766e-01
  -1.87038094e-01  4.69171293e-02 -5.68034723e-02  3.05786937e-01
   3.47426534e-02 -3.16262275e-01 -1.18206188e-01  2.70274822e-02
   1.00400165e-01  2.82223016e-01 -1.59284055e-01 -2.02678370e+00
   1.15592815e-01 -1.86535239e-01  6.31174222e-02 -1.98645502e-01
   1.11610830e-01  8.65532979e-02  2.66932826e-02  1.14709958e-01
   1.02400079e-01 -9.33130383e-01 -7.87432119e-02  2.85192877e-02
  -1.36927469e-02  2.14408293e-01  4.14692797e-02 -3.24211270e-01
   1.81624055e-01  3.14522795e-02  1.54919788e-01 -2.18119472e-01
   1.62455305e-01  1.15088694e-01 -3.44865322e-02 -2.96338517e-02
   2.63201267e-01 -1.48611818e-03 -1.21194616e-01  7.57283494e-02
   8.15993547e-02  3.54676217e-01 -1.77818865e-01 -1.61025867e-01
  -1.84278250e-01  5.44335842e-01  1.08645596e-02  1.19334809e-01
  -1.40791625e-01 -4.92436022e-01 -5.10540754e-02 -1.16442256e-01
   1.50671899e-01  6.55565634e-02 -1.98468879e-01  4.59862240e-02
   5.56158125e-02 -5.35971522e-02  4.97796573e-02  1.78777438e-03
  -1.32945403e-01  1.57550871e-01  6.66753203e-02  1.01823911e-01
   1.36729747e-01 -1.45172715e-01 -1.52763829e-01 -1.70414895e-02
  -1.62610424e+00 -1.20497815e-01  1.97262183e-01  1.26935346e-02
  -4.84424859e-01  6.03767671e-02 -2.39097357e-01  8.83850381e-02
   1.56779699e-02 -7.71014318e-02  7.25715980e-02 -1.47103116e-01
  -4.40096706e-02 -1.15689188e-01 -3.20095867e-01 -3.56168486e-04
   9.86380223e-03 -3.26174438e-01  2.51675164e-03  6.74695373e-02
  -1.32952929e-01  9.76221859e-02 -1.61090307e-02 -1.26273945e-01]
 [-1.06096315e+00 -3.80157493e-02 -1.43855488e+00 -1.86421335e-01
  -1.82415262e-01 -1.38289049e-01  1.29795879e-01  2.39592660e-02
  -4.39584740e-02 -1.56556398e-01 -1.16409719e-01 -1.92982286e-01
  -8.87180213e-03  1.84141546e-02  3.08074772e-01 -5.44622302e-01
  -1.17015272e-01 -7.13345483e-02  8.30582753e-02 -1.48464337e-01
   2.33865932e-01 -3.81626189e-02  4.60289150e-01  1.33005142e+00
  -2.27778703e-01  2.12995216e-01  9.89438295e-02  1.38953879e-01
   1.09585496e-02 -6.79668933e-02  6.62249178e-02  2.52477914e-01
   9.40445587e-02  7.09228590e-02 -3.72497998e-02 -9.95853990e-02
  -5.51535524e-02  2.08746612e-01 -2.00829536e-01 -1.12961940e-01
  -2.77164769e+00  1.13876343e-01 -6.65886328e-02 -8.91285092e-02
   2.08785623e-01 -1.06820011e+00 -3.45688425e-02 -3.86998326e-01
  -1.70329213e-02  1.10683806e-01  1.20296180e-01 -1.45837530e-01
  -7.78698474e-02 -4.26354147e-02  1.38906062e-01  4.98276316e-02
   9.96071249e-02  6.34224936e-02  1.13671198e-01 -5.95620051e-02
   2.68842708e-02  1.21685125e-01 -9.93748233e-02  1.31975397e-01
  -7.53218114e-01  1.76393390e-01  2.72185773e-01 -1.92329597e+00
  -2.25136846e-01 -1.23409308e-01  1.53574094e-01 -1.40185401e-01
  -9.86237049e-01  1.82042524e-01  4.98243310e-02 -6.57892004e-02
   5.96575141e-02 -1.27313554e+00 -5.81536889e-02  4.48598228e-02
   6.02962077e-02  2.56845564e-01 -4.40498233e-01  1.34738814e-02
   2.08119228e-01 -4.69015598e-01  4.95377332e-02 -2.48470008e-02
   1.61770403e-01 -1.24700591e-01  1.28180683e-01 -8.04881096e-01
  -1.54978279e-02 -1.67743564e-01 -8.60509202e-02  9.21670273e-02
   1.56547114e-01 -2.12205186e-01  1.31782383e-01 -1.19526267e-01
   1.23158276e-01 -1.99539572e-01  2.99617916e-01 -1.12992756e-01
  -1.95685780e+00 -8.60843360e-02 -7.29081750e-01  1.39722228e-01
  -1.57343343e-01  2.74904132e-01 -1.21233270e-01  3.13466117e-02
  -1.53712839e-01  4.70632315e-02  5.58989570e-02 -1.29577249e-01
   1.44764364e-01 -1.19710028e-01 -2.30998814e-01 -2.11998254e-01
  -1.36896044e-01  9.00163278e-02  2.09170431e-01 -4.94109929e-01
  -1.31153073e-02  1.83352679e-02  2.17538979e-02  5.22058606e-01]
 [-3.57083045e-02 -2.56489724e-01  1.65372819e-01  7.61072785e-02
  -9.41304490e-02 -3.19379829e-02  4.06741768e-01 -1.70151114e-01
   1.19715691e-01  7.17380866e-02 -1.42495319e-01 -2.96700299e-01
  -1.89116135e-01 -7.96752036e-01  2.03619048e-01 -2.19574749e-01
  -7.75948316e-02 -1.91858932e-01 -9.88461748e-02 -6.49629161e-02
   2.46590376e-02 -1.89740464e-01  2.32788682e-01  8.31157044e-02
   1.36017114e-01 -1.76941127e-01 -8.33895206e-02 -2.92077035e-01
   1.07426547e-01 -6.79080427e-01  1.49665654e-01 -5.14548011e-02
  -1.01782314e-01  4.22689766e-02 -2.25766487e-02 -1.48782268e-01
   3.53134945e-02  1.04468234e-01 -1.08926073e-02 -8.36375356e-02
  -1.09808460e-01  7.06122667e-02  7.19595924e-02 -6.68261275e-02
  -3.54328483e-01 -4.00207847e-01  1.47031471e-01  3.86404246e-02
   4.41171378e-02 -1.63509279e-01  1.26925871e-01  2.93254972e-01
  -9.53005552e-02 -1.94560036e-01 -1.30590558e-01  2.97818929e-02
   3.97262722e-02  3.84808153e-01 -1.45703539e-01 -1.89534366e-01
  -1.27961963e-01 -2.16406345e-01 -1.39147624e-01  1.09699421e-01
  -1.58507377e-01  1.84467465e-01 -2.36022100e-02  2.05435112e-01
  -2.70652100e-02  1.58125740e-02 -1.78451836e-02  1.84127435e-01
   1.35233447e-01 -3.62595282e-02  1.71651348e-01 -2.27766000e-02
  -5.04680611e-02 -1.03093646e-02  1.01118442e-02  2.36245334e-01
   5.88952564e-02 -2.02323705e-01 -2.61758864e-01 -1.82776734e-01
   2.78979152e-01  2.62502372e-01 -1.33379161e-01 -5.35599217e-02
  -9.20286030e-02  7.53988102e-02  9.42170992e-02  3.39696184e-02
   1.09243743e-01 -1.33111224e-01  9.87586305e-02  1.48485973e-01
   7.65816718e-02 -6.39145523e-02  9.52921584e-02 -7.55679458e-02
  -3.05885747e-02 -1.74185395e-01  9.69156064e-03  1.29858583e-01
   5.47325164e-02 -1.35519952e-01  1.45724881e-03 -9.13725584e-04
  -3.38381141e-01 -1.98114645e-02 -2.31708661e-01 -1.74567774e-01
   1.98230669e-02 -2.01985896e-01 -1.14157885e-01  3.20020765e-02
   4.32393700e-02 -1.66332349e-01  1.12356164e-01 -1.26580045e-01
   1.15975231e-01  5.13412297e-01 -3.15791488e-01 -9.67997387e-02
   2.89556742e-01 -8.99187103e-02  5.58661122e-04  9.39190984e-02]
 [-1.76116019e-01 -5.41668609e-02 -2.42283925e-01  2.15336233e-01
   3.65351766e-01 -2.12827891e-01  5.24268784e-02  2.69472338e-02
   3.06094103e-02 -1.12350453e-02 -1.39859766e-01 -2.21644312e-01
  -6.19363822e-02  7.41676912e-02  3.68111819e-01  1.11869335e-01
   4.29397151e-02  2.72660941e-01 -1.23792663e-01 -7.80626237e-02
   2.21205309e-01  7.98102021e-02  4.45051938e-02 -7.61497989e-02
  -1.89416796e-01  1.88141555e-01  4.74431328e-02  4.84683029e-02
  -8.97845700e-02  2.82257259e-01 -1.33036256e+00 -3.91512811e-02
   1.13993041e-01 -1.12789109e-01 -8.92908573e-02 -8.37406889e-02
  -4.98309126e-03 -1.47456244e-01  5.42152263e-02  3.81430179e-01
  -1.98878005e-01  2.71213204e-01 -9.98779684e-02  1.34175628e-01
   2.67302632e-01  3.36916924e-01 -7.34989345e-02 -3.47629547e-01
   5.19571044e-02  1.28158823e-01 -2.84324586e-01 -1.69176370e-01
  -7.47789517e-02 -9.93068889e-03 -1.79155186e-01 -1.40391380e-01
  -8.00747946e-02  2.96478868e-02 -1.60860062e-01  2.65894860e-01
  -1.12818927e-01  3.85949284e-01  1.37543172e-01 -1.70831814e-01
   1.68838147e-02 -1.32499576e-01  9.31380764e-02 -1.21553965e-01
   3.66898999e-02  6.87651411e-02 -3.44822705e-02  1.65292069e-01
  -7.07798898e-02 -1.71416715e-01  4.33527976e-02  1.34289965e-01
   8.61163884e-02  3.84458631e-01 -1.33952707e-01 -5.89258559e-02
   4.06537503e-02  5.67059338e-01 -9.32456627e-02 -5.80816530e-02
   1.34609923e-01 -2.99307644e-01  5.88122979e-02 -7.66185001e-02
   2.98325032e-01 -2.56541163e-01  1.50879947e-02 -6.74025416e-02
  -1.87385436e-02 -1.00415565e-01 -3.64214033e-01  1.22338183e-01
   6.94782138e-02 -2.69802123e-01  1.98017899e-02 -1.81396589e-01
  -3.36535424e-02 -4.37920056e-02 -1.09344184e-01 -4.03384008e-02
  -2.32590690e-01  1.70405179e-01  9.04373154e-02 -1.97929010e-01
  -2.52801985e-01 -1.89865213e-02 -1.09934732e-01 -8.96571651e-02
   9.00930837e-02 -8.47679228e-02 -5.95700890e-02 -2.87985057e-02
   1.31546259e-01  5.79295866e-02  2.56330855e-02  2.98457384e-01
  -3.42739284e-01 -1.03721797e+00  1.28552437e-01 -3.70519012e-01
  -1.81642510e-02 -1.97487533e-01  2.19529737e-02 -6.83767796e-01]
 [ 1.83707803e-01 -3.01329374e-01 -7.94639960e-02 -2.08561376e-01
   1.39681026e-01  1.75772458e-02  3.01229984e-01 -1.52037129e-01
  -1.53742269e-01 -2.14666635e-01  5.20546250e-02  5.86875044e-02
   8.01253617e-02  7.88852274e-02 -3.56974266e-02  2.41951004e-01
   5.89916669e-02 -9.69406888e-02 -4.46207672e-02 -1.47550300e-01
   8.88858587e-02  2.78269172e-01  1.59293681e-01 -2.74649989e-02
   2.48184055e-01  1.14178702e-01 -8.30252096e-03  2.02994078e-01
  -1.41403764e-01 -3.92830446e-02  1.37552038e-01  1.93037659e-01
  -5.06531335e-02  4.95718829e-02  4.27174270e-01 -1.57924369e-02
  -1.33030266e-01  2.81671405e-01 -5.54881431e-02 -2.37063151e-02
   6.69031367e-02 -2.86457539e-01 -7.14033321e-02  1.25947848e-01
   4.90200520e-02  2.89947242e-01  2.12559953e-01  1.67094499e-01
   3.08603585e-01 -1.35529310e-01  6.11126050e-02  1.61409661e-01
   4.13541347e-02 -1.80794001e-02  2.60265637e-02 -5.37966192e-01
  -1.31966084e-01  1.17322318e-01 -1.28228754e-01  3.25216025e-01
   1.56671152e-01 -1.89598441e-01 -2.19849914e-01  2.16627475e-02
   2.37505332e-01  2.32134104e-01  6.67028785e-01 -1.07449451e-02
  -3.46668750e-01 -4.79400605e-02 -9.61256251e-02  2.73722708e-01
  -6.97095633e-01  2.15260997e-01  1.18770245e-02 -3.84248383e-02
   8.97836387e-02  1.42874464e-01 -1.23556770e-01 -6.26879781e-02
   1.98127870e-02  2.23754451e-01 -1.82375208e-01 -1.30049810e-01
  -4.95412387e-02  1.13872714e-01 -1.26712680e-01  4.39724028e-02
   6.68115094e-02 -2.32982203e-01 -1.63945764e-01 -2.68503487e-01
  -2.57402867e-01 -1.07163049e-01  1.96311504e-01  3.02740067e-01
   1.61157697e-01  4.72673148e-01 -1.97448507e-01 -1.59874037e-01
  -1.72492098e-02 -7.53995124e-03  4.91867140e-02 -9.99058560e-02
  -1.15043849e-01  1.53807551e-01 -1.28828868e-01  6.29942641e-02
  -1.17911600e-01  4.13327724e-01 -1.79810494e-01  1.33525982e-01
  -4.87424023e-02 -1.52724341e-01  9.54059288e-02 -3.56930494e-02
  -1.92575321e-01 -1.63950786e-01  1.64778471e-01  2.77675301e-01
  -2.54880428e-01 -1.09418802e-01  4.14946467e-01 -2.79514700e-01
   9.74901114e-03 -1.40633702e-01  9.13208276e-02  1.63898572e-01]
 [ 4.74429995e-01  2.00512394e-01 -1.60165295e-01  4.50871773e-02
  -1.65975876e-02 -2.14429364e-01 -7.13142082e-02 -4.91494797e-02
   3.06441367e-01  8.55913684e-02 -9.09107104e-02  8.12174603e-02
   9.12469476e-02  1.79845527e-01 -5.58822632e-01  1.44717395e-01
   7.22696781e-02  3.97423744e-01 -1.55410707e-01 -1.14316940e-02
   1.09148055e-01 -4.95816946e-01  1.45265937e-01 -3.12178612e-01
  -1.18418001e-02  4.07248475e-02 -4.61020321e-02  8.49662349e-02
  -9.54546258e-02  1.61182806e-01  1.65698394e-01 -1.14833690e-01
  -1.51395619e-01 -1.10441158e-02 -3.56415138e-02  9.32218805e-02
  -3.84913683e-02  2.26045653e-01 -1.03796765e-01 -1.41028851e-01
  -2.33400464e-01 -3.13354462e-01  3.68352354e-01 -1.12442724e-01
  -1.88288271e-01 -3.39069843e-01  1.63132474e-01  5.03269807e-02
  -4.05677140e-01 -1.73416119e-02 -9.33821276e-02 -8.82707983e-02
  -1.10982675e-02  9.27201062e-02 -4.11876552e-02 -2.93711036e-01
  -1.26298845e-01 -4.04170841e-01 -5.39737418e-02  3.85535449e-01
  -2.16395468e-01  1.77647054e-01  1.02944747e-01 -2.36771673e-01
   2.63648599e-01  5.06247342e-01 -2.62273908e+00  1.97204817e-02
  -3.20183575e-01 -2.00293213e-01 -1.29670933e-01 -1.71586409e-01
  -5.67574859e-01 -7.35793531e-01  5.37651591e-02 -5.63065745e-02
   1.00879699e-01 -5.92429228e-02  1.14883766e-01 -6.60839677e-02
  -3.62769850e-02 -5.84569126e-02  2.40991354e-01  3.80202420e-02
   2.83712983e-01 -1.39712496e-02  2.12516147e-03 -1.89410001e-02
   1.55752033e-01  8.11862424e-02 -1.03088170e-01  2.95390133e-02
   7.12513998e-02  1.37158528e-01 -2.69174546e-01 -1.46014690e-01
   9.46068317e-02 -6.54949665e-01  1.37271434e-01 -1.33692443e-01
   5.00004292e-02  5.28377220e-02 -5.61365746e-02  6.68103760e-03
   3.54054570e-01 -1.21254772e-01  2.04743400e-01 -3.34388837e-02
   2.70028830e-01 -3.60141248e-02  6.88303486e-02 -7.40025118e-02
   8.72798562e-02  4.31944728e-02 -1.05997548e-01 -4.72925045e-02
  -2.49325577e-02 -8.21784437e-02  2.31090277e-01  1.34081542e-02
   1.50972575e-01 -1.06853759e-02  1.46141157e-01 -1.97191313e-01
   2.27965206e-01 -1.76542047e-02  5.51147871e-02 -3.98291409e-01]
 [ 3.88243139e-01  5.95706329e-03 -3.35359573e-02  7.17617711e-03
  -2.39883035e-01  5.29950336e-02 -1.52248427e-01  5.27688153e-02
   2.18147375e-02  4.93317693e-02 -6.93384409e-02  1.98682725e-01
   7.95299932e-02 -5.95982194e-01 -2.47263670e-01 -5.43938398e-01
  -2.06985399e-01  1.80084288e-01 -3.32046896e-02  1.52816638e-01
   2.80374914e-01  6.11147322e-02 -1.39625594e-01 -2.59050339e-01
   1.65039584e-01 -3.22182715e-01 -1.68188408e-01  2.12252308e-02
   6.37512580e-02 -4.54293549e-01 -7.75111914e-01  1.56949028e-01
   5.58965206e-02 -1.37436643e-01  1.83189780e-01 -2.08384059e-02
  -5.95755093e-02 -2.03197762e-01  1.01554073e-01  1.86754540e-02
  -4.83897254e-02 -3.00978690e-01  1.65326461e-01 -4.46654260e-02
   2.15261638e-01  3.09454612e-02  2.90242404e-01 -2.99804747e-01
  -2.49612704e-01  4.02198136e-02  4.97467676e-03  2.48014759e-02
  -1.29024073e-01  8.72199889e-03 -7.42484853e-02  2.40230542e-02
  -8.37372765e-02 -1.26586628e+00 -5.87613396e-02 -9.90142748e-02
   7.38294721e-02  1.30447656e-01 -1.79254875e-01 -4.55083922e-02
   6.48433387e-01 -1.10219561e-01  9.25674513e-02 -2.47028872e-01
   3.26754183e-01  1.11500315e-01 -1.59854472e-01  7.02448264e-02
   1.28142133e-01 -3.09503395e-02 -9.56964791e-02 -1.53045505e-01
  -3.09218407e-01  6.77548572e-02  1.03782788e-01  2.49590248e-01
   5.97253675e-03 -1.48449287e-01  2.07726419e-01 -8.11127350e-02
   2.17764340e-02 -6.54846132e-02 -3.02308928e-02  1.72402725e-01
  -6.95474148e-02  1.13746263e-01  4.25145868e-03  1.92319423e-01
   1.09130144e-02 -6.71037212e-02 -1.36164203e-01 -2.53512748e-02
  -9.05193806e-01  2.40302578e-01 -1.02400802e-01 -1.67696610e-01
   1.65987417e-01 -1.82440832e-01  2.51867715e-02 -1.34433340e-02
  -7.25196123e-01  1.30418032e-01  2.22653762e-01 -1.92843869e-01
  -2.76834428e-01  3.24629880e-02 -1.96646541e-01 -7.23284110e-02
  -7.86126256e-02  5.36735430e-02 -1.01197906e-01 -3.25844698e-02
  -1.33307457e-01  6.10718839e-02  1.07443906e-01  2.27954276e-02
   4.29544389e-01 -3.99859101e-01  2.30960891e-01 -5.57348132e-02
  -1.10963196e-01 -7.78789148e-02 -1.37809724e-01 -4.03318077e-01]
 [-1.78483173e-01  6.62387582e-03 -1.15587026e-01  3.52842174e-02
  -4.32067625e-02  6.97676539e-02  1.43524617e-01  9.25833434e-02
  -6.69619814e-02 -8.60990584e-03 -1.31167904e-01  2.13509742e-02
  -4.91476245e-02 -4.67846096e-01  5.06583638e-02 -1.42095149e+00
  -4.64511514e-02  2.58761197e-01  8.53178427e-02 -1.00807883e-01
  -5.17991424e-01 -1.34806722e-01  1.37346968e-01  5.86548820e-02
   1.87992323e-02 -1.88662037e-02 -1.52352750e-02  3.13953273e-02
  -1.80418566e-01 -3.77958745e-01 -7.05223322e-01 -2.77122408e-01
  -9.07177255e-02 -3.24366577e-02  9.42400694e-02 -1.44291326e-01
  -2.21670270e-01  1.46300733e-01  2.59294361e-02  1.46057963e-01
  -1.02575921e-01 -9.03534889e-02 -4.52298909e-01 -1.64624274e-01
   6.93162307e-02 -2.66636401e-01  8.34752470e-02 -4.84670512e-03
   1.97447568e-01 -1.17508642e-01  4.28174213e-02  1.03958622e-01
   8.12530965e-02 -6.71109110e-02  2.58833393e-02  7.90194571e-02
  -8.36060271e-02  1.70654103e-01 -6.91162348e-02 -3.99477690e-01
   8.13062210e-03  4.32059430e-02 -1.60452873e-02  1.62045449e-01
  -2.92362064e-01 -1.48756117e-01  8.07434320e-02 -2.29192555e-01
   1.49682944e-03 -1.52850926e-01  6.40427321e-02  1.29072487e-01
   3.35075371e-02  1.51481703e-01 -1.34464830e-01  2.00706180e-02
  -7.31319860e-02 -4.79233228e-02  8.93285051e-02  1.93247661e-01
   1.34221941e-01 -3.38023007e-02 -3.95698994e-01  1.17832057e-01
   3.20767276e-02 -3.79894882e-01  7.60820135e-02 -1.03182651e-01
  -2.10763365e-01 -1.51237383e-01 -1.43228710e-01  1.52547717e-01
  -1.01128392e-01 -2.39006296e-01 -1.34106800e-01  2.05441281e-01
  -3.63921046e-01  1.37610868e-01 -1.02119192e-01 -1.88970506e-01
   7.70916641e-02  1.35553107e-02 -1.46163210e-01  3.48425247e-02
  -6.15641177e-01 -1.40531376e-01 -1.59039516e-02 -1.10753872e-01
  -1.69853777e-01  1.64418146e-01 -7.67813101e-02 -5.78949824e-02
   7.68760219e-02 -3.09000984e-02  3.24484147e-02  8.71166866e-03
   1.45358011e-01 -8.40578675e-02 -5.10786653e-01  1.27317280e-01
  -7.61790946e-02  6.02274295e-03 -1.11461314e-03  1.70286655e-01
  -1.19245291e-01 -1.29148394e-01 -3.10977604e-02 -3.17510396e-01]
 [ 7.23366439e-03 -1.63709819e-01 -6.74255192e-02 -2.37973779e-02
  -1.04599796e-01  4.27223146e-02 -4.88181412e-02 -3.59204113e-02
   4.63808775e-02 -1.07675672e-01  4.38642502e-02  1.42620847e-01
  -1.09848976e-02 -3.81514579e-02 -1.71093062e-01 -1.39527738e-01
   9.73081440e-02 -3.34216058e-02 -1.54581517e-02 -3.06382775e-03
  -1.87546760e-02 -2.53397375e-02 -1.35860369e-01  8.46707374e-02
   9.14188176e-02  1.65858075e-01 -7.16356933e-02  5.94013035e-02
  -2.15560496e-02 -9.68411043e-02 -7.42533877e-02 -1.41236365e-01
   5.31275719e-02  1.37792930e-01  6.70799166e-02  1.50572345e-01
  -2.07263827e-02  1.59217849e-01  1.50350034e-02  1.17724940e-01
  -1.54645175e-01 -1.40522942e-01  1.43545672e-01  4.00605798e-02
   5.54424077e-02 -8.19972381e-02  5.22250086e-02  3.45938355e-02
   1.70605972e-01  1.52561471e-01  7.51037151e-02 -1.04519926e-01
  -6.27178401e-02  1.10928521e-01  1.35823444e-01 -6.89856634e-02
   1.17855743e-01  8.30338448e-02  9.83173996e-02  6.68183416e-02
  -1.24955326e-01  7.08531439e-02  5.59356958e-02  1.45328060e-01
  -9.95396823e-02  1.09656453e-02  1.33681670e-01  1.22105435e-01
  -1.36664361e-01 -8.28464329e-03 -3.75253558e-02  2.35669613e-02
   1.60169318e-01 -3.81586552e-02 -9.29044262e-02 -1.54616639e-01
  -2.15249062e-02  6.02705777e-02  1.35539666e-01 -1.55349746e-01
   1.43023685e-01 -1.50911808e-02 -9.92825478e-02 -1.26355827e-01
  -2.64040381e-02  2.31521428e-02 -1.59457505e-01  5.06070703e-02
  -8.52232426e-02  5.19802123e-02  9.68443900e-02  9.14024264e-02
  -5.89866936e-03  6.56613708e-02  1.45298734e-01 -1.13736682e-01
   8.51986855e-02  4.07579839e-02 -1.65204555e-01  3.10800523e-02
  -1.47134945e-01 -1.03702612e-01  8.85163099e-02 -4.27618623e-04
  -4.42286432e-02  1.70126006e-01 -1.76082581e-01  7.44694322e-02
   8.72346610e-02  3.17453891e-02 -1.53535366e-01 -1.41714767e-01
   1.03195891e-01  5.60929477e-02 -4.65137213e-02 -8.13046396e-02
  -1.63465068e-01  1.59672245e-01  1.14847079e-01  5.02194017e-02
  -1.11586094e-01 -1.57815084e-01  5.64103574e-02 -6.72771186e-02
   6.15858138e-02  2.78057903e-02  5.09557128e-02 -4.22471166e-02]
 [ 4.94872369e-02 -8.75379145e-02  1.33080080e-01  1.71411619e-01
   1.58321261e-02 -1.54285476e-01  3.63689661e-01 -8.81614760e-02
   2.16363564e-01 -7.10534118e-03 -1.59268647e-01  1.24708429e-01
  -2.96724588e-02 -1.33032110e-02  2.66959935e-01  3.80814262e-02
   2.96640135e-02 -2.70332731e-02  1.52910426e-01 -1.45924613e-01
  -2.44499385e-01  1.80472955e-01 -1.53138027e-01  1.45802885e-01
  -1.09949760e-01  2.62242317e-01 -1.87581599e-01 -4.52039421e-01
  -8.47022906e-02 -2.32834801e-01  1.78787746e-02  4.28264678e-01
  -1.16829097e-01  5.38961589e-03  1.60419773e-02  1.40794069e-01
   4.95564975e-02  2.86972433e-01  9.91951004e-02 -4.08762783e-01
  -8.49991664e-03  1.91003457e-01  3.95369381e-02  1.89165808e-02
  -7.62986660e-01 -1.26447171e-01 -5.61163664e-01 -8.01502392e-02
  -1.61383763e-01  4.27536145e-02  8.04080889e-02  3.47649395e-01
  -1.79450378e-01 -1.54578626e-01  1.38280481e-01  1.65652931e-01
  -1.18248627e-01  8.97586048e-02  7.70888254e-02 -1.70151845e-01
   1.05994634e-01 -1.07063055e-01 -9.61242765e-02  6.67198449e-02
  -1.50778279e-01  1.24725759e-01 -1.77829295e-01  6.54698089e-02
  -1.14377193e-01 -5.07308133e-02 -1.14266723e-01 -3.02789420e-01
   1.77785531e-01 -1.41988834e-02  1.90357804e-01 -5.04827723e-02
  -7.20863044e-02 -2.82266825e-01 -1.22040972e-01  1.84207082e-01
   7.99252838e-02 -1.08848371e-01  3.17870945e-01  8.37671459e-02
   2.13698477e-01  2.74751633e-01 -1.04137249e-01 -8.65678564e-02
  -7.77795464e-02  2.47075438e-01 -1.13380409e-03  6.94175363e-02
   1.90265626e-01  3.72369550e-02  4.40274656e-01 -3.45422715e-01
   2.93812394e-01 -3.62147301e-01  8.66011307e-02 -4.32449998e-03
   1.97856218e-01  5.03188185e-02  5.26348986e-02 -4.34744023e-02
  -1.96635321e-01 -2.20562309e-01 -2.13698015e-01 -3.46158817e-02
  -3.32701504e-01  2.87639461e-02 -3.67930084e-02  7.40954727e-02
  -1.87868163e-01  4.91647422e-02 -8.94592553e-02 -8.81679058e-02
  -9.26262066e-02 -3.94212874e-03  1.95788994e-01 -3.65457743e-01
   1.78368285e-01  1.50186270e-01  7.86690712e-02  2.14478388e-01
   2.17517510e-01  6.20450526e-02  5.56484759e-02  4.93095443e-02]
 [-4.76221025e-01 -8.45137164e-02  1.72139004e-01 -1.40523195e-01
   1.79623980e-02  1.11701461e-02 -5.11851255e-03 -4.77316193e-02
  -2.65174747e-01  6.49556443e-02 -1.29573584e-01 -2.10634574e-01
   1.11261420e-01 -2.53741257e-03  1.12765767e-01  1.50922826e-02
   4.72017936e-02 -2.21468732e-01  7.58302733e-02 -1.73893049e-01
  -3.61105427e-02  1.81869313e-01 -3.78173470e-01  1.20307624e-01
   3.75086032e-02 -1.32323936e-01 -1.09816067e-01 -1.61913490e+00
  -3.79971787e-02  8.58331621e-02 -3.40624481e-01  1.52708933e-01
  -1.19680613e-01 -2.13145018e-02 -3.47723700e-02 -1.72996536e-01
  -8.37971643e-03 -9.44637358e-01 -1.33789048e-01  1.87171191e-01
  -7.76064023e-02  1.46505281e-01  2.55273227e-02 -2.05265097e-02
  -1.20806061e-01 -1.62400469e-01 -4.70979363e-01 -3.72749597e-01
  -9.61825624e-03 -1.10568628e-01 -1.06867947e-01  1.01622622e-02
  -1.00230865e-01 -7.81938434e-03  6.07053423e-03 -1.23992749e-01
   5.42716980e-02  4.31283206e-01 -1.37923658e-01  9.56617594e-02
   1.19374253e-01 -1.09278820e-01 -4.21776846e-02  1.85695842e-01
  -2.73092806e-01 -1.77360237e-01 -2.51651019e-01  1.50828362e-01
   3.74059044e-02 -7.30748773e-02 -1.71732098e-01 -5.69902584e-02
   1.32734761e-01  1.12478942e-01  4.12647100e-03 -4.11251038e-02
   7.07205236e-02 -2.43938461e-01 -1.26887366e-01 -8.23724717e-02
   1.17029078e-01 -7.49753833e-01 -5.66617064e-02 -5.63682849e-03
  -1.98366627e-01  3.80004868e-02 -9.71780047e-02 -6.50016069e-02
  -9.04171169e-02 -1.75189063e-01  1.20365456e-01 -2.00503413e-02
  -1.69884861e-01 -7.44393617e-02 -4.95766029e-02  2.56188631e-01
  -2.06302300e-01 -6.66438937e-02 -3.07401549e-02 -1.08534554e-02
  -3.44396889e-01 -2.01915368e-01  1.05833635e-01  2.38792785e-03
  -1.38511375e-01 -5.59900999e-02  1.14226438e-01 -4.69168983e-02
  -5.87021112e-01  6.49090111e-02 -1.98560264e-02 -1.60054326e-01
   1.54739842e-01  7.44511336e-02 -3.52116115e-02  8.66223276e-02
   1.43206686e-01  1.17382541e-01  3.06719616e-02  2.90269643e-01
  -4.16639119e-01  8.07425156e-02  3.66117246e-02 -1.65360235e-02
   1.34949028e-01 -1.31356299e-01  3.34169939e-02  9.55858231e-02]
 [ 4.11879160e-02 -1.33623630e-01 -8.11987221e-01 -1.19069636e-01
   1.65332675e-01 -1.84349060e-01 -1.40986279e-01 -6.88421503e-02
   9.50415954e-02 -2.93427166e-02 -6.02517650e-03 -3.91453534e-01
  -1.60124481e-01  3.00976366e-01  1.39973462e-01  4.45962362e-02
  -1.39077857e-01  3.01351935e-01  1.70326363e-02 -1.21173412e-02
  -1.19353786e-01 -8.89643747e-03  2.61763006e-01 -7.26547718e-01
  -8.71654898e-02  8.22450742e-02  1.42782403e-03  1.22254707e-01
  -1.70644328e-01  9.79961306e-02 -1.10656559e+00 -1.94280654e-01
   1.30861267e-01 -7.88423941e-02 -1.57915726e-02 -1.84894428e-01
  -8.50944687e-03 -4.68854308e-02  1.24488778e-01  2.52078921e-02
  -9.40258130e-02 -2.50573307e-01 -7.56211102e-01 -3.89195755e-02
   1.00998543e-01  1.39935464e-01  9.00869146e-02  1.13867082e-01
   7.44975209e-02  6.28753453e-02 -1.91628635e-01  1.90056562e-02
  -8.11071992e-02  1.19409248e-01  1.10711910e-01 -1.17255272e-02
   1.10676035e-01 -4.05601680e-01  1.11008912e-01 -1.55071560e-02
   6.11273535e-02  2.52412081e-01  6.02212436e-02 -2.14089379e-02
  -2.09642798e-01  1.07715484e-02  1.10818297e-01  1.07447423e-01
   4.31309789e-02  1.25518247e-01  6.76097423e-02  1.08079351e-01
   1.64581034e-02 -9.64789540e-02 -1.80125237e-01 -3.24676447e-02
   7.34680705e-03  2.99139023e-01  2.30190065e-02 -7.19358101e-02
   1.32739231e-01  1.65417984e-01 -3.37860137e-01  8.43822807e-02
   1.83737680e-01 -7.53062963e-01  6.19078092e-02 -2.18301713e-02
  -1.49444520e-01  1.04288816e-01  8.78224820e-02  8.57750997e-02
  -1.80019364e-01  1.70762941e-01 -1.69088036e-01  1.68436483e-01
  -1.96721241e-01  8.45731571e-02 -1.52368188e-01 -7.40290433e-02
  -1.62517369e-01 -6.43777922e-02 -8.11908245e-02 -3.00841592e-02
  -2.32337669e-01  2.30661128e-02  1.18671283e-01  6.25540540e-02
  -2.08479017e-02 -9.28621516e-02  1.38648152e-01 -2.03541536e-02
  -5.05245365e-02 -1.66052938e-01  1.09287441e-01  5.44491298e-02
   1.50614828e-01  1.45904213e-01 -4.43995923e-01 -5.66148153e-03
  -3.23695354e-02 -1.65598005e-01  1.80934489e-01 -3.51558119e-01
  -1.22868061e-01  3.78460772e-02  1.50056332e-01 -1.45885897e+00]
 [-6.35188818e-02  6.37961179e-02 -1.65644988e-01 -2.88106203e-02
  -1.68083563e-01  1.04783773e-02 -1.00209989e-01 -1.02609158e-01
  -2.35781670e-02 -1.36331528e-01 -8.28792453e-02  1.27601132e-01
  -1.68978721e-01  1.51661381e-01 -1.19741425e-01  7.08641857e-02
   7.06449449e-02 -5.68985790e-02 -1.11034691e-01  9.26552862e-02
  -5.94247356e-02 -1.26166463e-01  2.98754573e-02 -1.37609586e-01
   1.22658655e-01 -1.53680593e-01  1.68029368e-02 -1.57115608e-01
  -1.05720900e-01 -1.40891969e-03 -1.76502183e-01 -6.48671612e-02
   5.94768673e-02  1.17279723e-01  1.67015448e-01  1.36685148e-01
  -1.56753778e-01 -6.29546195e-02  1.25252470e-01  6.80546016e-02
  -1.30487397e-01 -2.33783126e-02 -1.69040561e-01  1.13164172e-01
   5.12284786e-02  2.34004706e-02  9.02190804e-04 -6.00823984e-02
   1.15672484e-01 -1.65756255e-01  1.27483308e-02  8.69883448e-02
   7.10126758e-02 -1.34176299e-01  4.82654274e-02  4.87837493e-02
  -1.33088455e-01 -1.28466129e-01 -3.29808742e-02  8.64446908e-02
   4.14325893e-02  9.35048908e-02 -1.75072104e-02 -8.02664831e-02
   1.33247569e-01  1.26596913e-01 -9.02411193e-02  1.46660060e-02
   1.29440859e-01 -6.01586848e-02 -1.20652899e-01  2.58610100e-02
  -5.12476563e-02  5.62472790e-02  9.48867947e-02 -1.56935185e-01
   2.60720849e-02  1.43493608e-01  1.70642212e-01  1.00941584e-01
   1.00601152e-01 -1.19453982e-01 -8.97383541e-02  6.48675859e-02
   9.89941806e-02  1.16182074e-01  3.09546739e-02 -1.02606036e-01
  -9.24646854e-03 -4.80650365e-03 -9.92450342e-02 -5.37789166e-02
   9.98120755e-02 -1.71889216e-01  9.04229134e-02  7.28396922e-02
  -1.25547156e-01 -9.65282544e-02  1.08675614e-01  1.17829904e-01
   1.43015221e-01  9.96195525e-02  1.11624375e-01 -1.10297076e-01
  -1.61005214e-01  1.24850139e-01  1.67482212e-01 -1.25458360e-01
   3.53848934e-02 -1.71635330e-01  1.60773650e-01 -1.09811887e-01
  -4.48976457e-02 -6.31811991e-02 -6.47303537e-02 -2.47205198e-02
  -1.41143382e-01  2.40841061e-02 -1.17634594e-01 -6.88741878e-02
  -8.45967233e-03 -1.12043731e-01  2.24612653e-03  1.56815514e-01
   8.67383033e-02  1.46510497e-01 -1.73008293e-01  9.02950764e-04]
 [-1.73778400e-01  5.99599034e-02  1.28636863e-02 -6.69261366e-02
   2.25501761e-01 -7.01057464e-02  2.48976946e-01  9.25821215e-02
  -1.00370169e-01 -1.78330913e-01  2.21552867e-02 -2.42206916e-01
  -1.68993101e-01 -1.48757875e-01  1.60382345e-01  1.78889319e-01
  -2.04255849e-01  1.18856564e-01 -1.79785416e-01 -1.43713653e-02
  -2.04331011e-01  5.13753705e-02 -1.31267965e-01  7.08380044e-02
  -4.99671092e-03  1.68798104e-01 -3.96762006e-02 -5.79527259e-01
   2.81795934e-02  4.03960571e-02 -5.28439701e-01  2.87533104e-01
  -1.14385895e-01 -1.83859304e-01  1.11515239e-01  1.22136906e-01
  -1.91734970e-01 -2.34889418e-01 -2.19420195e-01 -2.19163492e-01
  -1.95620582e-01  1.63918346e-01  1.94734614e-02 -1.61228418e-01
   9.27700326e-02  2.60245472e-01 -1.28210202e-01 -1.10753901e-01
  -2.11071894e-01 -1.11196376e-01 -2.68411577e-01  2.76784338e-02
   4.57783788e-02 -1.69336677e-01  1.04359828e-01  1.16193093e-01
   1.23817816e-01 -1.13818347e+00  1.27283618e-01 -1.87214807e-01
   1.27975672e-01  2.43513454e-02  1.31337255e-01  2.44002134e-01
  -8.73934105e-02 -3.80639762e-01  2.58562297e-01 -2.19964176e-01
  -2.97545522e-01 -1.41232297e-01  1.36425033e-01  2.28910558e-02
   1.21447593e-01 -2.12842911e-01  1.10992819e-01 -3.72799933e-02
  -1.27758086e-01  1.86917409e-01 -8.60620141e-02 -1.24403685e-01
   1.58407405e-01  1.10268421e-01  3.05991948e-01 -4.42201309e-02
   8.87478516e-02  8.77629220e-02 -1.59368426e-01  1.42928809e-02
   8.66072625e-02  1.99044794e-01  5.72675653e-02  4.94743139e-02
   1.12433583e-01  1.22855790e-01  2.26436153e-01  2.01806705e-02
  -7.24940896e-02 -1.81565002e-01  7.97784030e-02 -4.21871394e-02
  -4.19042796e-01  9.08676237e-02 -4.30535451e-02  2.18309090e-02
  -4.02518809e-01  5.72788902e-02 -2.28605285e-01  7.31768310e-02
  -4.78974760e-01 -1.98551863e-01 -1.51631966e-01 -1.77091882e-01
  -1.83031246e-01 -1.76906630e-01 -5.54713830e-02  1.11329652e-01
   8.20133388e-02 -1.10121645e-01 -3.44001472e-01  5.88358119e-02
   1.40576780e-01 -2.33129054e-01 -4.01396640e-02  2.95391064e-02
   1.62909880e-01  1.30660966e-01 -4.98660356e-02 -7.11190104e-02]
 [ 4.42568272e-01 -5.37953302e-02  1.61601886e-01  2.92363584e-01
   7.98228234e-02 -2.51879722e-01 -1.08974949e-01 -9.45169013e-03
   2.31575027e-01 -5.42241558e-02  8.55486542e-02  1.36686414e-01
   8.25880282e-03  3.35773267e-02 -3.26623142e-01  2.72679120e-01
   3.02869901e-02  2.82365650e-01  9.35940892e-02  1.12773582e-01
   2.25839838e-01 -7.10223973e-01 -7.31538415e-01  7.15073645e-02
  -3.58931929e-01  2.63938993e-01 -8.34914111e-03  7.30779588e-01
   5.16584367e-02  4.38871123e-02  5.46683185e-02 -4.92521375e-02
   1.62627712e-01  1.54871419e-01 -4.60102707e-01 -1.89506739e-01
  -4.12913859e-02  6.11624978e-02 -7.72897853e-03 -2.07186610e-01
   1.20957427e-01 -1.65133804e-01  4.41251427e-01 -6.07738011e-02
  -1.17267478e+00 -1.23971961e-01 -1.47565857e-01  1.79731590e-03
  -3.05021405e-01  7.75555745e-02  4.38662060e-02 -2.35308349e-01
  -1.11365337e-02 -8.03658590e-02 -1.78086504e-01 -3.21118712e-01
  -1.07045785e-01 -2.52996609e-02 -3.11816391e-02  3.60978246e-01
  -5.14872558e-02  1.25818793e-03 -2.23535746e-02 -8.92773569e-02
   4.45111543e-01  4.23660636e-01 -3.65711141e+00  6.54325336e-02
  -4.41329777e-01  4.58738506e-02 -1.09521702e-01 -3.75181794e-01
  -2.63693482e-01 -5.36481857e-01  2.65146106e-01 -1.14126012e-01
   1.63267836e-01 -2.07702100e-01 -1.24357641e-01 -5.17434701e-02
  -1.04408674e-01  2.98190396e-02  2.70287901e-01  4.85415617e-03
   2.17073001e-02  1.77238747e-01 -2.90739518e-02 -1.24944076e-01
   2.96372920e-01  2.35295117e-01  8.67412761e-02  2.65517812e-02
   2.90335063e-02 -1.28664196e-01 -8.20024237e-02 -1.16569066e+00
   2.83156931e-01 -1.10248435e+00 -1.96849834e-03 -9.57477931e-03
  -6.98179677e-02  3.52982469e-02 -1.80247143e-01 -8.57327729e-02
   3.45264003e-02  2.97007803e-03 -5.59679493e-02 -1.11996233e-01
  -1.95865333e-02 -1.77555844e-01 -2.85924729e-02 -1.88964233e-01
  -1.41351268e-01  3.61679494e-02  7.73163140e-02 -6.14801198e-02
   1.27352059e-01  7.41554350e-02  7.13751987e-02 -6.93575442e-02
   2.87865669e-01  7.90943205e-02 -3.98235977e-01 -3.86245668e-01
   2.60044932e-01  3.39685418e-02  3.17901634e-02 -9.89821777e-02]
 [ 5.17487302e-02 -5.04547209e-02  1.37692720e-01 -9.73773897e-02
  -1.63458318e-01  3.00806034e-02  2.51029342e-01 -4.86332327e-02
   1.72078162e-01  1.54702608e-02 -8.17052461e-03  7.23282024e-02
   2.51699127e-02 -1.07911006e-01  7.54382759e-02 -1.14652358e-01
  -9.73308235e-02 -1.15627222e-01 -1.26784090e-02 -3.99267226e-02
  -2.79507875e-01 -6.23260774e-02 -7.76213109e-01  2.83188581e-01
   2.47175902e-01 -2.31695026e-01 -1.86815768e-01 -1.21658766e+00
  -9.75314528e-03 -8.07434842e-02  8.51965994e-02  6.25217482e-02
  -1.84623137e-01  8.88480693e-02 -1.31176308e-01 -5.60991578e-02
  -9.73424688e-02  1.95830941e-01 -1.49694011e-02  9.56612006e-02
  -1.20323554e-01  5.88018224e-02  1.99459329e-01  1.20031402e-01
   2.89796963e-02 -3.21629047e-01  1.48436606e-01 -1.49323195e-01
   2.62134057e-03 -1.28781378e-01 -2.12820515e-01  1.11934185e-01
  -1.96678907e-01 -4.69830073e-02 -9.56129283e-02  6.22973777e-02
   2.26726383e-02  1.03927739e-01  2.57600285e-02  1.17950495e-02
  -4.33745421e-02  8.53075534e-02  9.85208005e-02  4.21496667e-02
   1.44835472e-01 -1.70176342e-01  5.86691722e-02  5.27464934e-02
   1.18822291e-01 -1.19992003e-01 -1.14277169e-01  1.79180592e-01
   2.66388543e-02  1.28090635e-01 -1.05831884e-01 -1.33420348e-01
  -1.64596543e-01 -8.06049034e-02 -2.01962560e-01  1.18059762e-01
   9.93486941e-02 -1.36159763e-01  4.63714562e-02 -7.74664879e-02
  -1.49363384e-01  2.76565030e-02  4.43215156e-03 -5.55418730e-02
  -1.91844359e-01 -1.05623707e-01  2.74182688e-02  2.87215531e-01
   1.64504036e-01 -5.62640578e-02  1.04217187e-01 -3.86855528e-02
   8.53640214e-02  1.38765082e-01  1.40379369e-01 -1.64995849e-01
  -1.80641159e-01  1.93082392e-02 -3.15891020e-02  1.03036121e-01
  -1.14823736e-01 -4.66576666e-02  1.78794876e-01 -4.66463575e-03
   7.55672380e-02  1.35099754e-01 -4.91503738e-02 -6.28198832e-02
   9.49997306e-02 -8.65985304e-02 -1.51475772e-01 -2.73221992e-02
  -1.24066249e-01  7.53133073e-02 -8.91447626e-03  2.28852838e-01
   3.89322545e-03  8.75587240e-02 -4.69295047e-02  1.18749022e-01
  -7.95948878e-03  5.42024225e-02 -1.77492186e-01  6.25939593e-02]
 [-7.34174922e-02 -1.24451041e-01 -1.76626265e-01 -3.51472683e-02
   7.18732923e-02 -2.26041526e-02 -1.05554208e-01 -8.16912130e-02
  -6.47980496e-02  7.01236278e-02 -1.24159515e-01 -6.74127266e-02
  -1.49077237e-01 -3.00416350e-02 -8.31202567e-02 -1.02888718e-01
   4.78217453e-02 -3.86924148e-02 -1.24688506e-01  1.30416170e-01
   5.32955043e-02  1.64124802e-01 -7.01032802e-02  1.72585189e-01
  -6.24658503e-02  1.70009941e-01 -1.63249612e-01 -1.19374625e-01
   1.38215199e-02 -7.77722895e-03 -1.32419914e-01  5.34259826e-02
  -1.65714949e-01  7.24708736e-02 -5.74514680e-02  1.32123232e-02
  -6.71121925e-02  6.83884472e-02  3.85267287e-02  1.43164113e-01
   1.68532163e-01  1.37955591e-01  7.56078511e-02  4.10262942e-02
   6.49458766e-02  2.37166211e-02 -1.74755037e-01  4.15089577e-02
   6.73462003e-02 -1.19909555e-01 -1.06367670e-01 -1.66854009e-01
   4.86174114e-02 -9.55816731e-02  8.61262530e-02  7.19181914e-03
  -1.02169394e-01  1.44345239e-01  3.49612683e-02  1.67038500e-01
   2.00446993e-02  4.86074872e-02 -1.72331363e-01 -8.99695680e-02
  -1.01168454e-01  8.31687003e-02  1.26692370e-01 -1.09173104e-01
  -6.04379475e-02 -1.19658992e-01  3.20995897e-02  2.62516295e-03
  -1.45551980e-01 -7.98790976e-02 -6.35523163e-03  7.11760744e-02
   3.55317295e-02  9.77076292e-02 -8.46924484e-02 -1.10709868e-01
  -2.17787474e-02  7.33949244e-03  1.16869554e-01 -1.63883761e-01
  -1.49014160e-01 -2.49115564e-02  7.21173435e-02 -1.70723900e-01
   5.48094511e-02 -1.60482943e-01 -1.15244061e-01 -1.73605271e-02
  -1.32455826e-01 -1.21268630e-02  4.27003455e-04 -4.28281873e-02
  -1.41721338e-01 -5.79421408e-02 -3.64423804e-02 -1.58273175e-01
   1.72273353e-01  7.43949637e-02  1.51063293e-01 -1.66386321e-01
   4.95750606e-02 -6.86258674e-02 -9.74533707e-02  4.86049205e-02
  -9.85159799e-02  1.06023252e-01 -1.19763047e-01  1.75359547e-02
   4.01350111e-02 -8.88639316e-02  1.64790049e-01  3.66289914e-03
   1.55639499e-01 -1.02684766e-01  7.53372461e-02 -1.89486629e-04
  -1.77944332e-01 -1.32340100e-02  9.25606340e-02 -1.04867861e-01
   3.32680456e-02 -3.59049886e-02 -8.17619860e-02  1.69139504e-02]
 [-4.59270447e-01 -1.26407117e-01  1.38968065e-01 -2.70512663e-02
  -2.92342436e-02  1.12610124e-01 -1.19587041e-01 -1.62980273e-01
  -2.14637458e-01 -8.30903202e-02 -1.16614699e-02 -8.93044248e-02
  -1.53453305e-01 -2.17850238e-01 -1.86878480e-02 -1.86184555e-01
  -1.97812304e-01 -5.71947843e-02 -1.00506239e-01  1.71330884e-01
  -1.90164484e-02 -3.52898538e-02 -7.91582242e-02 -7.24289045e-02
  -7.63537139e-02  7.74063319e-02  9.89947170e-02 -7.65835494e-02
   1.74766034e-02 -6.23430192e-01 -8.21542025e-01 -8.27965233e-03
  -4.52226698e-02  1.81405991e-02  1.27621651e-01 -5.77905551e-02
  -2.30506182e-01 -1.13473900e-01 -1.81016400e-01 -1.25310227e-01
   1.88731641e-01 -8.64155963e-03  2.03718841e-01 -3.81388925e-02
  -1.02733195e-01 -9.90004092e-02 -1.52320480e+00 -1.40808904e+00
   7.74681196e-02  7.44499732e-03  4.66781333e-02 -9.61341560e-02
  -1.48086092e-02  1.18134543e-01  5.14130034e-02  1.75750688e-01
   6.61923885e-02 -2.32574597e-01 -8.97225067e-02 -2.29197368e-01
  -7.22426996e-02 -8.92257839e-02 -1.53917316e-02 -1.77161828e-01
  -4.04643685e-01  1.02606639e-01 -2.40671828e-01 -3.07163537e-01
  -2.40318596e-01  9.32468474e-02 -1.30097494e-01 -9.69361588e-02
   5.56452833e-02  1.10306390e-01  2.06395566e-01  7.55374506e-02
   5.65217808e-03 -1.19653605e-01 -4.16399539e-02  2.90224422e-02
   1.34328753e-02 -7.18756542e-02  2.13832825e-01 -1.49356708e-01
  -3.44558619e-02 -1.62236989e-01 -5.96864969e-02  2.52172947e-02
  -1.72197577e-02 -6.10185638e-02 -2.09713176e-01 -2.99560111e-02
  -5.11892028e-02 -1.60909161e-01  1.83553711e-01 -5.47565043e-01
   1.72219098e-01  1.75164510e-02  1.33897766e-01  1.22669324e-01
   8.80636275e-02 -1.86445668e-01  7.02212229e-02 -1.75627142e-01
  -1.04635286e+00  3.98567412e-03  3.00559215e-02 -1.30633593e-01
  -4.66329396e-01 -7.89402425e-02 -3.40458900e-02  1.05831139e-01
  -1.70691624e-01  1.26532704e-01  1.89865362e-02 -1.69023767e-01
   1.11672357e-02 -2.97225341e-02 -4.40042377e-01 -1.13941140e-01
  -3.38673964e-02  1.15521085e-02  1.50859833e-01 -9.55328047e-02
   1.34268953e-02 -1.05267003e-01 -1.45983607e-01 -1.23493734e-03]
 [-4.47067946e-01 -8.90410785e-03 -3.34735364e-01  1.74762502e-01
  -1.20547272e-01 -1.12504072e-01  1.55396268e-01  7.53967687e-02
  -1.90968499e-01 -3.52227241e-02  2.22062450e-02 -1.60310995e-02
   1.67451397e-01  1.56479746e-01  8.47875625e-02 -4.77143735e-01
   1.19993314e-01 -2.80420762e-04 -3.52912918e-02 -1.26759887e-01
  -4.14757207e-02  8.54071509e-03  1.17079355e-01 -2.31566653e-01
   1.79061502e-01 -1.52855620e-01 -1.18445083e-01  1.61059245e-01
   8.05206746e-02 -1.56174153e-01 -1.56628883e+00 -5.16223088e-02
  -8.14028308e-02 -1.54089080e-02  8.30902755e-02 -1.59773573e-01
  -2.42533460e-02 -8.75935480e-02 -3.15044895e-02  2.21507728e-01
  -8.75762105e-02 -1.82518080e-01 -3.49332869e-01  9.75049064e-02
   2.15729028e-01 -7.59177059e-02 -6.71041533e-02 -2.29564846e-01
  -2.94869505e-02 -1.07721640e-02 -1.93642214e-01 -4.92364215e-03
  -1.77722633e-01 -5.72040603e-02 -1.03163891e-01 -9.82784852e-02
  -5.44014648e-02 -6.43495560e-01 -5.46589904e-02  1.00341104e-01
   7.78428763e-02  6.68332204e-02  1.11597247e-01  6.42028153e-02
  -4.56445068e-01  9.39154997e-02  1.96271688e-01 -6.42797053e-02
  -5.69645576e-02  1.51363552e-01 -2.90477723e-02  1.21881619e-01
  -9.09699574e-02 -1.09799542e-01  1.33884266e-01  1.12539910e-01
  -1.70647353e-01  3.61352339e-02 -7.34616518e-02 -5.94735853e-02
  -1.48709297e-01 -5.46213649e-02 -2.18765378e-01  8.22372288e-02
   1.68309808e-01 -7.25887299e-01  4.39207330e-02  1.32544085e-01
  -2.31934920e-01 -6.96641952e-02  3.40568759e-02 -9.73748341e-02
  -3.82496533e-03 -2.49946415e-02 -2.10136279e-01 -5.38436286e-02
  -4.74738002e-01 -2.31266737e-01 -1.33268908e-01 -8.03632885e-02
  -1.69660017e-01  3.26338485e-02  3.24053578e-02  1.30664602e-01
   3.53467107e-01 -1.47963434e-01  2.13504527e-02 -2.01161519e-01
   4.82844710e-02 -4.07845154e-02  5.26807308e-02 -1.55234560e-01
   6.17050380e-02 -1.47818625e-01 -5.79304174e-02 -1.18505560e-01
   9.41521525e-02 -7.12445304e-02 -1.09441543e+00  1.37451679e-01
  -3.81694913e-01  6.09854646e-02 -7.54192024e-02 -6.63501993e-02
   1.20561421e-01 -1.68155044e-01 -2.42542177e-02 -2.34585464e-01]
 [-1.78407103e-01 -2.30025072e-02 -1.51166007e-01 -1.33647561e-01
   2.21512884e-01 -1.21765863e-02 -1.12357289e-01 -1.80989444e-01
  -2.98553351e-02 -1.03478931e-01 -1.08608909e-01 -8.88047814e-02
  -2.73660477e-02 -6.01659954e-01 -1.69931188e-01  2.88773142e-02
  -1.75601587e-01 -3.43999535e-01 -7.85202626e-03 -4.34943736e-02
  -1.66897580e-01  3.21965590e-02 -4.12817121e-01  1.00177517e-02
   1.59927517e-01  1.96006879e-01  7.71448836e-02  4.22622591e-01
  -2.48772889e-01 -7.63854802e-01 -6.94257319e-01  1.28183320e-01
  -1.42137364e-01 -2.69611329e-02  1.21674277e-01 -1.08105433e-03
   5.20517789e-02 -4.30585951e-01 -1.07585810e-01 -2.81564772e-01
   1.79232582e-02  2.99458429e-02  9.71490517e-02 -2.12141231e-01
  -5.65809533e-02  1.46328345e-01 -5.02706707e-01 -8.38566720e-01
  -1.24773115e-01 -7.75202587e-02 -2.24201288e-02 -5.30209281e-02
   9.90303829e-02 -2.06732005e-02  5.07204458e-02 -7.29506910e-02
  -1.33937329e-01 -6.21110499e-01  8.07042643e-02 -2.35050216e-01
  -1.04537465e-01 -1.79206342e-01 -2.14509703e-02 -1.75133109e-01
   1.15167007e-01 -1.21244043e-01 -1.86397195e-01 -2.45341524e-01
  -1.89480305e-01  1.42130032e-01  8.75432938e-02 -1.11166552e-01
   1.62143074e-02  8.73870216e-03  1.35983378e-01  1.01642296e-01
  -3.08399081e-01  1.00206278e-01  7.65980333e-02 -1.00601502e-01
  -1.08722553e-01  4.80454527e-02  3.37846414e-03 -5.68342768e-02
  -1.96370289e-01  2.28070170e-01 -9.05704945e-02 -1.76255882e-01
   9.46396589e-02  1.74446225e-01  6.26519397e-02 -3.12929414e-02
  -9.72433090e-02 -1.79996565e-01  5.96693833e-04  1.25832349e-01
  -1.03226729e-01 -3.60979587e-01  3.12282075e-03 -1.83864787e-01
   4.39433098e-01 -2.58261133e-02 -1.24680378e-01  2.09876262e-02
  -1.08600700e+00 -1.02556542e-01 -1.03954494e-01  1.95439663e-02
  -5.54342687e-01  8.08605328e-02 -1.32577509e-01  7.56694749e-03
  -3.97034660e-02 -1.85198620e-01 -2.47530323e-02  4.36779894e-02
   2.67987400e-02  3.25573497e-02 -2.16931313e-01 -2.66257823e-01
   2.62857284e-02  1.44740224e-01 -1.09587900e-01  6.91971406e-02
   1.39430985e-01 -1.26561448e-02  1.22176044e-01  2.11212501e-01]
 [-6.21656328e-02 -2.58292705e-02 -3.59391719e-02  9.47897285e-02
  -1.52572393e-01  1.09504625e-01  1.46023557e-01 -1.72135234e-01
  -8.37749541e-02 -1.31544113e-01  1.69009462e-01 -1.38846934e-01
  -3.06652486e-02  1.48307815e-01  1.03348866e-01 -1.18845254e-02
  -1.12636358e-01 -6.13848194e-02 -1.30675077e-01  4.22043800e-02
  -1.25835896e-01 -1.28917605e-01 -3.86457145e-03 -3.95237952e-02
   1.38423607e-01 -7.32285455e-02  1.73367396e-01  1.25832871e-01
  -9.91716981e-04 -3.43098938e-02 -9.25034285e-04 -1.60919830e-01
  -4.36605066e-02  1.85272545e-02 -8.34210441e-02 -1.14436068e-01
  -9.89207625e-02 -6.44164830e-02 -1.36123151e-01 -3.65518481e-02
  -2.40720063e-02 -1.34727508e-01 -5.71488068e-02  1.31554648e-01
   1.18060693e-01 -2.01676786e-03  1.36457488e-01 -6.45084456e-02
   2.62912810e-02 -3.21777314e-02 -9.64609832e-02  1.30799577e-01
   1.19174793e-01 -1.49286538e-01 -1.29396304e-01  1.11924365e-01
   1.67256743e-02  1.62066951e-01  3.59049439e-03  1.27649561e-01
  -1.37028545e-01 -7.07304627e-02  1.46248937e-03  6.65751100e-03
   5.62136173e-02  1.41161337e-01  5.79647273e-02  1.32851377e-01
   3.95632833e-02  6.34485036e-02 -1.64712697e-01 -9.30774808e-02
  -1.86957121e-02  3.78169268e-02 -1.69766709e-01 -9.70406756e-02
  -8.69508833e-02 -1.75723016e-01  3.81428152e-02 -1.64533451e-01
   9.64559764e-02  2.84583122e-02 -1.23696491e-01 -1.63687468e-02
   1.10069066e-02  1.59774736e-01 -1.49076641e-01 -1.05464906e-02
   7.55961090e-02  8.26182961e-03  2.88531184e-04 -8.79600048e-02
   5.12193143e-03 -1.03487790e-01 -6.22683465e-02  8.39622468e-02
  -1.48425937e-01  9.44944471e-02 -2.63312459e-02  4.74904776e-02
  -1.90219730e-02  8.76185447e-02  1.59872338e-01 -1.79384500e-02
  -7.71288574e-02  1.18073270e-01  6.76562637e-02  7.72327930e-02
  -1.38742656e-01 -1.42486602e-01 -6.68776482e-02 -3.49318087e-02
  -1.67193264e-01 -1.61946818e-01 -1.29806101e-01 -1.74868539e-01
   1.11884668e-01 -1.17987193e-01 -1.53943762e-01 -8.79657418e-02
   1.24376163e-01 -1.39978826e-01 -7.67916441e-02  7.41404742e-02
  -1.88245028e-02  2.07730383e-02 -2.04297602e-02 -1.21423379e-01]
 [ 9.96601582e-02  2.08049431e-01 -1.28076822e-01  1.42811537e-01
   1.81387648e-01 -5.52833490e-02 -1.90460205e-01 -1.50090575e-01
   1.65193111e-01  1.74340587e-02  3.36070098e-02  1.80941030e-01
  -1.36441544e-01 -2.13690609e-01 -1.50082693e-01 -6.22960962e-02
  -1.52010232e-01  2.21619040e-01  3.25059965e-02  5.76307923e-02
   2.88288921e-01  2.56819844e-01 -3.20296675e-01 -1.24680713e-01
   7.77010992e-02 -1.66208550e-01 -8.65928233e-02  2.50857323e-01
  -1.58992350e-01 -2.02274904e-01 -1.26411468e-01  2.28266463e-01
   7.52489120e-02  2.24294607e-02 -4.14881371e-02  8.46419111e-02
   7.89265782e-02 -1.72268569e-01 -1.80427298e-01  2.55873561e-01
  -1.58194408e-01 -2.90485620e-01 -3.37774027e-03 -5.17109074e-02
   3.30359370e-01 -3.01944148e-02  2.08530515e-01 -2.13301197e-01
  -1.29173309e-01 -1.26956046e-01 -2.08880380e-01  5.91578521e-02
  -1.52645960e-01  3.22743282e-02 -1.45766631e-01 -2.51999535e-02
  -4.30213511e-02 -7.76538670e-01 -1.20239101e-01  3.80301699e-02
   1.57482013e-01  1.63722873e-01  2.88478900e-02 -1.56708568e-01
   2.54433036e-01 -1.70480415e-01  5.22267725e-03  9.18135419e-02
   1.98001221e-01 -1.56473637e-01  8.99420530e-02  8.36824477e-02
   9.11286399e-02  1.53581083e-01 -9.00843367e-02 -3.72034721e-02
   8.99093524e-02 -9.87768471e-02 -9.82174426e-02  2.09471852e-01
  -9.16859657e-02  3.82984549e-01  9.11979303e-02 -8.86837137e-04
  -1.75623372e-01 -2.87790328e-01 -1.43058091e-01  6.95742518e-02
  -4.58231531e-02  6.05655015e-02 -4.49250126e-03  1.77390113e-01
  -1.33909985e-01  3.03779654e-02 -1.60846174e-01  3.48513871e-02
  -4.18064773e-01 -3.05329617e-02 -1.94835976e-01  6.62997589e-02
  -2.48473644e-01  5.81498891e-02  6.65468499e-02 -4.81671691e-02
  -5.15253544e-01  1.44368596e-02  3.72419387e-01 -3.36053781e-02
   1.45459071e-01  1.81620896e-01 -2.02883750e-01 -2.59948194e-01
  -1.25898480e-01 -1.74436625e-02  9.11168307e-02  6.89957663e-02
   1.17965937e-01  1.21840124e-03 -2.64426887e-01  8.82152542e-02
  -1.97796826e-03 -1.59064293e-01  4.80340272e-02  1.23609528e-01
   4.90915403e-02  3.77250127e-02  6.52680099e-02  1.84642337e-02]
 [-1.76565349e-01 -3.24891247e-02  2.74066567e-01  8.61902758e-02
  -3.09079975e-01 -1.53580874e-01  6.01222590e-02 -3.37684341e-02
  -3.91563848e-02  1.68399960e-01 -4.37847413e-02  1.54658645e-01
  -9.51827914e-02 -4.53378022e-01  1.11271054e-01 -3.02848637e-01
   5.82839129e-03 -5.72167158e-01  6.90262690e-02 -1.68205842e-01
   2.06723437e-01  2.92521492e-02 -6.98686242e-01  1.48640364e-01
   1.29817843e-01  2.37849772e-01  7.17457086e-02 -2.04488873e+00
   3.88244465e-02 -3.65463763e-01 -8.00741240e-02  2.37248596e-02
  -1.83436535e-02  1.18975863e-01 -1.12791501e-01 -1.00469381e-01
  -6.59399061e-03 -6.10736430e-01 -1.35119677e-01  1.21492349e-01
   8.35451335e-02  3.48702669e-02  1.28063038e-01 -1.55922174e-01
  -2.43660748e-01 -1.01104224e+00 -1.10191509e-01 -2.53378928e-01
   2.08912473e-02  9.67186969e-03 -6.89442009e-02 -4.06369030e-01
  -3.87661047e-02  9.35821831e-02 -1.80570900e-01  1.91094577e-02
   5.32607585e-02  4.31193441e-01 -1.46160126e-01 -3.95241119e-02
   9.26195234e-02  2.38100253e-02 -6.97485059e-02 -3.85650218e-01
  -2.05354661e-01  3.79880220e-01 -1.16394842e+00 -1.88130394e-01
  -3.66434641e-02  8.51262882e-02  4.33017313e-03 -8.70076045e-02
  -6.07438721e-02 -6.09284490e-02 -8.82856622e-02 -9.99631137e-02
  -2.30058208e-01 -1.45729661e+00 -1.15020975e-01  1.13990568e-01
   5.73422685e-02  8.25728402e-02 -9.77981165e-02  9.11033377e-02
  -3.19085151e-01 -1.75634608e-01 -3.53294015e-02 -7.60310143e-02
   5.85932471e-02 -6.60569251e-01  8.81044567e-02 -7.07550868e-02
  -2.47404240e-02  5.55411205e-02 -3.07819784e-01  1.44919217e-01
  -1.43046990e-01  3.76613855e-01  7.05390051e-02 -1.14850789e-01
   2.98776746e-01 -1.66500360e-01  1.14173047e-01  2.46582553e-03
   9.52436402e-02  1.15638405e-01 -1.77508071e-01 -1.77481055e-01
  -6.22885004e-02  1.42983407e-01 -1.43487126e-01  2.76906993e-02
  -2.27765571e-02 -1.69539437e-01 -9.17474553e-02 -1.21433154e-01
  -1.68727323e-01  1.48359820e-01  1.07628843e-02 -3.35710049e-01
  -3.14777583e-01  1.03136770e-01  6.41213655e-02  2.24359691e-01
   9.57317557e-03 -2.12874115e-02  1.08410634e-01  2.63626516e-01]
 [ 1.64871946e-01  1.34114638e-01  1.09420419e-02  1.66541204e-01
   1.55814871e-01 -1.16888091e-01 -1.06414258e-01 -1.66424587e-01
   1.64401367e-01 -3.67526859e-02  1.64299801e-01 -3.54047865e-02
  -5.16021103e-02  2.03310102e-02 -1.62399307e-01  1.20592371e-01
   7.83833861e-03  5.50862253e-02  4.48298454e-03 -1.50491014e-01
  -1.16129145e-01 -7.77796507e-02  1.61853001e-01  7.04218149e-02
   4.57334965e-02 -2.83461213e-02 -9.95023549e-03  8.55001062e-02
   7.61694759e-02 -6.33839667e-02  8.04321468e-03 -2.68705934e-02
  -1.41141742e-01 -8.65436643e-02 -9.57574248e-02 -7.12991506e-02
  -1.47393674e-01  1.20179281e-01 -1.52886212e-01  3.84964645e-02
   1.02804556e-01  1.19700924e-01 -6.61657006e-02 -1.22790456e-01
  -4.95209098e-02 -1.27916858e-01 -1.12373441e-01  1.51993260e-01
   2.13448554e-02 -9.75131392e-02  1.44464776e-01  8.13445002e-02
  -1.46275699e-01  6.26518726e-02  1.00603417e-01 -3.73426974e-02
  -2.55203843e-02 -1.01053767e-01 -1.47137508e-01  1.21930882e-01
   1.62365735e-02 -1.84349716e-03  7.32919425e-02 -6.97658882e-02
   1.44393340e-01 -1.70868501e-01 -4.49611545e-02  1.15900591e-01
  -1.43879265e-01  8.72497410e-02  6.09261394e-02 -1.09736778e-01
  -7.56691471e-02 -1.94452852e-02  1.31748214e-01  1.48766920e-01
   7.24947751e-02 -6.59805983e-02 -9.79763344e-02  2.72829235e-02
  -3.31764817e-02 -1.17826447e-01 -1.60946161e-01  1.58062235e-01
   3.37241739e-02  1.03349790e-01  8.48132521e-02 -6.50766715e-02
   1.73489705e-01  5.18146604e-02  1.73629627e-01 -1.19719386e-01
  -1.70069396e-01 -3.58415544e-02 -4.17437553e-02  7.41913766e-02
   1.57651886e-01  8.08785856e-03 -1.57465637e-02 -1.68168709e-01
  -1.74324498e-01 -1.34542599e-01  1.75573364e-01  8.08237046e-02
  -3.29170227e-02 -1.70666069e-01 -7.73604512e-02  6.54815137e-03
  -4.22323644e-02  1.07399896e-01 -7.06069246e-02 -1.32010043e-01
  -8.19652081e-02 -5.63828275e-02 -5.00848293e-02  5.30878752e-02
  -1.49108291e-01  9.70031172e-02 -1.64804548e-01 -4.49945778e-02
  -1.42811686e-01 -1.13497332e-01  2.68375576e-02 -1.61457613e-01
   9.42824930e-02 -4.76688892e-02 -9.07829627e-02 -6.26247823e-02]
 [ 7.70414695e-02  2.15447471e-01 -3.17675024e-02 -4.07637805e-02
   4.67581376e-02 -4.69048955e-02 -1.53082870e-02  8.42779875e-02
   2.90424913e-01 -1.70410693e-01 -5.94783351e-02 -8.82783607e-02
  -1.68976426e-01 -9.33580399e-02 -1.05855102e-02 -1.24349006e-01
  -1.63861737e-02 -2.53437072e-01  1.14866950e-01  1.69857576e-01
  -1.59848586e-01 -4.55124229e-02 -5.72286725e-01 -9.28966030e-02
   1.10667609e-01  2.11995453e-01 -5.72775118e-03 -8.76721442e-01
   3.91225107e-02 -5.94157875e-02  9.65967849e-02  2.11599216e-01
  -1.38354436e-01 -4.05082554e-02 -3.12912092e-02  1.22190960e-01
  -1.85402930e-01 -6.55928478e-02 -1.79430231e-01 -3.13191451e-02
   6.30637705e-02  5.81039563e-02 -7.13004693e-02 -5.13769053e-02
  -2.58177340e-01  5.74693605e-02 -1.94563121e-01 -9.04590338e-02
   1.24093229e-02 -2.81611159e-02  1.40798822e-01  2.12584987e-01
  -1.64348204e-02  1.05536088e-01  3.13274339e-02 -5.17445207e-02
  -1.38941377e-01 -2.07696453e-01  2.37345919e-02  3.38155888e-02
   7.04006851e-02  1.58703417e-01 -1.33038968e-01 -8.02095756e-02
   1.61560655e-01  1.59101412e-01  2.04701051e-01 -4.42111902e-02
   4.21846285e-02 -9.44770053e-02  8.12184066e-02  7.81849399e-03
   2.44680196e-02 -2.22053304e-01  1.40172094e-01  1.37103468e-01
  -2.04789445e-01  7.79389814e-02  9.15306881e-02  1.38161257e-01
  -2.92944964e-02 -1.43426538e-01  2.38380373e-01  1.07529804e-01
   1.33097455e-01  1.04393624e-01 -5.22429384e-02  6.56695962e-02
   2.30631962e-01  2.59759337e-01  3.88996974e-02  1.94098935e-01
  -5.52487485e-02 -7.67457709e-02  2.30913877e-01 -2.40682632e-01
   2.97966087e-03  4.13474739e-02  4.72694710e-02 -1.05300307e-01
   6.60971925e-02 -1.84523955e-01  9.43960920e-02  4.15157937e-02
   1.08066760e-01  1.75023954e-02 -2.28098601e-01  1.32159561e-01
  -1.17248461e-01 -2.05239013e-01 -3.74404751e-02  9.87914354e-02
   1.49440214e-01  1.17296599e-01  3.28253210e-02 -5.99435158e-02
